%YAML:1.0
---
HOGdiver96x160: !!opencv-object-detector-hog
   winSize: [ 272, 296 ]
   blockSize: [ 16, 16 ]
   blockStride: [ 8, 8 ]
   cellSize: [ 8, 8 ]
   nbins: 9
   derivAperture: 1
   winSigma: 4.
   histogramNormType: 0
   L2HysThreshold: 2.0000000000000001e-01
   gammaCorrection: 1
   nlevels: 64
   signedGradient: 0
   SVMDetector: [ 4.12951020e-04, -2.24151823e-04, -1.02604521e-04,
       -2.72777834e-04, -4.28072351e-04, -2.00313458e-04,
       -1.53242931e-04, -1.08485103e-04, 4.97596862e-04, 4.16219496e-04,
       -2.05772216e-04, -1.93581131e-04, -1.07475396e-04,
       -1.96446053e-04, -1.83511453e-04, -1.24628001e-04,
       -1.05266452e-04, 3.07244307e-04, 2.88522104e-04, -3.48246569e-04,
       -1.14753224e-04, -2.63897557e-04, -4.77279013e-04,
       -4.40337608e-04, -2.73924437e-04, -7.51153129e-05, 4.90140927e-04,
       2.51958059e-04, -2.91790871e-04, -3.18137696e-04, -2.95496196e-04,
       -4.78534319e-04, -3.24439170e-04, -2.97093386e-04,
       -2.60320725e-04, 1.36214730e-04, 4.60450072e-04, -7.70526894e-05,
       -1.60432173e-04, -8.22218499e-05, -1.35553681e-04,
       -2.13281950e-04, -2.08225567e-04, -1.73426553e-04, 2.99205014e-04,
       5.53737918e-04, -6.63319861e-06, -4.88451187e-05, -6.94599876e-05,
       -1.49623418e-04, -2.17812034e-04, -1.85621044e-04,
       -1.05629399e-04, 5.33345214e-04, 2.96834303e-04, -7.41405238e-05,
       -2.56731844e-04, -1.94163338e-04, -4.38401476e-04,
       -5.49752673e-04, -5.74130681e-04, -5.42033114e-04, 2.71545796e-05,
       5.20597212e-04, -1.70355793e-06, -1.54789479e-04, -1.66235972e-04,
       -4.52935434e-04, -5.46063471e-04, -3.35352001e-04,
       -1.27824285e-04, 4.31780441e-04, 4.44948295e-04, -1.20986042e-05,
       -6.26775582e-05, -9.02456595e-05, -1.30973218e-04,
       -1.73248860e-04, -2.85871618e-04, -3.76064330e-04, 4.09341999e-04,
       5.03476476e-04, -2.81500797e-06, -5.95148376e-05, -7.06889186e-05,
       -6.98310032e-05, -1.51808563e-04, -5.27524040e-04,
       -7.71418388e-04, 3.29338684e-04, 5.64059243e-04, -1.92975131e-05,
       -2.83885747e-04, -4.17146191e-04, -4.98915557e-04,
       -3.28512368e-04, -1.98018999e-04, -1.12749076e-04, 5.21489768e-04,
       4.57299611e-04, -5.99866107e-05, -2.25489974e-04, -4.79150942e-04,
       -3.85783671e-04, -2.82413937e-04, -2.05308781e-04,
       -2.80117849e-04, 2.97704391e-04, 5.25405747e-04, 1.42106655e-05,
       -2.37055265e-05, -2.35483221e-05, -7.21794058e-05,
       -1.76315749e-04, -4.11558605e-04, -5.09429839e-04, 3.51701805e-04,
       5.26318850e-04, -3.69324675e-06, -2.56971216e-05, -5.67908100e-05,
       -1.03505830e-04, -2.72091856e-04, -4.27762716e-04,
       -3.81883030e-04, 3.99368757e-04, 5.08418249e-04, -3.68925721e-05,
       -6.97417636e-05, -1.84582226e-04, -1.60000302e-04,
       -2.30078382e-04, -4.41343378e-04, -4.18423180e-04, 2.54183804e-04,
       5.56340092e-04, -1.49743473e-05, -2.62326612e-05, -4.64264267e-05,
       -1.15931682e-04, -3.14721517e-04, -6.65139756e-04,
       -6.39738515e-04, 2.81846005e-04, 5.28731383e-04, -4.96773064e-05,
       -5.38893473e-05, -5.41457739e-05, -1.96923531e-04,
       -2.12707659e-04, -2.23491457e-04, -1.71668071e-04, 4.22783924e-04,
       5.58201165e-04, -3.72929208e-05, -2.65760937e-05, -1.77414749e-05,
       -4.21892270e-04, -6.72288515e-05, -3.95958887e-05,
       -5.65801602e-05, 5.40970184e-04, 5.43776085e-04, -2.99286821e-05,
       -2.79774704e-05, -3.97379008e-05, -3.19679471e-04,
       -5.11430553e-04, -7.42227596e-04, -6.13578595e-04, 3.04010639e-04,
       4.14464768e-04, -1.31982364e-04, -1.96307752e-04, -3.84410028e-04,
       -5.54984144e-04, -4.09336819e-04, -3.35763063e-04,
       -3.29204457e-04, 3.34547134e-04, 5.70878037e-04, 5.20362209e-06,
       -2.32847196e-05, -1.33728763e-05, -1.80464383e-04,
       -3.55907468e-05, -2.47062726e-05, -1.88779122e-05, 4.76411224e-04,
       5.07538789e-04, -2.38903954e-06, -5.66843119e-05, -1.30094359e-05,
       -6.12171862e-05, -6.28492926e-05, -7.68535974e-05,
       -4.39051910e-05, 4.10844717e-04, 4.24647704e-04, -3.92787653e-04,
       -5.86722977e-04, -4.32066823e-04, -2.59210414e-04,
       -1.87840094e-04, -8.79216677e-05, -6.59260550e-05, 3.91916808e-04,
       2.03470147e-04, -5.85105445e-04, -5.87175426e-04, -3.01142398e-04,
       -3.05662921e-04, -5.58259198e-04, -2.69116514e-04,
       -1.94094682e-04, 2.20373586e-05, 4.66372643e-04, -7.85435914e-05,
       -7.60996118e-05, -1.60491672e-05, -5.11021426e-05,
       -7.26317812e-05, -1.65852049e-04, -1.07170548e-04, 4.31259396e-04,
       4.75145935e-04, -1.04627230e-04, -9.03881082e-05, -6.12896547e-05,
       -1.79707888e-04, -4.36217415e-05, -1.11242924e-04,
       -7.67745878e-05, 5.00030932e-04, 1.93817992e-04, -3.37072299e-04,
       -3.99334414e-04, -5.58098363e-05, -2.59397726e-04,
       -6.01634965e-04, -6.69373549e-04, -5.69204800e-04,
       -1.08442480e-04, 4.16041672e-04, -2.44183611e-04, -1.14585608e-04,
       -7.48192324e-05, -1.59376315e-04, -9.85237129e-05,
       -3.48554924e-04, -3.26798181e-04, 3.68056324e-04, 4.35067632e-04,
       -8.06677872e-06, -2.83323388e-05, -6.06052563e-05,
       -3.58339777e-04, -1.50124804e-04, -1.35169263e-04,
       -7.31859618e-05, 3.57552053e-04, 3.22366366e-04, -1.77409325e-04,
       -4.78564543e-05, -1.34413858e-04, -5.37976681e-04,
       -3.81823833e-04, -6.23956264e-04, -5.90074284e-04, 4.05773135e-05,
       3.84086685e-04, -1.28592437e-04, -6.61915838e-05, -5.71410237e-05,
       -3.67613306e-04, -8.57280684e-05, -6.13868324e-05,
       -7.38219533e-05, 3.39646300e-04, 2.78025080e-04, -9.06955611e-05,
       -7.74554428e-05, -1.15894603e-04, -4.07823332e-04,
       -1.18653552e-04, -1.18955671e-04, -1.90721112e-04, 1.55633825e-04,
       4.67445469e-04, -1.28356842e-04, -4.04314815e-05, -6.29709393e-05,
       -1.71790423e-04, -2.22508781e-04, -4.82637959e-04,
       -4.63398261e-04, 3.45114298e-04, 3.06662347e-04, -2.34513980e-04,
       -2.58065731e-04, -2.65124894e-04, -2.35477943e-04,
       -3.69003130e-04, -4.84359596e-04, -4.69640363e-04, 4.18946671e-04,
       4.90884646e-04, -7.74141154e-05, -5.75884187e-05, -5.48440585e-05,
       -3.07506794e-04, -2.49579985e-04, -1.11506080e-04,
       -1.60163618e-04, 4.83768439e-04, 4.23486577e-04, -2.89571413e-04,
       -3.65023094e-04, -3.57089040e-04, -4.85171127e-04,
       -4.85171127e-04, -1.56248789e-04, -2.08140264e-04, 5.02724550e-04,
       1.93978776e-04, -1.63608347e-04, -2.48264492e-04, -2.69310200e-04,
       -1.46226754e-04, -2.79925676e-04, -2.81688117e-04,
       -2.44925759e-04, 4.18087351e-04, 4.30609885e-04, -5.61307206e-05,
       -8.35416649e-05, -1.24726983e-04, -1.19048913e-04,
       -3.30534182e-04, -2.65815906e-04, -1.31943685e-04, 4.76652524e-04,
       3.52640520e-04, -3.21631378e-04, -4.53057321e-04, -4.61608957e-04,
       -4.61081218e-04, -3.84426006e-04, -2.12388826e-04,
       -1.39166019e-04, 5.08328434e-04, 4.23168414e-04, -2.41768066e-04,
       -3.17418424e-04, -4.27319756e-04, -2.26192045e-04,
       -4.59922128e-04, -3.86805827e-04, -2.27365468e-04, 4.82267351e-04,
       5.29771205e-04, -1.08911727e-05, -4.59290095e-05, -8.07731485e-05,
       -2.27101336e-04, -3.00514017e-04, -2.91782984e-04,
       -1.40002303e-04, 4.47489700e-04, 5.47898642e-04, -2.38808334e-05,
       -4.31402514e-05, -5.32617778e-05, -2.09127495e-04,
       -3.73001880e-04, -3.73999501e-04, -1.40423450e-04, 3.61042243e-04,
       5.20138536e-04, -7.48358070e-05, -1.97920555e-04, -1.74449146e-04,
       -1.83232944e-04, -4.93368483e-04, -4.82168514e-04,
       -3.80930083e-04, 2.30100311e-04, 4.70860425e-04, -2.25571766e-05,
       -1.28828469e-04, -9.36634751e-05, -2.05562072e-04,
       -4.63317760e-04, -4.69260442e-04, -3.74956464e-04, 1.10979759e-04,
       4.93584841e-04, -5.09987985e-05, -5.01007198e-05, -7.15902497e-05,
       -2.00241891e-04, -1.79095776e-04, -8.54660102e-05, 8.20714777e-05,
       4.28982952e-04, 2.57626700e-04, -1.79739218e-04, -1.39543554e-04,
       -3.44985339e-04, -3.66043969e-04, -3.42410960e-04,
       -2.60548928e-04, -1.29755790e-04, -6.49745198e-06, 4.35885129e-04,
       1.51224478e-04, -1.19034776e-04, -1.35211274e-04, -1.15957097e-04,
       -1.41701836e-04, -1.85903569e-04, 9.07992435e-05, 3.60819889e-04,
       2.99237348e-04, 3.14533943e-04, 3.64549087e-05, -1.96734676e-04,
       -2.05070479e-04, -3.21183586e-04, -3.11607670e-04,
       -1.20323173e-04, -1.54022473e-05, 1.19936412e-04, -1.56876471e-04,
       -8.15659223e-05, -1.54529363e-04, -2.26631644e-04,
       -2.81622604e-04, -1.66186626e-04, -1.86362362e-04,
       -3.14395817e-04, 2.76573177e-04, 5.48412681e-05, 1.62238051e-04,
       2.14570988e-04, -2.50555604e-05, -8.76996546e-06, -1.12277536e-04,
       -1.70552536e-04, -1.44909063e-04, 5.28112014e-06, 2.07318226e-04,
       1.87209953e-04, 3.41083687e-05, -2.19397960e-04, -3.00208136e-04,
       -2.03463671e-04, -1.69846564e-04, -3.41960258e-04, 1.91939384e-04,
       1.68931583e-04, 8.05735981e-05, 3.13000957e-04, 2.83567642e-04,
       -2.38374469e-07, -5.48839234e-05, -1.10488581e-05,
       -8.99252918e-05, 2.78806488e-04, 6.70776644e-05, 3.86010142e-05,
       -1.07670103e-05, -1.43465895e-05, -2.61518708e-05,
       -2.72477017e-04, -3.45954584e-04, -1.73348453e-04, 3.29237024e-04,
       4.08612133e-04, 7.30691172e-05, 3.96026098e-06, -1.17964730e-04,
       -1.19260047e-04, -3.85111460e-04, -5.60715387e-04,
       -4.13473244e-05, 2.69090699e-04, -1.63078985e-05, -3.22655163e-04,
       7.71348205e-05, 3.74724885e-04, -4.70968807e-05, -1.04555809e-04,
       -1.12888250e-04, -8.92517201e-05, 2.80992215e-04, 1.07019434e-04,
       -5.94274752e-05, -3.12613083e-05, -3.55106313e-05,
       -8.28472112e-05, -5.61318120e-05, -1.39098425e-04, 5.70884986e-05,
       3.73915565e-04, 4.52712120e-04, 8.87419592e-05, -2.52195787e-05,
       -3.97756339e-05, -1.17711825e-04, -2.74526392e-04,
       -4.35107038e-04, 1.51714867e-05, 3.31521907e-04, 2.61928333e-04,
       4.00617246e-05, -4.65022094e-05, 1.31396198e-04, -1.37069423e-04,
       -3.90908215e-04, -2.94178317e-04, -5.49603719e-05, 3.42018262e-04,
       3.59383848e-04, 1.06434534e-04, -6.25195462e-05, -7.22016193e-05,
       -1.04661543e-04, -6.48390487e-05, -7.33378693e-05, 8.80730950e-05,
       2.52989470e-04, 2.23601091e-04, 5.96007812e-05, -2.30179958e-05,
       9.57473912e-06, -1.33708207e-04, -4.47189435e-04, -3.36841709e-04,
       -1.68003717e-05, 4.85983735e-04, 1.77849826e-04, 9.05025008e-05,
       6.76798736e-05, 1.90819948e-04, 5.40350302e-05, -2.20981368e-04,
       -2.93197721e-04, 1.20585755e-05, 3.76152078e-04, 2.78437888e-04,
       8.91874661e-05, 4.10704051e-05, -3.06596958e-05, -7.14078269e-05,
       -2.56039144e-04, -3.50137008e-04, -6.42970626e-05, 4.60268522e-04,
       1.84584438e-04, 3.11468430e-05, 1.88745926e-05, 3.02681474e-05,
       -1.01685408e-04, -4.54580644e-04, -3.58065474e-04, 7.84526783e-05,
       4.61518503e-04, 1.96898822e-04, -8.51428995e-05, -1.16920826e-04,
       -1.37230280e-04, -3.21272440e-04, -4.78063041e-04,
       -4.18050564e-04, 1.37864845e-04, 3.42523592e-04, 1.63114790e-04,
       3.14417048e-05, -1.08362747e-05, -8.44825845e-05, -2.16694854e-04,
       -3.98091681e-04, -3.76147538e-04, 1.95123604e-04, 5.01710922e-04,
       -7.06562714e-05, -1.54228837e-05, -4.73534528e-05,
       -1.13330178e-04, -4.91816085e-04, -4.95385553e-04,
       -4.46832593e-04, 3.78813042e-04, 4.84656659e-04, 1.26893559e-04,
       -6.04275810e-05, -8.88447612e-05, -1.66932659e-04,
       -3.20913328e-04, -2.97017541e-04, -1.85882571e-04, 4.64011682e-04,
       4.09735716e-04, -2.25426251e-04, -1.36948249e-04, -1.61753313e-04,
       -2.00533657e-04, -5.06554556e-04, -5.01926697e-04,
       -4.58239432e-04, 3.84779880e-04, 5.18742250e-04, -5.60597437e-06,
       -2.92580389e-05, -4.60531191e-05, -5.14072017e-05,
       -2.62080255e-04, -4.23091376e-04, -3.35589546e-04, 3.28998140e-04,
       4.84785618e-04, -1.45291095e-04, -4.14416048e-04, -2.47441960e-04,
       -6.10144598e-05, -1.43822879e-04, -2.99940992e-04,
       -1.67172198e-04, 4.36672039e-04, 4.75616864e-04, -2.55188643e-04,
       -3.46615998e-04, -2.72073346e-04, -1.34068556e-04,
       -2.57205131e-04, -4.16303170e-04, -2.58726912e-04, 3.43607651e-04,
       3.77692515e-04, -2.81846354e-04, -3.72678973e-04, -4.08183434e-04,
       -1.23277176e-04, -2.25360214e-04, -3.61071143e-04,
       -1.44182122e-04, 3.21652711e-04, 4.79214708e-04, -2.65890238e-04,
       -3.43306019e-04, -2.51500605e-04, -1.16529525e-04,
       -5.06343713e-05, -4.77076101e-05, 6.42142641e-06, 5.64299291e-04,
       -3.23088061e-05, -2.85298767e-04, -2.30130434e-04, 3.86410102e-05,
       -7.97275206e-05, -1.32420500e-05, 3.88857779e-06, 1.08026856e-04,
       2.15804510e-04, 4.63862933e-04, -2.26977994e-04, -3.33494158e-04,
       -2.02361189e-04, -1.53229819e-04, -2.00361610e-04,
       -3.22634238e-04, -8.40450011e-05, 4.43199562e-04, 2.52962287e-04,
       -7.10548411e-05, -1.33850685e-04, 1.49543566e-05, -2.99251260e-04,
       -1.44156991e-04, -1.64231431e-04, -8.60549626e-05, 3.43507505e-04,
       -2.45225674e-04, -1.88479986e-04, -1.52526598e-04, 2.04972646e-04,
       1.20857592e-04, 8.36276449e-05, -2.80178283e-05, -2.52829253e-04,
       -3.21617874e-04, -3.20276944e-04, -1.74216711e-05, 8.55452818e-05,
       3.36239609e-04, 4.79342300e-04, 2.48209362e-05, -7.39887546e-05,
       -4.31036198e-04, -4.07579995e-04, -1.94057211e-05,
       -8.71844386e-05, -7.61782212e-05, 3.57422832e-04, 6.87228458e-05,
       7.69751277e-05, -7.61418196e-05, -1.86093195e-04, 9.03375185e-05,
       -1.62803757e-04, -2.19142676e-04, -1.70457366e-04, 2.92689074e-04,
       3.68006062e-04, -5.94160374e-05, -6.11570285e-05, -2.83476635e-04,
       -7.18885130e-05, -3.59241312e-05, -4.42203282e-06, 1.15291696e-04,
       1.52551380e-04, 5.89019386e-04, -3.02683748e-05, 8.62717061e-05,
       -8.52086596e-05, -2.19055510e-04, 8.70273798e-05, -1.16592091e-04,
       3.12384509e-05, -2.51589634e-04, -2.16826193e-05, -1.59549381e-04,
       -5.23511517e-05, -1.02747661e-04, 5.13925443e-05, -7.99556656e-05,
       -1.23252306e-04, -1.22396610e-04, 1.06838015e-04, 3.38802027e-04,
       -2.01346134e-04, 2.96662765e-05, -1.49393571e-04, 1.40103133e-04,
       -8.34028033e-05, -2.02406329e-04, -2.51760386e-04,
       -2.49036151e-04, 4.46174563e-05, -2.37192595e-04, 3.61857456e-05,
       -2.11905557e-04, 1.19185743e-05, 2.65171577e-04, -1.07690289e-06,
       4.79159025e-05, -1.61680699e-04, -8.49227363e-05, -1.76349189e-04,
       -3.36763507e-04, -1.30673376e-04, 3.51520488e-04, 4.99661895e-04,
       -9.54005882e-05, -1.16154341e-04, -7.16740615e-05,
       -2.03163683e-04, -3.91983864e-04, -4.02329577e-04,
       -3.05362802e-04, 4.04524239e-04, 5.18548877e-05, -1.67181774e-04,
       -1.83965138e-04, -1.49244675e-04, -3.35135996e-06,
       -1.86763413e-04, -4.49379186e-05, -1.96081855e-05, 1.29289387e-04,
       4.42158722e-04, -3.75282107e-04, -3.71646543e-04, -1.70633168e-04,
       -3.89262801e-04, -4.30795888e-04, -3.62122402e-04,
       -9.89191394e-05, 1.36196148e-04, 3.38284386e-04, -7.05100319e-05,
       -1.39831522e-04, -1.99784321e-04, -2.69103504e-04,
       -2.20492861e-04, -3.56100558e-04, -1.38048243e-04, 2.55785853e-04,
       5.14037383e-04, -4.42927449e-05, -1.94029009e-04, -3.67514091e-04,
       -3.61546932e-04, -1.13445305e-04, -1.63148754e-04,
       -1.90365943e-04, 3.36734229e-04, 4.81115072e-04, -1.33676949e-04,
       -1.88870894e-04, -2.50471639e-04, -3.73236137e-04,
       -3.97897151e-04, -3.50971823e-04, -1.78994174e-04, 1.36836257e-04,
       5.14940650e-04, 2.73667771e-04, -9.81758421e-05, -3.22048028e-04,
       -3.48048343e-04, -2.69510958e-04, -3.41289735e-04,
       -3.29355011e-04, 6.76600248e-05, 2.29595273e-04, -7.98386827e-05,
       -1.44090329e-04, -1.31348759e-04, -2.73166195e-04,
       -6.37610428e-05, -2.07181496e-04, -2.97816499e-04, 5.34479659e-05,
       1.81164054e-04, -2.62280082e-05, -1.48105129e-04, -6.48192290e-05,
       -1.89277038e-04, -1.54466077e-04, -3.50302609e-04,
       -2.82767927e-04, 1.63569246e-04, 5.04970842e-04, 1.90864579e-04,
       -3.75201744e-05, -8.81948581e-05, -3.27418733e-04,
       -1.58839641e-04, -2.22897172e-04, -3.49284994e-04,
       -9.70135370e-05, 5.12257102e-04, 4.39251366e-04, -6.43989988e-05,
       -8.23775772e-05, -2.72001140e-04, -2.42994487e-04,
       -3.24859662e-04, -2.79597647e-04, 8.98546059e-05, 7.81736453e-05,
       -1.52132387e-04, -1.49872954e-04, -1.14885042e-04,
       -3.42406012e-04, -2.63791881e-04, -2.91327509e-04,
       -1.70376239e-04, 7.25841601e-05, 2.27730474e-04, -1.52006658e-04,
       -1.34459464e-04, -1.53178902e-04, -3.48790840e-04,
       -3.58708261e-04, -2.51545513e-04, -1.80263407e-04, 8.63384848e-05,
       6.56081189e-04, 2.48745870e-04, -1.23306687e-04, -1.79146547e-04,
       -2.86898867e-04, -2.33731000e-04, -3.41524428e-04,
       -1.59325180e-04, -1.81842921e-07, 5.40505222e-04, -2.33579813e-05,
       -2.25144599e-04, -2.33431536e-04, -3.33455682e-04,
       -3.02694127e-04, -1.69971361e-04, -2.82185036e-04, 3.34961602e-04,
       1.17406285e-04, -7.65203076e-05, -2.01501622e-04, -2.06029203e-04,
       -1.95280372e-04, -2.64139584e-04, -1.43899582e-04,
       -1.46330436e-04, -1.50983205e-05, 4.22290090e-04, 8.54448881e-05,
       -9.04102781e-05, -1.38591786e-04, -1.08586479e-04,
       -1.30556684e-04, -8.73582539e-05, -1.28901418e-04, 9.15906348e-05,
       4.05588478e-04, -9.51779366e-05, -2.64373026e-04, -2.97683990e-04,
       -2.88334617e-04, -4.08869499e-04, -1.63006465e-04,
       -3.62634892e-04, 3.65351007e-05, 5.00380003e-04, 3.66079388e-04,
       -1.95588742e-04, -2.92699755e-04, -1.64506171e-04,
       -4.22197947e-04, -2.03468109e-04, -2.15279928e-04,
       -1.71683569e-04, 3.66683671e-04, 1.45737004e-05, -1.43422963e-04,
       -2.64319096e-04, -2.34571373e-04, -1.19128963e-04,
       -1.58088675e-04, -1.41115437e-04, 1.18513315e-04, 4.53071669e-04,
       -5.62407622e-05, -1.47651444e-04, -2.87277158e-04,
       -3.28246737e-04, -1.47268584e-04, -2.46990996e-04,
       -1.20319084e-04, 1.08124710e-04, 4.98585578e-04, 5.99765190e-06,
       -2.49221746e-04, -3.87039239e-04, -2.68273841e-04,
       -3.68855399e-04, -2.41389891e-04, -2.12207873e-04, 3.27775721e-04,
       5.53045596e-04, -1.05517582e-04, -1.89191778e-04, -3.76307929e-04,
       -3.93131399e-04, -4.09919419e-04, -3.79694335e-04,
       -3.43166292e-04, 4.91476909e-04, 3.10572941e-04, -6.71042508e-05,
       -1.14872040e-04, -1.31799912e-04, -1.89273909e-04,
       -6.76852651e-05, 2.61038294e-05, 6.45668333e-05, 8.64442336e-05,
       -1.26784740e-04, -1.85983241e-04, -1.61484422e-04,
       -3.17587343e-04, -1.88210965e-04, -2.29501849e-04, 5.28955825e-05,
       5.75757877e-05, -1.26890838e-04, 4.91677318e-04, -2.27519959e-05,
       -1.36988319e-05, 7.14865455e-05, -6.71118542e-05, -2.12441213e-04,
       4.72772408e-05, -6.88106666e-05, 2.83418281e-04, 1.35827533e-04,
       -1.94984415e-04, -1.28051935e-04, 1.78324670e-04, 1.26397557e-04,
       6.86533895e-05, 2.16143126e-05, -1.54849329e-06, -1.29734908e-04,
       -1.37402647e-04, -1.46054808e-04, -6.33203017e-05,
       -6.15823010e-05, 3.00777581e-04, -8.35196533e-06, 4.17786432e-05,
       -3.29069335e-05, -2.99106498e-04, -1.09608147e-04,
       -1.47988772e-04, -1.10201094e-04, -1.54685360e-04, 1.66215323e-05,
       -1.62912344e-04, -1.42750781e-04, -1.80127390e-04,
       -2.22836650e-04, -8.12733415e-05, -1.33806141e-04,
       -1.75018475e-04, 3.88820452e-04, 6.21974701e-04, 1.39272743e-04,
       -8.11378559e-05, -3.39361373e-04, -4.38379851e-04,
       -1.35215538e-04, -6.46183398e-05, -1.75073481e-04,
       -2.07237390e-04, -2.45386273e-05, -2.14408326e-04,
       -2.45963398e-04, -4.42151184e-04, -3.89234599e-04, 6.10509771e-04,
       -7.95948436e-05, 1.14404284e-04, -2.84618058e-04, 6.27518981e-04,
       -3.57573532e-04, -3.37851670e-04, -3.33495933e-04, 5.05939592e-04,
       9.29609359e-06, -2.62436133e-05, 1.93341748e-05, -1.83864599e-04,
       3.59844824e-04, -1.97553542e-04, -1.86259538e-04, -8.38851338e-05,
       -1.83993052e-05, -2.00579962e-04, -7.56338632e-05,
       -3.62700404e-04, -4.07298357e-04, -1.74242276e-04,
       -2.67366297e-04, -4.27961495e-04, -6.07465452e-04,
       -4.41151817e-04, -2.36580236e-04, -1.12770576e-04,
       -3.60095059e-04, -2.08976329e-04, -1.55712420e-04,
       -1.31057910e-04, -2.50618265e-04, -1.99941976e-04,
       -2.09803649e-04, -8.62414527e-05, -1.02964485e-04,
       -1.21578305e-04, -1.66880403e-04, -2.13707681e-04,
       -2.51214806e-04, -2.90593685e-04, -2.22512346e-04,
       -2.62695510e-04, -7.97031680e-05, -1.21601377e-04,
       -7.36365764e-05, -7.56424488e-05, 6.26216643e-04, -3.08580085e-04,
       -4.88652033e-04, -4.35493654e-04, -4.20840748e-04,
       -2.55639141e-04, -2.37476153e-04, -3.42412211e-04,
       -1.94694207e-04, -2.21317838e-04, -1.68037586e-04,
       -3.44589644e-04, -2.50166224e-04, -2.24585616e-04,
       -1.77036476e-04, -3.90561821e-04, -1.94443230e-04,
       -9.78138269e-05, 9.10018338e-04, -3.77311255e-04, -4.41129552e-04,
       -2.43939372e-04, -2.29677302e-04, -4.76277164e-05,
       -1.18783988e-04, -1.84372853e-04, -1.52140274e-04, 1.02876300e-04,
       -4.14224458e-04, -3.01938300e-04, -1.53474757e-04,
       -2.72695499e-04, -5.30542366e-06, -1.67698236e-04,
       -2.94825528e-04, -3.32213880e-04, 5.10534097e-04, -2.29389159e-04,
       -2.25523854e-05, -1.11150839e-04, -1.24373400e-04,
       -1.44598904e-04, -2.54696497e-04, -1.22672776e-04,
       -1.48802399e-04, 1.70503074e-04, -5.03702380e-04, -3.42152547e-04,
       -1.18162301e-04, -1.35916154e-04, -1.76409347e-04,
       -1.18532989e-04, -1.09706336e-04, -1.60196199e-04, 8.84165056e-04,
       -3.59303755e-04, -2.88809591e-04, -2.95846548e-04,
       -4.05715196e-04, 4.54819638e-05, -1.49365907e-04, -1.29661785e-04,
       -2.88705050e-04, 2.39203175e-04, -1.41715354e-04, 4.28011208e-06,
       -2.29073237e-04, -4.97036490e-06, -5.36723710e-05,
       -4.06800013e-04, -3.32077383e-04, -4.89655999e-04,
       -1.19349264e-04, -2.00024195e-04, -6.42283412e-05,
       -3.42527026e-04, 6.80276935e-05, 1.08566535e-04, -2.12974599e-04,
       -1.79028342e-04, -1.46796578e-04, 4.47133818e-04, -1.75209003e-04,
       -1.94676148e-04, -2.17147302e-04, -4.26522201e-05, 5.56603365e-04,
       -4.69544670e-04, -2.01357107e-04, -2.83061789e-04,
       -1.21898942e-04, -1.29358639e-04, -5.90118034e-05,
       -3.36066732e-04, 6.28423120e-04, -5.17792557e-07, -3.34251352e-04,
       -3.18559498e-04, -3.53009673e-04, 3.36583791e-04, -1.34748188e-04,
       7.48027960e-05, -1.30676388e-04, 1.27637672e-04, -1.58165232e-04,
       -2.33467290e-04, -5.67116484e-04, -4.83178621e-04, 3.08772869e-04,
       -2.90017750e-04, 8.51187360e-05, -7.20164244e-05, -8.80703010e-05,
       5.53134771e-04, -2.50862679e-04, -7.25956270e-05, -1.10076697e-04,
       3.18189326e-04, -5.47822201e-05, 1.06666281e-04, -9.85944716e-05,
       5.97380917e-04, -5.68693395e-05, -2.17924840e-04, -4.82821488e-04,
       -2.62750691e-04, -4.16884832e-05, -2.00447132e-04,
       -3.37972670e-05, -5.66344679e-05, -8.89622752e-05, 2.84932990e-04,
       -1.27725471e-05, -2.31327125e-04, -2.36008040e-04, 2.18281188e-04,
       -3.91127425e-04, -1.01910036e-05, 7.85994416e-05, 2.72585690e-04,
       4.26373328e-04, 1.18849937e-04, 8.57515770e-05, -2.44847266e-04,
       4.46075079e-04, -4.78294300e-04, -3.89582070e-04, -4.44767174e-05,
       3.46051151e-04, -2.93121484e-05, -1.02709004e-04, -3.41984647e-04,
       -2.13523846e-04, -3.44209577e-04, -2.90748460e-04,
       -1.61611213e-04, -7.19608579e-05, -1.07572778e-04,
       -9.60460748e-05, -1.23544029e-04, -2.52699596e-04,
       -2.87151895e-04, -1.64610537e-04, -4.78294300e-04,
       -3.69522080e-04, -8.38996566e-05, -7.84909062e-05,
       -3.70296948e-05, -2.75431412e-05, 4.90357888e-06, -1.81801428e-04,
       2.97164632e-04, -3.18412262e-04, -2.17333582e-04, -9.10687013e-05,
       -8.08462501e-05, -2.98622876e-06, -8.55927065e-05,
       -1.30137996e-05, -2.81147630e-04, 1.68261453e-04, -3.27188580e-04,
       -1.04043211e-05, -2.93489811e-05, -2.33561741e-06,
       -1.08071785e-04, -6.37589183e-05, -1.13093862e-04,
       -3.01128981e-04, 1.61546588e-04, -4.86904784e-04, -3.04653804e-04,
       -5.04055097e-05, -3.88798580e-05, -6.75551973e-06,
       -3.13635828e-05, 1.04336621e-04, -5.78542706e-04, 5.48617973e-04,
       -5.78542706e-04, -2.02020892e-04, -2.79215819e-05, 4.42786077e-05,
       5.00740833e-04, -6.02725049e-05, -6.11060750e-05, -9.36708893e-05,
       -3.69972258e-04, -5.32363832e-04, -2.24648538e-04, 5.27788234e-06,
       5.52825513e-04, 4.50811087e-04, -6.76473937e-05, -1.77117559e-04,
       -1.98008958e-04, -5.32363832e-04, -5.32363832e-04,
       -1.98653419e-04, -1.66026046e-04, 3.71866481e-04, 5.75994723e-04,
       2.06065779e-05, -2.17262259e-05, -3.64087973e-05, -3.10086936e-04,
       -5.25650335e-04, -5.18552086e-04, -3.54876611e-05, 5.72281424e-04,
       5.68074058e-04, 3.15138750e-05, -5.06164943e-05, -8.56100378e-05,
       -4.44265956e-04, -5.28040808e-04, -5.21715730e-04,
       -1.22002195e-04, 5.51853911e-04, 4.82748612e-04, -4.64613695e-05,
       -2.00489943e-04, -1.84522200e-04, -5.18639805e-04,
       -5.18352608e-04, -3.17226513e-04, -3.21733882e-04, 2.42580689e-04,
       5.79641666e-04, -2.08677739e-05, -1.17237803e-04, -1.45354992e-04,
       -4.08389315e-04, -3.71278846e-04, -1.40623131e-04,
       -4.93519692e-05, 5.16352069e-04, 5.16607775e-04, -7.30305419e-06,
       -1.30332381e-04, -2.50584475e-04, -5.09099278e-04,
       -5.17395267e-04, -4.98482317e-04, -1.52104883e-04, 5.39826404e-04,
       3.41458537e-04, -2.27858254e-05, -6.70334848e-05, -1.93651533e-04,
       -4.75181761e-04, -3.34128184e-04, -1.53020053e-04,
       -3.40686602e-05, 5.52703277e-04, 5.59423061e-04, -5.19040623e-05,
       -2.42755195e-04, -3.83963139e-04, -4.86733479e-04,
       -2.41760135e-04, -1.44988473e-04, -6.45761829e-05, 5.25208190e-04,
       4.73202905e-04, -8.02589275e-05, -2.04967131e-04, -3.57201323e-04,
       -4.07486135e-04, -3.03266861e-04, -1.84164601e-04,
       -2.51650781e-04, 4.04253369e-04, 3.75396718e-04, -1.05800522e-04,
       -1.01936144e-04, -1.58060575e-04, -3.49357026e-04,
       -3.45691253e-04, -3.41624778e-04, -1.61042219e-04, 4.95674787e-04,
       4.14365641e-04, -1.15505274e-04, -1.90179475e-04, -1.12515554e-04,
       -2.82524968e-04, -5.75228129e-04, -5.93575183e-04,
       -4.35596856e-04, 4.23305377e-04, 5.33435144e-04, -3.65467931e-05,
       -6.93990005e-05, -1.24825106e-04, -1.69243547e-04,
       -2.28754812e-04, -3.51885305e-04, -2.95625185e-04, 4.56505193e-04,
       5.71832294e-04, -2.84667403e-05, -8.02361537e-05, -1.19630517e-04,
       -1.80359450e-04, -2.83881498e-04, -5.76231978e-04,
       -4.16278664e-04, 4.77834517e-04, 3.73804680e-04, -9.80058321e-05,
       -1.90264749e-04, -3.59670557e-05, -1.16712035e-04,
       -4.16826952e-04, -5.38347929e-04, -3.89459805e-04, 3.86280590e-04,
       4.02074336e-04, -1.00416590e-04, -2.56404805e-04, -1.76671616e-04,
       -2.17333509e-04, -5.00410679e-04, -5.75150945e-04,
       -4.30772430e-04, 4.80699615e-04, 5.39436936e-04, -3.69220870e-05,
       -4.38308380e-05, -7.12155525e-05, -2.00653958e-04,
       -3.11710988e-04, -4.13670117e-04, -2.74507678e-04, 4.75931010e-04,
       4.30886750e-04, -1.68621031e-04, -3.39062302e-04, -4.81745636e-04,
       -4.06363804e-04, -3.11797136e-04, -2.66296556e-04,
       -2.22456059e-04, 4.42547433e-04, 4.92035586e-04, -6.85875930e-05,
       -1.06840969e-04, -1.30993983e-04, -1.99694638e-04,
       -2.93599034e-04, -2.80104636e-04, -2.35223604e-04, 4.69154213e-04,
       3.08434654e-04, -3.49512935e-04, -4.53977264e-04, -5.62565983e-04,
       -5.61367720e-04, -2.84373848e-04, -2.38942725e-04,
       -1.77321286e-04, 4.70048370e-04, 5.48493117e-04, -1.81342766e-04,
       -4.42450226e-04, -4.49708808e-04, -2.37580956e-04,
       -7.51304906e-05, -5.61501038e-05, -2.46608597e-05, 5.47066797e-04,
       5.24604286e-04, -2.84025911e-04, -4.49708808e-04, -3.85340623e-04,
       -2.97872408e-04, -2.17780471e-04, -2.41607398e-04,
       -1.33359150e-04, 4.28536907e-04, 4.95445041e-04, -2.85695627e-04,
       -4.45870450e-04, -4.49708808e-04, -4.49708808e-04,
       -1.24170474e-04, -5.64644470e-05, -6.10598145e-05, 5.53676626e-04,
       4.55200643e-04, -2.95555539e-04, -4.47376893e-04, -4.49708808e-04,
       -4.47158673e-04, -2.79342901e-04, -2.14247659e-04,
       -1.81862939e-04, 4.70780389e-04, 4.94710228e-04, -1.65014149e-04,
       -1.73368477e-04, -7.72620333e-05, -1.80626026e-04,
       -2.61652720e-04, -5.02725889e-04, -5.05237607e-04, 3.10802890e-04,
       5.44627255e-04, -6.68089706e-05, -4.90975435e-05, -2.50510329e-05,
       -1.84379624e-05, -9.33244373e-05, -4.69918683e-04,
       -4.73018939e-04, 4.98552457e-04, 3.60776292e-04, -1.33287453e-04,
       -1.79202660e-04, -1.78381262e-04, -2.97364255e-04,
       -3.39339749e-04, -4.89834289e-04, -4.95374203e-04, 3.21392756e-04,
       5.31154277e-04, -3.35580589e-05, -2.60255601e-05, -2.15645287e-05,
       -4.27600062e-05, -2.56255938e-04, -4.77793481e-04,
       -4.86190344e-04, 4.73200984e-04, 4.07821848e-04, -2.15729393e-04,
       -1.57115719e-04, -6.83434555e-05, -1.40178396e-04,
       -1.99355083e-04, -4.10177541e-04, -4.22511279e-04, 4.02667152e-04,
       3.82241444e-04, -9.12441610e-05, -8.23195442e-05, -6.77750140e-05,
       -2.08456346e-04, -1.10152148e-04, -1.21012919e-04,
       -1.11376372e-04, 3.96857649e-04, 4.93692874e-04, -9.53361887e-05,
       -5.58549982e-05, -1.17713971e-05, -8.17783875e-05,
       -5.78617444e-04, -7.30065280e-04, -7.26858270e-04, 4.59770876e-04,
       5.21815324e-04, -1.24755024e-04, -4.40698859e-05, -5.96783320e-05,
       -1.70164902e-04, -2.01071292e-04, -5.99890831e-04,
       -2.81574583e-04, 5.44805720e-04, 5.05827367e-04, -5.34828832e-05,
       -5.04879972e-05, -5.16028085e-05, -4.45509097e-04,
       -3.60588980e-04, -1.27129257e-04, -9.58028104e-05, 5.30248857e-04,
       3.54550255e-04, -5.80639404e-04, -3.60979757e-04, -2.82691879e-04,
       -6.22077787e-04, -6.22077787e-04, -3.10264004e-04,
       -3.07530398e-04, 3.37702862e-04, 4.73975495e-04, -6.68852081e-05,
       -3.00812626e-05, -5.76251696e-05, -1.39968251e-04,
       -1.33128488e-04, -1.48323496e-04, -9.03342006e-05, 5.56306331e-04,
       3.01597756e-04, -4.52570472e-04, -1.73318316e-04, -1.21235644e-04,
       -1.85055178e-04, -3.15589888e-04, -2.10617189e-04,
       -2.37793880e-04, 3.12076765e-04, 3.74572293e-04, -4.91069688e-04,
       -5.04560827e-04, -4.46455815e-04, -5.06958808e-04,
       -3.53571260e-04, -1.25178223e-04, -1.55063361e-04, 4.35037073e-04,
       4.18582844e-04, -4.21417819e-04, -4.14153561e-04, -4.49457351e-04,
       -2.59578170e-04, -3.12066200e-04, -2.30420410e-04,
       -1.94923865e-04, 4.79675742e-04, 3.37449572e-04, -4.92176681e-04,
       -2.32788414e-04, -1.56955677e-04, -9.29833113e-05,
       -9.61705591e-05, -4.71863459e-05, -8.36178515e-05, 3.60028294e-04,
       4.23913996e-04, -2.18085930e-04, -1.50915948e-04, -1.52575754e-04,
       -7.01479003e-05, -2.08308556e-05, 1.76217804e-06, -4.59860967e-05,
       4.20410594e-04, 5.81404543e-04, -4.95731547e-05, -1.09688968e-04,
       -1.29798980e-04, -9.69195753e-05, -3.04814283e-04,
       -4.80318180e-04, -2.96044833e-04, 4.03952028e-04, 5.40854351e-04,
       9.07514459e-06, -8.66031842e-05, -1.03329687e-04, -1.62227065e-04,
       -4.55553469e-04, -4.75701090e-04, -2.14358515e-04, 1.22459009e-04,
       2.53446400e-04, -3.72194299e-05, -1.74407141e-05, -5.28286873e-05,
       -8.83890061e-06, -4.17321280e-05, -1.66913014e-04,
       -7.61851334e-05, 5.08794445e-04, -3.44338223e-05, -4.54250003e-05,
       9.00875093e-05, 6.24605036e-06, -7.18796000e-05, -2.34518389e-04,
       -4.36323346e-04, -2.06593453e-04, 1.77880313e-04, 3.89485096e-04,
       4.37478884e-05, -1.37256648e-04, -1.08210210e-04, -1.10507710e-04,
       -2.38843408e-04, -3.48634931e-04, -4.12058534e-06, 5.04000709e-05,
       2.13394844e-04, 2.27752258e-04, 9.69787870e-05, 8.65668990e-05,
       -1.16426572e-05, -1.22080863e-04, -1.76395595e-04,
       -1.85589433e-05, -8.81466185e-05, -1.39841519e-04,
       -6.70984446e-05, 1.93178159e-04, 1.18102442e-04, 2.12746134e-04,
       -1.73579465e-04, -3.59110127e-04, -6.79989389e-05, 3.10830046e-06,
       -2.23596639e-04, -4.96327011e-05, 2.46204203e-04, 2.85979593e-04,
       4.01820085e-04, 1.22433839e-05, -1.40073986e-04, -1.77758149e-04,
       -3.86584608e-04, 6.54101223e-06, 2.07804726e-04, 2.64248432e-04,
       3.10654577e-04, 3.60090999e-05, -2.74471677e-04, -3.70703201e-04,
       -2.57225620e-04, -1.37968862e-04, -5.53847167e-06, 1.13176347e-05,
       -4.07156695e-05, 2.40464156e-04, 4.25834180e-04, -6.05909991e-05,
       -4.37049108e-04, -3.45267094e-04, -6.94975970e-05,
       -1.48717765e-04, 9.21318424e-05, 3.67805653e-04, 3.39998835e-04,
       2.99007748e-04, -1.97144778e-04, -4.45389451e-04, -4.40773205e-04,
       -1.84702367e-04, -2.04681593e-04, 8.27728873e-05, 3.92564543e-04,
       4.30044398e-04, 3.89637717e-04, -1.80852730e-04, -4.75071487e-04,
       -4.90444305e-04, -1.14095936e-04, -8.34226666e-05,
       -2.09291451e-04, -4.04894323e-04, 9.91777997e-05, 4.59367380e-04,
       2.65236624e-04, -2.12749437e-04, -2.38739784e-04, -1.02059719e-04,
       1.69848834e-04, -7.44125355e-05, -1.55106711e-04, 1.02593604e-05,
       1.72285363e-04, 2.13634848e-04, 3.50765768e-05, 2.88956744e-05,
       3.60508602e-05, -3.69288580e-04, -1.48409483e-04, -1.17212818e-04,
       1.92337335e-04, 2.70020508e-04, 2.05106335e-04, -4.00276127e-04,
       -4.44454869e-04, -9.05731140e-05, 6.36596742e-05, -1.69216335e-04,
       -2.33043349e-04, -1.11078465e-04, 1.15065930e-04, 2.93013931e-04,
       1.11752270e-04, 1.29951484e-04, 3.19055107e-04, 2.01022427e-04,
       9.22905529e-05, 3.38973077e-05, -1.89333077e-04, -2.77814310e-04,
       5.54478647e-05, 3.30377916e-05, 4.36565051e-06, 1.46220582e-05,
       2.39934830e-04, 2.10821585e-04, 4.07922489e-05, -3.44791079e-05,
       -6.34957396e-05, 1.11829402e-04, -2.61204434e-04, -5.15510328e-04,
       8.25407406e-05, 2.87997915e-04, 6.18751892e-06, -5.61248962e-05,
       -1.91664221e-04, -2.22134229e-04, 6.02357359e-05, -2.66093994e-05,
       8.97911596e-05, 2.14535656e-04, 2.12007610e-04, 4.16106690e-04,
       3.23605520e-04, 1.43953876e-04, 7.73780630e-06, 3.15358047e-05,
       -3.21631756e-04, -4.05276165e-04, -5.02294170e-05, 3.21021391e-04,
       1.28257263e-04, 3.41176456e-05, -2.46949203e-05, -3.12323900e-05,
       -1.41352401e-04, -5.14092215e-04, -4.53624612e-04, 1.86479068e-04,
       4.22122568e-04, 1.18463380e-04, 1.17090201e-06, -1.06709551e-04,
       -1.45019847e-04, -4.24799917e-04, -5.38072898e-04,
       -3.29761766e-04, 1.67944541e-04, 2.28654040e-04, 4.58924740e-04,
       2.92992278e-04, 6.38306956e-05, -6.75927322e-06, -1.00594669e-04,
       -3.20067076e-04, -2.16467510e-04, -9.56946315e-05, 3.46829096e-04,
       4.01514379e-04, 2.80135835e-04, 3.17625818e-04, -6.14767123e-05,
       -3.65057029e-04, -5.56688930e-04, -2.31088823e-04, 6.37212579e-05,
       4.56595706e-04, 1.06416737e-05, -1.10779576e-04, -1.27928826e-04,
       -1.49108935e-04, -3.13558703e-04, -4.83874086e-04,
       -1.27634092e-04, 4.42495162e-04, 3.04603367e-04, -4.59051196e-04,
       -3.99136450e-04, -2.63455993e-04, -2.50534038e-04,
       -4.21246921e-04, -4.98235924e-04, -2.60961009e-04, 3.64025007e-04,
       4.30545217e-04, 5.21671382e-06, 1.89201874e-05, 9.84713479e-05,
       -9.72066409e-05, -2.31478363e-04, -4.73870081e-04,
       -2.91536853e-04, 3.60555190e-04, 3.76083539e-04, -2.00005961e-04,
       -2.13538558e-04, -1.14632967e-04, -8.90768570e-05,
       -1.39864103e-04, -4.07815387e-04, -3.07634356e-04, 3.92613758e-04,
       4.36839240e-04, -4.09088912e-04, -4.82290256e-04, -3.11246607e-04,
       -1.86532299e-04, -1.71226478e-04, -2.31132493e-04,
       -1.67359409e-04, 4.75816400e-04, 3.78624944e-04, -2.72508070e-04,
       -4.28272760e-04, -3.38487735e-04, -1.30284869e-04,
       -2.76474137e-04, -4.44315578e-04, -4.10441484e-04, 2.44101495e-04,
       4.99975926e-04, -1.58459559e-04, -2.13740292e-04, -4.49630679e-05,
       -7.44149365e-05, -7.32426706e-05, -1.39803000e-04,
       -9.85339648e-05, 3.74809955e-04, 5.19043941e-04, -2.23790521e-05,
       -2.22814837e-04, -4.50740990e-05, -1.58032213e-04,
       -1.31201072e-04, -3.28567636e-04, -2.37200293e-04, 1.42946083e-04,
       5.21695067e-04, 8.60076943e-06, -7.82842762e-05, -8.13023653e-05,
       -1.24993472e-04, -2.81748507e-04, -3.63410043e-04,
       -3.42109415e-04, 2.20487447e-04, 5.79381420e-04, -1.05139261e-04,
       -9.04447952e-05, -1.27601015e-04, -3.47924564e-04,
       -3.56017263e-04, -3.00782674e-04, -3.69515765e-04, 4.38111834e-04,
       4.96121182e-04, 1.01214144e-04, -4.91761639e-05, -4.53974171e-05,
       -2.23832860e-04, -1.43666781e-04, -2.94251542e-04,
       -3.34857643e-04, 1.91368716e-04, 4.15998307e-04, -9.27549718e-06,
       -1.57245580e-04, -1.59314222e-04, -3.58085090e-04,
       -3.70191352e-04, -4.06603067e-04, -3.73179442e-04, 3.28566472e-04,
       2.99477048e-04, -1.81220050e-04, -1.57016751e-04, -5.51376797e-05,
       -2.51132587e-04, -2.10520244e-04, -1.27183739e-04,
       -1.76482848e-04, 3.55437514e-04, 1.64166238e-04, -2.30550839e-04,
       -3.07655340e-04, -6.52157469e-05, -6.58409699e-05,
       -6.84609113e-05, -3.67168832e-05, -1.00486155e-04, 4.09986707e-04,
       2.80920824e-04, -1.74491623e-04, -2.46143754e-04, -1.01675672e-04,
       -2.80675275e-04, -3.88691784e-04, -4.08055348e-04,
       -3.57070850e-04, 1.94714419e-04, 2.29839687e-04, -2.63955939e-04,
       -2.12351923e-04, -7.14469497e-05, -1.19321339e-04,
       -2.14630316e-04, -2.41231392e-04, -2.06805518e-04, 2.22478746e-04,
       3.59958030e-05, -3.07863549e-04, -3.89376510e-04, -2.09684295e-04,
       -1.49905856e-04, -2.00005234e-04, -1.72351269e-04,
       -2.47714168e-04, 3.86941305e-04, 7.93248328e-05, -3.15565761e-04,
       -3.96842748e-04, -3.05742375e-04, -1.73347871e-04,
       -3.29941773e-04, -2.73506739e-04, -3.97517841e-04, 2.32607112e-04,
       2.25873562e-04, -2.71407218e-04, -2.04278214e-04, -8.68804127e-05,
       -7.08453881e-05, -1.46181745e-04, -1.50811829e-04,
       -1.64073863e-04, 4.20656404e-04, 3.71996663e-04, -1.57930743e-04,
       -1.33826747e-04, -1.22863305e-04, -1.38911535e-04,
       -2.50184414e-04, -2.64193950e-04, -1.98387454e-04, 3.46084358e-04,
       4.05597006e-04, -1.53569941e-04, -2.15821026e-04, -1.75740890e-04,
       -1.32008776e-04, -2.66819174e-04, -1.36436138e-04,
       -1.55821748e-04, 2.79314059e-04, 4.03501443e-04, -3.32381751e-04,
       -1.57972318e-04, -2.13891937e-04, -4.29345120e-04,
       -4.33265057e-04, -4.23918478e-04, -1.77921742e-04, 4.16897637e-05,
       5.30744612e-04, -2.75134807e-05, -7.02745892e-05, -2.25809796e-04,
       -1.94071559e-04, -2.31483151e-04, -2.52109603e-04,
       -1.59350413e-04, 5.24549745e-04, 4.06154053e-04, -6.80709927e-05,
       -2.05093820e-04, -4.33459762e-04, -4.29996668e-04,
       -3.56406730e-04, -4.10447916e-04, -3.30635929e-04, 1.82334101e-04,
       3.78540542e-04, -9.97263051e-05, -9.50436879e-05, -1.97741378e-04,
       -3.56935081e-04, -3.22528125e-04, -3.79216828e-04,
       -2.50890531e-04, 1.27100167e-04, 3.98470322e-04, 9.48150409e-05,
       -1.00290461e-04, -2.18122164e-04, -2.96663668e-04,
       -3.09595780e-04, -3.79807490e-04, -3.72592214e-04, 9.34298369e-05,
       3.59460886e-04, -7.36098809e-05, -2.04340889e-04, -3.50176386e-04,
       -3.12451419e-04, -1.74094966e-04, -3.59313941e-04,
       -2.49741192e-04, 2.97289429e-04, 3.70889175e-04, -1.39080057e-05,
       -1.84139513e-04, -2.31272119e-04, -2.04503260e-04,
       -2.84299866e-04, -3.20000778e-04, -2.53550970e-04, 3.24669934e-04,
       5.20116475e-04, 1.40612086e-04, -6.36024415e-05, -2.17473309e-04,
       -3.57743498e-04, -2.49203586e-04, -1.56792768e-04,
       -2.90076481e-04, 8.13681545e-05, 4.07764834e-04, 2.18751637e-04,
       -1.76269779e-04, -3.05559603e-04, -3.79433477e-04,
       -3.01781634e-04, -2.92959972e-04, -3.49989336e-04, 1.39972326e-04,
       5.53025748e-04, 2.57077099e-05, -1.80504590e-04, -3.30049690e-04,
       -3.78381053e-04, -3.47047695e-04, -1.26386207e-04,
       -9.04185581e-05, 3.14381643e-04, 4.43855359e-04, -1.59539813e-05,
       -3.24446970e-04, -3.83225299e-04, -3.79420468e-04,
       -3.75217234e-04, -1.50237654e-04, -1.20571181e-04, 2.65676441e-04,
       3.86716769e-04, 3.44917295e-04, -2.77050101e-04, -2.61507637e-04,
       -2.18240762e-04, -2.01320392e-04, -2.82300985e-04,
       -1.87812286e-04, -1.96594210e-05, 3.70262715e-04, -9.42293773e-05,
       -2.75747298e-04, -2.71392113e-04, -3.18101404e-04,
       -2.21297349e-04, -1.51610089e-04, -3.08121264e-04, 4.95998065e-05,
       3.28405731e-04, 9.94265647e-05, -2.94024008e-04, -3.59348312e-04,
       -2.07067336e-04, -2.02172858e-04, -1.90844672e-04,
       -6.41587612e-05, 9.29413363e-05, 4.68595303e-04, -3.90981113e-05,
       -2.92125565e-04, -2.99053238e-04, -2.57150590e-04,
       -3.03032051e-04, -1.71430380e-04, -1.42160177e-04, 3.79369012e-05,
       3.82038794e-04, -1.30255532e-04, -1.91916930e-04, -2.28558551e-04,
       -2.66948860e-04, -3.41214851e-04, -1.34486399e-04,
       -2.67463154e-04, 1.08080116e-04, 4.42387332e-04, 2.02430776e-04,
       -2.78953346e-04, -2.85896269e-04, -1.61303600e-04,
       -3.50794289e-04, -1.35114591e-04, -8.67109047e-05,
       -1.06612213e-04, 4.58779774e-04, -7.66168014e-05, -8.78567153e-05,
       -1.74484274e-04, -3.33908712e-04, -3.53640557e-04,
       -2.62629648e-04, -1.04065875e-04, 8.32972437e-05, 3.28202965e-04,
       -1.11392219e-04, -2.35826956e-04, -2.70253426e-04,
       -2.78785534e-04, -2.69300654e-04, -1.01507561e-04, 3.41068517e-05,
       1.99943242e-04, 4.39168594e-04, 6.87356514e-05, -2.67450960e-04,
       -3.51953320e-04, -1.82975389e-04, -3.51678493e-04,
       -1.09454049e-04, -5.97414146e-05, 2.53529550e-04, 4.31134336e-04,
       -9.36918223e-05, -9.83016871e-05, -2.20829243e-04,
       -2.62337679e-04, -3.18941020e-04, -5.78873041e-05,
       -2.05290198e-04, 4.99015383e-04, 2.12150830e-04, -2.97164406e-05,
       -2.20094487e-04, -2.95746693e-04, -3.16231191e-04,
       -3.59701429e-04, 6.78986835e-05, 7.18717420e-05, 1.29059597e-04,
       -2.73574424e-05, 9.61415426e-05, 3.29806935e-05, -1.00139092e-04,
       -2.91949545e-04, -3.04305286e-04, 1.99225164e-04, 2.24802367e-04,
       1.36787625e-04, 1.66038764e-04, -5.81396525e-05, 2.25504537e-05,
       1.06564563e-04, 5.09338606e-05, -2.26186152e-04, -6.53262832e-05,
       -2.13476698e-04, -2.54444276e-05, -5.20529829e-05,
       -1.11746042e-04, -3.94987037e-05, 2.23062525e-04, 2.26288030e-04,
       -1.41899029e-04, -3.12404474e-04, -2.19410969e-04,
       -2.57378473e-04, -2.33881030e-04, -3.67067537e-06,
       -4.59806979e-05, -1.00798519e-04, 1.37107927e-04, 1.97969086e-04,
       -1.90041689e-07, 1.73758643e-04, 8.77415187e-06, -1.58808893e-04,
       -6.78909928e-05, -4.56880225e-05, -3.66656968e-05, 1.33115595e-04,
       1.33115595e-04, -2.50387791e-04, -1.47217434e-04, -1.34295871e-04,
       -1.17910371e-04, -1.18261691e-04, -1.53413770e-04, 3.40385217e-04,
       6.78187003e-04, -1.25554405e-04, -3.37950769e-04, -3.21822823e-04,
       -4.22836252e-04, -1.31769921e-04, -1.29664448e-04,
       -2.95926962e-04, -1.62331926e-04, -9.38299199e-05,
       -1.87934202e-04, -1.99071816e-04, -2.97102379e-04,
       -3.16582766e-04, -9.19604499e-05, -1.98309848e-04,
       -1.03818966e-04, 1.80622708e-04, 5.80515887e-04, 3.38297308e-04,
       -4.18218726e-04, -3.62982100e-04, -2.28946505e-04,
       -1.25042061e-04, -3.47565307e-04, -4.08347958e-04,
       -1.72745698e-04, -1.05379717e-04, -2.20008005e-04,
       -4.00640711e-04, -2.12782092e-04, -1.96433422e-04,
       -2.09657839e-04, -1.43620418e-04, -4.29112086e-04,
       -2.44066003e-04, -1.33471025e-04, -1.80711257e-04,
       -2.11175342e-04, -3.18498933e-04, -3.52594623e-04,
       -3.65170476e-04, -2.85720656e-04, -4.07554267e-04,
       -1.71521329e-04, -1.53348446e-04, -1.11562542e-04,
       -9.40397586e-05, -1.75344481e-04, -2.12502986e-04, 1.48458494e-04,
       -2.72125762e-04, -2.59322842e-04, -2.70642049e-04,
       -1.31941095e-04, -3.35793768e-04, -2.51721300e-04,
       -2.53187492e-04, 1.25599763e-04, 7.28562998e-04, -3.05826688e-04,
       -2.49669654e-04, -1.03574974e-04, -1.50125430e-04,
       -2.20559217e-04, -1.57057919e-04, -3.06216680e-04, 8.23171984e-04,
       -3.37293342e-04, -3.94150760e-04, -3.05910828e-04,
       -1.72163287e-04, -1.47727362e-04, -1.31990761e-04,
       -1.71698528e-04, -1.33765468e-04, -1.12387599e-04,
       -1.12071488e-04, -2.12783634e-04, -1.12834168e-04,
       -9.50164540e-05, -9.54928328e-06, -2.66616582e-04,
       -2.23232637e-04, -6.32460651e-05, -4.75585111e-05, 3.42349056e-04,
       -3.30262032e-04, -3.61220649e-04, -2.05924429e-04,
       -2.35574498e-05, -2.05174831e-04, -1.12735135e-04,
       -2.45753472e-04, 5.31782396e-04, 4.35592490e-04, -2.30987265e-04,
       -2.31470185e-04, -2.97918916e-04, 1.65472127e-04, -3.93610360e-04,
       6.32492302e-05, -7.66920566e-05, 5.17182983e-04, 4.33712967e-06,
       -7.20328244e-05, 3.57704084e-05, -4.85213714e-05, 5.69357362e-04,
       -1.92080377e-04, -3.78683471e-05, -1.47377777e-05, 2.09484569e-05,
       1.22908939e-04, -4.98611225e-05, 6.61325976e-05, -4.69089828e-05,
       1.23684597e-03, -1.14018956e-04, 6.94578557e-05, -5.24855568e-05,
       6.74120674e-05, -1.70655170e-04, -2.55680672e-04, -2.93461664e-04,
       -1.81745374e-04, -1.94532127e-04, -2.61397043e-04,
       -1.86296420e-05, -1.18930249e-04, -5.28306919e-05,
       -4.91329294e-04, -3.78419820e-04, -3.67261586e-04,
       -3.73993011e-04, -5.09465695e-04, -3.22056032e-04,
       -4.47206665e-04, -5.15526044e-04, -4.90739592e-04, 2.97118124e-04,
       -1.12977970e-04, -6.99054362e-05, -8.90083102e-05, 2.02672600e-04,
       -6.71074886e-05, -3.79275079e-05, -4.41740012e-05, 2.81370216e-04,
       8.99657607e-04, -1.36531875e-04, -4.47542479e-05, -8.38799751e-05,
       -7.10275272e-05, -5.71249984e-05, -7.34128116e-05,
       -1.44205827e-04, 9.46679909e-04, -3.80740006e-04, -2.50392215e-04,
       -3.02419008e-04, -4.79363633e-04, -4.18272917e-04,
       -3.54004063e-04, -5.46892057e-04, -5.45704679e-04,
       -4.87495039e-04, 3.37780034e-06, -2.00167793e-04, -2.39604269e-04,
       -2.65185139e-04, -3.72926646e-04, -2.53391219e-04,
       -3.30169365e-04, -3.18256527e-04, -5.46069678e-05, 9.26047564e-04,
       -1.76175323e-04, -1.71241354e-05, -7.72878702e-05, 1.93607018e-04,
       -6.14642049e-05, -4.93607986e-05, -1.86430741e-04, 9.46689281e-04,
       -1.59177725e-05, -2.14787578e-04, -2.83396570e-04,
       -1.41275930e-04, 6.25378671e-05, -8.72378150e-05, -6.58973586e-05,
       -1.25367922e-04, -7.59180984e-05, -7.63975768e-05,
       -2.36416236e-04, -2.42754657e-04, -2.09636506e-04,
       -5.00230410e-04, -3.01575550e-04, -3.06573522e-04,
       -2.62263784e-04, -1.23367179e-04, -4.45273414e-04,
       -3.81256221e-04, -4.76224202e-04, -2.30555524e-04,
       -4.99340997e-04, -2.08156111e-04, -2.38284629e-04,
       -3.30257375e-04, -3.57656187e-04, -7.24557904e-05,
       -8.22209695e-05, -2.66201270e-04, -1.03317274e-04,
       -2.19611276e-04, -2.01371207e-04, -1.03643164e-04,
       -8.69709838e-05, -1.71467182e-04, 1.32839723e-05, -8.65439797e-05,
       -2.94536003e-04, -2.21673210e-04, 7.39754760e-04, -5.40437992e-04,
       -1.76670612e-04, -1.31513443e-04, -2.17682336e-05,
       -2.08637852e-04, -3.08644288e-04, -4.30102664e-04,
       -1.61092408e-04, -1.97200075e-04, -7.43744386e-05,
       -7.37971350e-05, -7.54813373e-05, -7.87305689e-05,
       -2.87677976e-04, -4.94352018e-04, -3.28505528e-04,
       -1.98264941e-04, 1.33701527e-04, -2.78770720e-04, -2.72772566e-04,
       -2.82273773e-04, -1.59178599e-05, 1.95430687e-07, 1.20264822e-05,
       2.13907842e-05, -1.61850985e-04, 5.10286081e-05, -3.36506142e-04,
       -2.28200734e-04, -1.35581198e-04, 8.75804562e-06, 6.40053549e-05,
       8.30271238e-05, 2.89591408e-04, -4.84142220e-04, 4.96553723e-04,
       -4.84142220e-04, -1.75094974e-04, -5.19522982e-05, 7.92646533e-05,
       -1.04942388e-04, -1.76298097e-04, -2.40209538e-05,
       -9.45103238e-05, 4.55417976e-05, -3.05803900e-04, -4.74007888e-04,
       -3.30841052e-04, -4.23635902e-05, -5.93126351e-05,
       -5.69825570e-05, 2.51196743e-05, -4.51297470e-04, 6.36988261e-04,
       -4.84142220e-04, -4.35122900e-04, -2.33965242e-04, 3.88047738e-05,
       7.43325916e-04, 1.02659644e-04, 5.61178458e-05, 2.02581234e-07,
       -1.60682157e-05, -4.51916800e-04, -4.14676120e-04,
       -1.65230977e-05, 6.31973031e-04, 6.63699349e-04, 2.92928598e-04,
       2.64420349e-04, 2.76248211e-05, 1.11260248e-04, -4.78172413e-04,
       -3.49119917e-04, -1.76840695e-05, 6.91287802e-04, 8.40762586e-05,
       1.71558816e-06, 1.57160994e-05, -1.54803365e-05, 1.21084540e-05,
       -5.12164668e-04, -4.99949208e-04, -2.77091458e-04, 7.50383988e-05,
       3.06262336e-05, 1.59826104e-05, 6.46336412e-05, -2.54206498e-05,
       1.87786500e-04, -4.83383890e-04, -3.70488677e-04, -3.06341797e-04,
       -3.58963589e-05, 4.99006012e-04, 2.21217182e-04, 1.41738870e-04,
       -1.46190578e-04, -2.17104054e-04, -5.01018250e-04,
       -3.20631603e-04, -1.04228580e-04, 5.04897675e-04, 3.15155397e-04,
       1.11421963e-04, 6.79256336e-05, -1.50017091e-04, -2.46390318e-05,
       -4.29519190e-04, -1.00676065e-04, 2.30773294e-05, 8.00456968e-04,
       -4.59776202e-05, 4.20102288e-06, 2.08726033e-05, -1.08848821e-04,
       2.06537661e-04, -4.18468640e-04, -3.16945720e-04, -2.85374699e-04,
       -1.99981965e-04, 1.12554344e-05, -1.90495139e-05, -5.02717694e-06,
       -1.20039826e-04, 4.49016225e-04, -4.63921402e-04, -4.01734171e-04,
       -2.32405189e-04, -8.06989847e-05, 3.60575534e-04, -1.98123616e-05,
       -4.88299474e-06, -1.19607925e-04, 1.53711226e-05, -6.13908982e-04,
       -2.68262898e-04, -3.11292933e-05, 6.93386886e-04, 8.25483294e-04,
       2.11393653e-05, -4.17252195e-05, -5.33820275e-05, -2.43903651e-05,
       -4.10924724e-04, -5.59406937e-04, -4.02226171e-04, 5.83233137e-04,
       1.53370620e-05, -6.41249862e-05, -9.19746308e-05, -2.52756930e-04,
       2.40250316e-04, -6.59430225e-04, -4.57005837e-04, -2.34200823e-04,
       -2.75038728e-05, 1.81859461e-04, -4.99703201e-05, -5.22080591e-05,
       -1.20443277e-04, 5.93534605e-05, -8.10156998e-05, -2.51443184e-04,
       -3.69241432e-04, 1.41619603e-04, 7.32082408e-04, 9.57139418e-05,
       1.58596831e-05, 5.22021510e-05, 5.88019138e-05, -3.69285670e-04,
       -4.21321834e-04, -2.66832387e-04, 5.63510053e-04, 7.18429277e-04,
       6.27732834e-06, -5.60985318e-05, -2.25082931e-05, -1.59853626e-05,
       -5.56928746e-04, -5.47450269e-04, -3.52652656e-04, 7.73338717e-04,
       1.73532753e-04, 2.08174424e-06, -1.24069174e-05, 6.02989530e-06,
       4.16424118e-05, -2.58085056e-04, -4.15355637e-04, -3.40099621e-04,
       2.00708164e-04, 4.71292296e-05, -3.51012204e-05, -5.23448653e-05,
       -5.55527658e-05, -5.32904305e-05, -5.61878434e-04,
       -5.56077051e-04, -5.69728320e-04, 6.66205233e-05, 6.50286092e-04,
       -6.43001113e-05, -8.01988353e-05, -1.26264888e-04,
       -4.91800747e-05, -2.71153665e-04, -2.38829074e-04,
       -1.86345278e-04, 6.54901145e-04, 6.81720907e-04, -2.26458797e-04,
       -2.60248780e-04, -4.86304605e-04, -4.89261234e-04,
       -2.13379797e-04, -1.63756558e-04, -1.23526523e-04, 7.68266793e-04,
       6.64089675e-05, -5.56626364e-05, -4.77394133e-05, -1.28773623e-04,
       -1.17885167e-04, -5.01452480e-04, -4.91997809e-04,
       -5.28151344e-04, 1.13426049e-05, 1.26981031e-04, -5.04967065e-05,
       -1.26777304e-04, -2.01512536e-04, -2.44867522e-04,
       -3.31287651e-04, -3.98169097e-04, -2.41684815e-04, 7.38914241e-05,
       6.47495734e-04, -3.21579049e-04, -3.88726650e-04, -4.21024073e-04,
       -4.26030922e-04, -2.70965858e-04, -1.43555531e-04,
       -1.64814861e-04, 7.15026632e-04, 6.28783077e-04, -3.50386690e-04,
       -4.06896637e-04, -3.51197144e-04, -3.92002636e-04,
       -4.15546703e-04, -1.50489461e-04, -2.36514810e-04, 7.00427277e-04,
       2.13157437e-05, -8.41064975e-05, -1.75750509e-04, -1.32403438e-04,
       -5.43480455e-05, -2.44176394e-04, -2.80177657e-04,
       -2.32485516e-04, 4.81882523e-07, -8.23584778e-05, -1.66665995e-04,
       -2.86596420e-04, -1.67587714e-04, -8.09573830e-05,
       -2.98730884e-04, -3.07045004e-04, -3.08300456e-04,
       -8.73863100e-05, 4.02547652e-04, -2.27443365e-04, -3.45666922e-04,
       -2.47710763e-04, -2.72348290e-04, -4.47925471e-04,
       -2.33890896e-04, -2.74897815e-04, 4.83277166e-04, 6.98027376e-04,
       -6.90889719e-05, -7.71760606e-05, -4.32284287e-05, 9.72474595e-07,
       -2.69415701e-04, -3.18541657e-04, -1.99017537e-04, 8.44687398e-04,
       -9.95390947e-05, -4.47290397e-04, -3.77698510e-04,
       -2.09048274e-04, -8.84195542e-05, -2.53246952e-04,
       -2.29596058e-04, -2.75526283e-04, 7.31745217e-07, 1.13578435e-05,
       -3.25061759e-04, -2.54058512e-04, -1.21139019e-04,
       -6.95073031e-05, -1.16757736e-04, -1.51908767e-04,
       -3.37996375e-04, 1.50945270e-04, 6.71896734e-04, 3.10148280e-05,
       7.30675820e-05, 9.79371616e-05, -1.20237621e-06, -3.89755791e-04,
       -5.78927749e-04, -2.54134502e-04, 7.09599466e-04, 7.90830411e-04,
       -2.38371354e-06, 5.10040554e-05, 3.77666911e-05, -8.85296231e-06,
       -2.55052815e-04, -6.28555892e-04, -2.18399800e-04, 7.72530679e-04,
       1.01966607e-05, -1.19819633e-04, -8.50397846e-05, -6.16403195e-05,
       -1.80153613e-04, -2.27187134e-04, -4.41343058e-04,
       -3.93154565e-04, 9.60306497e-05, 1.40739503e-04, -6.77174176e-05,
       -3.72181530e-05, -6.54453761e-05, -2.06235549e-04,
       -5.02389274e-04, -6.19696337e-04, -3.32045631e-04, 8.95144185e-05,
       5.72479854e-04, -6.16921971e-05, 4.40670692e-06, -1.70707834e-04,
       7.63021308e-06, -2.39279019e-04, -5.02813666e-04, -2.10995582e-04,
       6.88422529e-04, 6.10644929e-04, -1.40031145e-04, -1.47039129e-04,
       -2.66354793e-04, 2.69234530e-04, -1.10930101e-04, -1.10558125e-04,
       -1.38926465e-04, 6.72972295e-04, 5.09444799e-05, -1.12693706e-04,
       -6.24993336e-05, -2.22083370e-04, -1.46165024e-04,
       -7.34254252e-04, -7.51891290e-04, -4.93639498e-04,
       -4.58434333e-05, -5.96439204e-05, -1.54187292e-04,
       -8.61801309e-05, -3.04919638e-04, 2.66163290e-04, -1.83659300e-04,
       -1.78892791e-04, -2.75977160e-04, -1.40984601e-04, 2.17459077e-04,
       -2.84224487e-04, -3.83996346e-04, -4.18109907e-04, 7.75895169e-05,
       -5.51931480e-05, -5.98678025e-06, -7.18220908e-05, 1.58623807e-04,
       1.59464180e-04, -1.32687564e-04, -2.07111952e-04, -6.57320707e-05,
       2.10865081e-04, 1.14433729e-04, 1.15373587e-04, -3.62113278e-05,
       9.10862873e-05, -1.44026504e-04, -3.42547341e-04, -3.21757281e-04,
       -3.28638271e-04, 6.27122135e-05, 4.67501050e-05, -4.11126057e-05,
       -1.70593965e-04, -2.48448458e-04, -7.86010351e-05,
       -2.76678707e-04, -1.46635401e-04, 1.23237958e-04, 3.60638107e-04,
       3.15676531e-04, 1.51415021e-04, -4.38107008e-06, -5.93182194e-05,
       -6.39761420e-05, -1.64258716e-04, -4.91778701e-05, 4.79786977e-05,
       5.27112497e-05, 2.03848358e-05, -7.94425578e-05, -6.42139639e-05,
       -5.58150896e-06, -2.81269167e-04, -2.48313940e-04, 2.27021141e-04,
       2.00191818e-04, -4.32989509e-05, -9.64915307e-05, -5.76717372e-04,
       -3.60662962e-04, -4.14026290e-04, -9.30915121e-05,
       -1.73210079e-04, 1.35627233e-05, 2.03933945e-04, 1.72811488e-04,
       1.31469584e-04, 3.89017896e-06, -3.87762302e-05, -9.33300616e-05,
       -1.88239152e-04, -2.67801603e-04, 1.06255007e-04, 4.97035624e-04,
       3.77573539e-04, 4.06884850e-04, -1.39327331e-05, -1.21387384e-04,
       -2.37289976e-04, -2.03203643e-04, -6.72629903e-05, 2.75173807e-04,
       1.20032419e-04, 2.80996843e-04, 2.10393046e-05, -3.27603251e-04,
       -5.45407471e-04, -5.38434950e-04, -3.42666870e-04,
       -1.27205669e-04, 6.80316298e-05, 9.87599196e-05, 3.85558262e-04,
       6.95011913e-05, -2.88859737e-04, -5.53160382e-04, -5.75200887e-04,
       -1.00275625e-04, -7.68978935e-05, 6.96208081e-05, 3.09745752e-04,
       3.95156181e-04, 3.13898228e-04, 1.19773113e-05, -7.37176160e-05,
       -1.27107036e-04, -4.70529485e-05, 7.11201355e-05, 4.16216462e-05,
       2.18607689e-04, 4.00055200e-04, 2.91453063e-04, -3.93613991e-05,
       -1.31489243e-04, -1.53593181e-04, -1.14256218e-04, 8.89926159e-05,
       6.32856745e-06, -3.52730676e-05, 2.13902691e-04, -1.99125745e-04,
       -5.12975268e-04, -5.01809642e-04, -2.06844168e-04,
       -1.56525130e-04, 2.45895091e-04, 3.11643118e-04, 1.36609204e-04,
       -5.87673239e-05, -3.63719504e-04, -5.72749705e-04,
       -5.58599888e-04, -1.11271533e-04, 3.30585142e-04, 3.43435211e-04,
       1.46108578e-04, 7.02584439e-05, 1.97384725e-04, 5.62397363e-05,
       -4.23792590e-05, -1.41857119e-04, -4.97843030e-05, 2.81324290e-04,
       3.81036603e-04, 4.25530976e-04, 1.89310027e-04, 3.20245017e-05,
       -2.48183642e-05, -9.06049754e-05, -1.83162148e-04,
       -8.41015935e-05, -7.24518468e-05, 1.25747756e-04, 1.25217673e-04,
       1.61934484e-04, 2.43882096e-05, -1.37615571e-04, -2.73119484e-04,
       -3.16245569e-04, -3.78483128e-05, 3.21692583e-04, 1.11868736e-04,
       -6.16959660e-05, -2.76755236e-05, -6.87879001e-05,
       -1.82746255e-04, -1.78664792e-04, 9.07695503e-05, 2.86625145e-04,
       -8.62267370e-06, 3.21609346e-04, 3.74423369e-04, 3.41977138e-04,
       7.27665611e-05, -1.53977162e-04, -2.37940330e-04, -2.26186734e-04,
       -1.56783077e-04, 4.84738375e-05, 1.70201311e-04, 2.03129981e-04,
       2.55201216e-04, 3.02065855e-05, -5.02786192e-04, -5.05901349e-04,
       -3.91043141e-04, -1.04096267e-04, 2.13749256e-04, 7.28843006e-05,
       8.26228134e-05, 3.01014952e-05, -4.15344985e-05, -1.82381758e-04,
       -1.53125991e-04, 9.20582097e-05, 2.32846098e-04, 4.12516856e-05,
       3.12525517e-04, 4.76989546e-04, 3.03671753e-04, -2.50700009e-06,
       -1.55086018e-04, -1.42904260e-04, -9.89202235e-05,
       -2.26205557e-05, 3.87605796e-05, 1.13305876e-04, 4.00111196e-04,
       3.77765420e-04, -2.15142827e-05, -4.71537991e-04, -4.73305641e-04,
       -3.87213513e-04, 1.99956321e-05, -1.30012879e-04, 1.25791354e-04,
       3.98760749e-04, 2.48539174e-04, -5.78863073e-05, -4.87466808e-04,
       -4.74422297e-04, -4.87592479e-04, -5.77029277e-05, 1.64671161e-04,
       4.76543821e-04, 3.58082965e-04, 2.51639838e-04, -1.03655766e-05,
       -8.96441270e-05, -1.38930787e-04, -9.67206870e-05,
       -2.67572323e-05, 9.72072448e-05, 3.33032483e-04, 9.50849644e-05,
       1.82694694e-05, -1.52859371e-04, -1.46748935e-04, -4.27447900e-04,
       -2.79875268e-04, 2.92606619e-05, -8.04052252e-05, 2.77631509e-04,
       3.32363212e-04, 2.81609740e-04, 4.47779785e-05, -2.59176188e-04,
       -2.90877942e-04, -1.63863719e-04, -4.77051726e-05,
       -1.19730699e-04, -1.36511502e-04, -2.09592399e-04,
       -2.81536166e-04, -1.31704306e-04, -9.60550606e-05,
       -3.05019261e-04, -1.96470573e-04, 5.91222533e-06, 3.07326962e-04,
       -3.19438623e-05, 1.49425759e-04, 2.76063773e-04, -4.17820556e-05,
       -1.12208116e-04, -3.62117367e-04, -2.32820268e-04, 3.57109762e-04,
       4.97080269e-04, 3.69322443e-05, 1.79027847e-04, 3.08539136e-04,
       2.19994558e-06, -1.03033984e-04, -4.15073970e-04, -3.48016474e-04,
       1.90675477e-04, 1.87449732e-05, -2.33694169e-04, -8.60030559e-05,
       -8.24816379e-05, 1.86941611e-06, -5.63558558e-07, -2.07909558e-04,
       -7.60769835e-05, 2.66143819e-04, -1.31538945e-05, 8.82230233e-05,
       1.81499941e-04, 9.96704184e-05, -1.02381266e-04, -2.64706876e-04,
       -3.58571968e-04, -2.34665378e-04, -3.77154684e-05, 7.70537299e-04,
       1.21447396e-04, 2.55876163e-04, 2.91569333e-04, 2.13295498e-05,
       -9.81520934e-05, -3.06329195e-04, -1.43491357e-04, 2.23070412e-04,
       7.52102176e-04, 2.36678272e-04, 2.03738527e-04, 1.30225781e-05,
       -3.20951774e-04, -5.87915893e-05, 4.47967395e-05, 2.64057253e-05,
       2.48338270e-04, -1.27686639e-04, 1.08093460e-04, 2.12817497e-04,
       5.32874546e-05, -6.53654643e-05, -3.49430367e-04, -3.66657012e-04,
       -4.48396837e-04, -2.43810297e-04, -1.97231100e-04, 1.39244657e-05,
       8.76967824e-05, -2.40795751e-04, -2.37224274e-04, -4.57180577e-04,
       -1.13143054e-04, -4.49280924e-04, -3.84793064e-04, 4.98111476e-04,
       1.62334298e-04, 9.74038412e-05, 3.81805730e-05, -2.14920510e-04,
       8.93172255e-05, 1.19616867e-04, 1.71738138e-05, 1.78397619e-04,
       2.13288673e-04, 1.24710432e-05, -9.96764356e-05, -1.24904036e-04,
       -5.91818607e-05, -1.20892852e-04, -1.85677825e-04,
       -1.77628637e-04, 8.93053148e-05, -1.73598877e-04, -4.87426514e-05,
       5.88254770e-05, -1.76492304e-05, 2.22317394e-04, -2.36370270e-05,
       -1.29551563e-05, -2.23608469e-04, -1.90336184e-04,
       -3.33795120e-04, -2.06018012e-04, -7.57942325e-05,
       -9.78983953e-05, 2.52213329e-04, -9.68426466e-05, -1.47899234e-04,
       -3.03177076e-04, -2.83799280e-04, 1.27541294e-04, -9.95861919e-05,
       -6.81348174e-05, -8.55911712e-05, 4.37304952e-05, -2.85648886e-04,
       -2.81057059e-04, -2.89385702e-04, 2.07680816e-04, 2.96423910e-04,
       -2.19087291e-04, -6.79639488e-05, -3.93254850e-05, 7.30848058e-08,
       -1.73730412e-04, -8.94119439e-05, -1.29328619e-04, 4.67341830e-04,
       -1.64845304e-04, -1.46806095e-04, -3.53172004e-06,
       -2.13323059e-04, 1.21635651e-07, -2.03720003e-04, -8.87093047e-05,
       -1.91044761e-04, -1.64324709e-04, -2.85325677e-05,
       -5.02403564e-05, 1.60135736e-04, -1.28518150e-04, -5.30415673e-05,
       -1.73679320e-04, -9.84225844e-05, -1.53122150e-04,
       -5.54273311e-06, 9.95026930e-05, -2.09630321e-04, -1.85568249e-04,
       -4.13073758e-05, -3.45479384e-05, -1.14803115e-04, 5.10661375e-05,
       -9.02675583e-06, 4.35359019e-04, 3.25031840e-04, -2.00167458e-04,
       -1.04872895e-04, -5.66549825e-05, -9.05676206e-05,
       -2.11253617e-04, -5.77648716e-05, 3.26287060e-04, 4.19508026e-04,
       -1.77714013e-04, -1.86808873e-04, -1.21774639e-04,
       -5.79508560e-05, -2.68495187e-05, -1.52990877e-04,
       -8.86724592e-05, -9.88565080e-05, -7.37349546e-05,
       -2.98791652e-04, -3.75691889e-04, -3.21932399e-04,
       -1.81922733e-04, -6.99158263e-05, -3.32130265e-04,
       -2.73185258e-04, -1.48024978e-04, -7.10185705e-05, 4.08299034e-04,
       -2.34433464e-05, -6.17297264e-05, -1.70238563e-04,
       -1.23325357e-04, -1.58665760e-04, -1.47947765e-04, 2.04566677e-04,
       4.09754924e-04, 4.34266170e-04, 2.20865386e-05, -3.32408992e-04,
       -4.08059801e-04, -3.17969738e-04, -4.06415522e-04,
       -3.28291790e-04, 2.93841676e-05, 2.61864421e-04, -2.90113850e-04,
       -2.42880589e-04, -1.88453399e-04, -2.32186969e-04,
       -1.89365950e-04, -2.00811119e-04, -1.70691521e-04,
       -3.31444317e-05, 4.89490640e-06, 3.93663140e-05, -1.55091926e-04,
       -2.10762053e-04, -2.66488438e-04, -2.52900616e-04,
       -4.04025341e-04, -2.43955670e-04, -2.09921791e-06, 2.87300209e-04,
       3.27891350e-04, -2.18930436e-04, -3.99128388e-04, -3.79659032e-04,
       -3.77245073e-04, -4.00433113e-04, -2.87043018e-04, 3.66632921e-05,
       3.11577518e-04, 3.33244418e-04, -2.22568327e-04, -2.08524609e-04,
       -3.01683467e-04, -2.46794458e-04, -3.03722743e-04,
       -3.02290835e-04, 6.30264040e-05, 3.85983469e-04, 6.18367631e-05,
       -1.86392586e-04, -2.02544717e-04, -2.28655481e-04,
       -2.87239847e-04, -4.00433113e-04, -2.34364619e-04,
       -1.03196480e-05, 3.51301132e-04, 2.23106181e-04, -1.75040390e-04,
       -8.71151351e-05, -2.75690196e-04, -2.99284729e-04,
       -1.86822435e-04, -1.46865787e-04, 1.49484758e-05, 5.04034688e-04,
       3.67881061e-04, -2.17699388e-04, -1.99799731e-04, -2.94743775e-04,
       -2.46202078e-04, -3.51142633e-04, -2.82490073e-04, 3.88974149e-05,
       3.26291018e-04, 2.24827090e-04, -1.82761156e-04, -3.49031499e-04,
       -3.56475852e-04, -3.78244935e-04, -3.62714811e-04,
       -1.43490048e-04, 1.22047677e-04, 3.79027042e-04, 1.79549737e-04,
       -1.62492623e-04, -1.68987273e-04, -1.90460152e-04,
       -2.12372048e-04, -1.49163112e-04, -2.26434146e-04,
       -3.97557669e-05, 3.75202595e-04, 2.13289910e-04, -5.01451250e-05,
       -3.57924349e-04, -2.33747181e-04, -1.94393331e-04,
       -9.72280104e-05, -3.02955741e-05, 1.91729385e-04, 3.44050117e-04,
       5.34061983e-05, -1.38542629e-04, -3.51170340e-04, -4.33553447e-04,
       -2.97137914e-04, -1.82826057e-04, 1.29812597e-05, 1.72364948e-04,
       3.20346880e-04, 1.68344865e-04, -6.40392100e-05, -2.85401766e-04,
       -3.88887071e-04, -2.48876197e-04, -4.12869616e-04,
       -1.65861988e-04, 2.17979123e-05, 2.80202512e-04, 1.60749441e-05,
       -1.51564789e-04, -4.18688578e-04, -3.12248885e-04,
       -1.95360888e-04, -4.73712535e-05, 2.95940234e-04, 5.31429425e-04,
       4.97047673e-04, -8.34803432e-05, -1.59963180e-04, -1.80189003e-04,
       -3.07946524e-04, -3.10882227e-04, -3.82392318e-04,
       -1.77696199e-06, 4.69621125e-04, 5.30528021e-04, 2.74757564e-04,
       4.92909821e-05, -3.39804283e-05, -3.28333204e-04, -2.38955297e-04,
       -4.13375295e-04, -3.81243706e-04, -4.49426261e-05, 3.08480056e-04,
       3.18761420e-04, -9.22235122e-05, -2.22269038e-04, -3.73697170e-04,
       -2.34250518e-04, -3.79426725e-04, -2.06359953e-04, 2.84677135e-05,
       4.18882584e-04, 2.15836670e-04, -6.89180160e-05, -1.25348568e-04,
       -3.48396861e-04, -1.94768028e-04, -3.65575048e-04,
       -3.67001019e-04, 1.29683584e-04, 6.01894862e-04, 6.21487561e-04,
       -8.07581237e-05, -1.58480965e-04, -3.46784946e-04,
       -2.47338874e-04, -3.89815861e-04, -3.39977792e-04, 3.24807042e-05,
       5.24415111e-04, 2.10793878e-04, 1.35848404e-05, -1.21328092e-04,
       -1.37330266e-04, -2.66114366e-04, -4.58207069e-04, 5.21871007e-05,
       1.46663180e-04, 2.09117177e-04, 1.09845969e-04, 2.21395065e-04,
       1.87551224e-04, 2.05327451e-04, -1.57245289e-04, -4.27357794e-04,
       8.22081565e-05, 2.93471385e-04, 1.70726125e-04, 5.56062208e-04,
       1.05138795e-04, -6.97910873e-05, -1.55217858e-04, -5.13833540e-04,
       -5.14279585e-04, -1.79509632e-04, 2.08469603e-04, 4.58175811e-04,
       3.76036944e-04, 1.92441803e-04, 5.91194184e-05, 8.27444674e-05,
       -4.32330795e-04, -4.69413237e-04, -1.57789909e-04, 2.14659303e-04,
       4.41873097e-04, -8.67928611e-05, -1.13274600e-05, -8.77407147e-05,
       -9.01005915e-05, 9.12762262e-05, 1.22637895e-04, -2.39857851e-04,
       -2.27233140e-05, 1.51197892e-05, -1.72266562e-04, -8.59199208e-05,
       -1.72929271e-04, -1.92514504e-04, 1.63610734e-04, 2.48207536e-04,
       -2.88224022e-04, -1.70086525e-04, -1.56281065e-04,
       -8.39066415e-05, -4.46524937e-05, -8.28545672e-05, 1.59734147e-04,
       2.16884408e-04, -1.92698601e-04, -2.36968248e-04, -1.62464887e-04,
       3.20472682e-05, -2.73434125e-04, -1.67326158e-04, -3.58346297e-04,
       4.18535783e-05, 1.63610734e-04, 3.53365991e-04, -2.08197438e-04,
       -2.16958259e-04, -1.71315187e-04, -9.44168933e-05,
       -1.47832368e-04, -1.27889449e-04, -8.07374090e-05, 5.19206864e-04,
       5.73627360e-04, -4.14588518e-04, -3.47718189e-04, -1.59156334e-04,
       -4.96537104e-05, -2.24579911e-04, -2.24070027e-04,
       -2.15889071e-04, -1.84913355e-04, -2.84016569e-04,
       -4.15979011e-04, -3.26499634e-04, -8.82574750e-05,
       -2.32139704e-04, -3.30976036e-04, -2.88437936e-04,
       -8.06814642e-05, 4.87254030e-04, 5.74256119e-04, -2.56691739e-04,
       -2.88068841e-04, -1.16959920e-04, -1.42033066e-04,
       -3.84373707e-04, -2.16665358e-04, -4.08863300e-04,
       -1.48617459e-04, -1.74176748e-04, -2.39631132e-04,
       -2.57579639e-04, -4.79626069e-05, 2.18611749e-04, -3.15034340e-05,
       1.27458727e-04, -1.53458866e-04, -1.18646880e-04, -3.57645244e-04,
       -2.11605671e-04, -1.97693633e-04, 1.90481631e-04, 5.09918376e-04,
       -5.54419494e-05, 3.15486031e-05, -7.62660056e-05, -1.23586447e-04,
       -1.72640910e-04, -1.43607656e-04, -1.50790191e-04, 4.58095165e-04,
       1.55676462e-04, -1.00532423e-04, 2.95448699e-04, -3.15164070e-04,
       3.56622972e-04, -1.63383054e-04, 5.16210639e-05, -1.55551708e-04,
       1.37808456e-04, -5.40570145e-05, -3.71395727e-04, -9.64603460e-05,
       -4.29096603e-04, -1.85799785e-04, -3.31193296e-04,
       -2.90247583e-04, -3.30719748e-04, -6.26603796e-05, 2.63150549e-04,
       -1.38246905e-04, -6.23293745e-05, -6.98619915e-05, 1.06066793e-04,
       -7.74830260e-05, -8.52129160e-05, -1.32153058e-04, 2.93691381e-04,
       4.14114293e-05, -1.66614875e-04, -1.10300454e-04, -1.25444712e-04,
       4.31082037e-04, -2.02120893e-04, -1.29899199e-04, -2.25267519e-04,
       9.07519061e-05, -2.37064392e-04, -4.36426286e-04, -3.19003913e-04,
       -3.58798949e-04, 1.20738841e-04, -2.62535090e-04, -2.93202436e-04,
       -2.85075395e-04, -6.91360983e-05, -1.85229219e-04,
       -3.27446643e-04, -2.19586800e-04, -1.91965693e-04, 9.67170694e-04,
       -4.71920561e-04, -4.48644889e-04, -4.64267738e-04,
       -1.48933032e-04, -1.22253798e-04, -1.55609814e-04,
       -1.65606485e-04, -1.29861364e-04, 4.93462430e-04, -1.66372352e-04,
       -2.82115270e-05, -1.53626170e-04, -9.36445213e-05,
       -4.61799209e-04, -2.74423975e-04, -2.54178187e-04,
       -2.73045065e-04, -4.32204601e-04, -2.08007812e-04,
       -1.98649024e-04, -2.71311321e-04, -3.75913951e-04,
       -1.65445919e-04, -1.65550111e-04, -7.99276822e-05,
       -1.31837223e-04, 1.19636708e-03, -4.61799209e-04, -4.39988391e-04,
       -4.54550551e-04, -2.59248103e-04, -3.18429054e-04,
       -2.73245794e-04, -2.22347255e-04, -2.03075644e-04,
       -3.06352915e-04, -2.73291400e-04, -1.85614947e-04,
       -2.76282342e-04, -3.13616853e-04, -3.50401737e-04,
       -2.07269666e-04, -2.33107479e-04, -3.12988501e-04,
       -3.17208469e-04, -2.61446432e-04, -3.25327506e-04,
       -2.93073710e-04, -3.73120332e-04, -9.79051110e-05,
       -1.50358901e-04, -1.87935701e-04, -1.72084692e-04,
       -1.92264357e-04, -1.74071349e-04, -1.55289352e-04,
       -1.36194445e-04, -1.87359256e-04, -3.02687375e-04,
       -2.04600263e-04, -3.21550237e-04, -2.54375103e-04,
       -3.00934946e-04, -3.41518724e-04, -2.20632544e-04,
       -2.88325682e-04, -2.97514169e-04, -2.72951962e-04,
       -1.25021441e-04, -3.19375162e-04, -2.88612064e-04,
       -3.66639986e-04, -4.48238454e-04, -3.17792525e-04,
       -2.88681302e-04, -4.52678156e-04, -1.25397972e-04,
       -1.42984340e-04, -1.03858169e-04, -5.84063127e-05,
       -1.93797619e-04, -1.57417526e-04, -9.59509416e-05,
       -9.23063271e-05, -1.34738584e-04, -2.30811682e-04,
       -2.84778536e-04, -2.86172173e-04, -6.51662122e-05,
       -2.00530922e-04, -2.42022870e-04, -1.90549952e-04,
       -1.66478538e-04, -1.99691654e-04, -1.97932648e-04,
       -2.39111483e-04, -4.05316532e-04, -2.05746008e-04,
       -4.38844028e-04, -4.79355193e-04, -2.61216337e-04,
       -1.52617620e-04, -2.35202955e-04, -3.56450910e-04,
       -4.79355193e-04, -4.79355193e-04, -2.53436476e-04,
       -4.79355193e-04, -4.79355193e-04, -3.42276180e-04,
       -2.02533454e-04, -2.76140578e-04, -1.79978670e-04,
       -4.73224587e-04, -4.73224587e-04, -1.12293041e-04,
       -7.90179911e-05, -1.02788792e-04, -1.15011986e-04,
       -6.70516747e-05, -9.30207170e-05, -1.11203706e-04,
       -3.93061462e-04, -1.90581035e-04, -9.70849069e-05, 8.99352657e-04,
       -4.68123544e-05, 4.44484358e-05, -2.66491352e-05, 4.96732282e-05,
       -3.11640935e-04, -4.73224587e-04, -4.73224587e-04,
       -3.53411364e-04, -2.49776116e-04, -4.21181612e-04,
       -1.89424827e-04, -1.67778489e-04, -3.45942186e-04,
       -4.41115517e-05, -3.13981960e-04, -8.22505972e-05,
       -2.75126396e-04, 8.24194285e-04, -3.10925301e-04, 1.03255494e-04,
       -9.49255991e-05, -1.74909597e-04, -6.51477239e-05,
       -1.92604246e-04, -3.95236420e-05, -9.69152970e-05, 1.70733983e-05,
       -1.67830411e-04, -3.06304457e-04, -1.63013625e-04, 2.81188677e-05,
       1.48570107e-04, -1.02241444e-04, -6.13135562e-05, -4.55000467e-04,
       7.44779463e-05, -3.04083806e-04, -3.78060504e-04, -1.56980779e-04,
       2.92667595e-04, -3.74474075e-05, -1.78648072e-04, -1.73525797e-04,
       -2.19901456e-04, -9.19153972e-05, -2.15468535e-04,
       -3.76599892e-05, -8.31114521e-05, 4.89774502e-05, 4.77804278e-04,
       -2.78289051e-04, -2.51384336e-04, -4.55000467e-04,
       -3.56012461e-04, -3.10104282e-04, -1.81359734e-04,
       -1.60590163e-04, 6.54813251e-04, 1.28652289e-04, 2.27986948e-06,
       2.94922120e-05, -2.82183082e-05, 1.62358177e-04, -5.39366622e-04,
       -3.73660849e-04, -1.85771569e-04, 1.03007187e-04, 3.59579681e-05,
       -1.53036387e-06, 1.85349527e-05, -3.07715964e-05, 6.25027053e-04,
       -5.10762155e-04, -4.98020148e-04, -5.43640752e-04,
       -9.11544412e-05, 2.22740509e-05, 2.17807719e-05, 5.82121756e-05,
       -8.95522462e-05, 3.13850062e-04, -3.74419120e-04, -1.79750408e-04,
       -8.01935676e-05, -5.76124285e-06, -9.77430955e-06, 4.29181782e-05,
       1.64166384e-04, -1.24849576e-05, 1.05439103e-03, -5.61718945e-04,
       -5.16456494e-04, -4.67990787e-04, -1.19644865e-04,
       -3.40134429e-05, -5.81091990e-06, -4.34526271e-07,
       -3.30076982e-05, 7.53605971e-04, -2.30551464e-04, -4.99855203e-04,
       -2.90842931e-04, -1.22866215e-04, 3.51519593e-05, -8.48565833e-06,
       -5.42176713e-06, -4.17301962e-05, 4.82465082e-04, -4.08398017e-04,
       -4.87553800e-04, -1.18380558e-04, 8.96252368e-06, -4.42278833e-05,
       7.74145701e-06, 1.15113653e-04, -2.09435566e-05, 9.46398359e-04,
       -4.09985019e-04, -5.21335052e-04, -4.32558212e-04,
       -1.02859238e-04, -9.76904339e-05, -2.80442546e-05, 2.17882189e-05,
       -1.03925893e-04, 3.35303252e-04, -5.48192533e-04, -5.42614667e-04,
       -4.29535750e-04, -8.67072958e-05, 2.17806650e-04, 9.11952429e-06,
       7.25898790e-05, -6.66752749e-05, 3.12471791e-04, -3.70648573e-04,
       -3.44847474e-04, 1.75483285e-06, 2.56684667e-04, 6.54257601e-04,
       5.04793252e-06, 8.80470179e-05, 1.75860732e-05, 1.61991411e-04,
       1.69775867e-05, -4.45875266e-05, -8.17604159e-05, 6.46670815e-04,
       3.80490055e-05, -9.10620074e-05, -7.21075266e-05, -1.83094409e-04,
       2.59170406e-07, -6.63183746e-04, -6.17415877e-04, -6.27316360e-04,
       4.34439389e-05, 4.83145413e-04, -1.63803663e-04, -9.95977971e-05,
       -1.06123109e-04, 2.96797079e-05, -2.47499062e-04, -2.56323663e-04,
       -4.84976103e-04, 3.36068362e-04, 6.13278768e-04, -1.40278753e-05,
       9.72436173e-05, 1.23962411e-04, 1.83629643e-04, -1.23891004e-04,
       -2.14182874e-04, -2.40758338e-04, 5.94562734e-04, 3.16690624e-04,
       -6.65554617e-05, -1.11066356e-05, -1.57827853e-05, 1.46175225e-04,
       -5.53548569e-04, -5.87306044e-04, -6.23091240e-04, 2.12154657e-04,
       4.51054366e-04, -7.33695269e-05, 7.96187160e-05, -2.58216769e-05,
       1.29883105e-04, -1.14756527e-04, -1.65196216e-05, -2.08801881e-04,
       3.83172912e-04, 1.04126397e-04, -4.80823510e-05, 1.14927625e-05,
       -5.20942966e-04, 2.16281711e-04, -3.18482373e-04, -3.74339172e-04,
       -4.42157645e-04, -6.12534277e-05, 2.92855868e-04, -3.80565216e-05,
       -1.86041598e-05, -4.46812628e-05, 4.84830176e-04, -3.01798544e-04,
       -3.92407266e-04, -4.58774186e-04, 1.59939576e-04, 1.72748987e-04,
       -1.65698748e-05, -9.67436245e-06, -3.89793604e-05, 4.73984808e-04,
       -3.04970861e-04, -3.25768633e-04, -2.33561383e-04, 8.77807179e-05,
       9.03614200e-05, -1.32252353e-05, 1.44205778e-05, -4.11535992e-04,
       7.72009080e-04, -3.42289684e-04, -4.66900325e-04, -4.83668467e-04,
       -1.70453088e-04, 3.32745076e-05, -2.54717761e-05, -3.48554277e-05,
       -1.42594043e-04, 5.57801279e-04, -4.92084597e-04, -4.76076850e-04,
       -4.27739811e-04, -1.27998632e-04, 1.77539205e-05, 9.79770007e-08,
       4.61017553e-05, -6.63401952e-05, 3.83685983e-04, -3.75946867e-04,
       -3.83475708e-04, -2.56627012e-04, -7.88200850e-05,
       -4.38538736e-05, -8.65931434e-05, 3.26931040e-04, -2.02517753e-04,
       3.08805116e-04, -3.25716275e-04, -3.39439459e-04, -3.36096942e-04,
       -7.26097423e-05, 1.35066803e-04, 3.70816633e-05, 1.33756213e-04,
       -5.99335035e-05, 2.58163956e-04, -5.11857506e-04, -4.18038137e-04,
       -1.54971596e-04, 1.17550931e-04, 1.13136899e-04, 7.77168316e-05,
       6.19507569e-04, -2.66469404e-04, 1.91126834e-04, -5.11857506e-04,
       -2.57618085e-04, 3.29423528e-05, 2.59915512e-04, -1.78170940e-05,
       -2.37918721e-04, 1.62137832e-04, -1.76416914e-04, 7.80020273e-05,
       -1.28736909e-04, 1.23356640e-05, -1.16179457e-04, 1.65756574e-04,
       1.80518269e-04, -2.16432716e-04, -9.71732516e-05, -1.41654149e-04,
       -2.20518941e-05, -1.84671473e-04, -1.13205831e-04,
       -2.50486541e-04, 3.07945738e-04, 7.94328371e-05, -1.21169891e-04,
       2.22626230e-04, -3.35428573e-04, 3.91959366e-05, -3.94869217e-04,
       -1.80430055e-04, 2.52159844e-05, 2.14423490e-04, 4.53085930e-04,
       -3.29023635e-04, -3.39082355e-04, -4.17030678e-04,
       -1.76570335e-04, -4.47035593e-04, -3.31075600e-04,
       -1.88429360e-04, 5.38652355e-04, 2.04352269e-04, -1.53982692e-04,
       -1.21552861e-04, -1.24303740e-04, -2.04034499e-04,
       -2.55753344e-04, -3.58497695e-04, -4.86817909e-04, 1.03395832e-04,
       3.88501910e-04, -7.66069061e-05, -4.71267304e-05, -6.31468065e-05,
       -1.70427520e-04, -4.04555642e-04, -4.58237628e-04,
       -3.06634145e-04, 2.92008306e-04, 4.16256487e-04, -3.01135267e-04,
       -4.02402598e-04, -3.83577833e-04, -3.86441854e-04,
       -4.49277868e-04, -4.19508171e-04, -3.20450112e-04, 4.04121965e-04,
       6.53587223e-04, -5.88401672e-05, -5.61716261e-05, -6.66272244e-05,
       -6.44099928e-05, -2.85183516e-04, -2.90666503e-04,
       -2.39560046e-04, 6.06883492e-04, 2.53220816e-04, -3.80780948e-05,
       -4.56854514e-06, -7.31810578e-05, 1.55634825e-05, -4.91902640e-04,
       -2.74174177e-04, -2.10194718e-04, 1.82200834e-04, 1.24628263e-04,
       -1.35114688e-05, 1.45316430e-04, -9.92953210e-05, 1.97415822e-04,
       -2.36545588e-04, 2.70458317e-04, -2.87427083e-05, 1.24946800e-05,
       2.64322181e-04, -2.75330931e-05, 1.50779979e-05, -7.85763259e-05,
       5.92912365e-05, -4.84312477e-04, -1.57474933e-04, -1.00609985e-04,
       2.88004696e-04, -1.83934972e-05, 9.84520593e-05, 1.50350374e-04,
       -3.22938104e-05, 5.51631747e-05, -5.64521411e-04, 2.70797987e-04,
       -1.01550440e-05, -1.74196030e-05, -6.45547625e-05,
       -2.08435551e-04, -1.16398573e-04, -1.43617945e-04,
       -1.69916297e-04, -3.57842182e-05, 3.14818135e-05, -1.29311666e-04,
       -2.28485253e-04, -2.18816294e-05, -1.02618251e-04, 2.07286765e-04,
       4.95136366e-04, -7.10319509e-05, 2.37469663e-04, 1.68864062e-04,
       6.41953238e-06, -1.23949212e-05, -2.93427525e-04, -6.54852847e-05,
       -1.12895686e-04, -4.70234772e-06, -3.26240784e-04,
       -4.87316458e-04, -2.36727443e-04, -3.49566020e-04,
       -3.50652437e-04, -2.77272571e-04, -4.64342411e-05, 3.54345451e-04,
       8.60912609e-04, 1.40725198e-04, -1.56259630e-05, -1.46434555e-04,
       -1.61854448e-04, -2.33951534e-04, -5.56372943e-05, 1.16219735e-05,
       1.41214157e-04, 2.17262932e-04, 2.10905891e-05, 1.12071706e-04,
       2.42693513e-05, -2.27450982e-05, -6.34139506e-05, -1.77591064e-04,
       -5.67840107e-05, 3.45045031e-04, 6.10598188e-04, 3.72373092e-04,
       1.17504373e-04, -1.18482021e-05, -5.31924234e-05, -2.06726036e-04,
       -1.46545703e-04, 7.72444546e-05, 2.16097265e-04, 4.68023471e-04,
       -9.00257292e-05, -4.93940715e-05, -1.37717696e-04,
       -1.75822599e-04, -1.81524549e-04, -6.37382502e-04,
       -1.27568579e-04, 4.80237795e-04, 9.72455236e-05, -3.33283358e-04,
       -4.79214679e-04, -1.60742929e-04, -2.93413003e-04,
       -7.04646227e-04, -1.71149994e-04, -1.10347777e-04, 4.11028159e-04,
       4.60942014e-04, 2.56943254e-04, 4.40218500e-05, -2.23834086e-05,
       -5.58627944e-05, -1.58555617e-04, -4.23637939e-05, 7.46514706e-05,
       3.80413287e-04, 4.21849341e-04, 3.57927522e-04, 1.15385526e-04,
       2.02654428e-06, -2.04508051e-05, -5.78920226e-05, -7.11743778e-04,
       -4.18720680e-04, 4.38571034e-04, 1.69882333e-04, -3.27046437e-04,
       -6.13536627e-04, -1.64255136e-04, -2.42253547e-04,
       -7.68288737e-04, -7.17375369e-05, -2.64998616e-05, 4.95980901e-04,
       2.36889115e-04, -1.01674370e-04, -4.37023618e-06, 9.60418984e-05,
       -4.39894393e-06, -1.35057402e-04, 2.96789367e-05, 5.53436839e-05,
       2.24991745e-04, 2.00508977e-04, -2.67103867e-04, -3.50017103e-06,
       -5.01084905e-05, -6.89257868e-05, -1.04256265e-04,
       -4.15400573e-05, 2.82579422e-04, 5.58333762e-04, 4.02580597e-04,
       -3.73688352e-04, -1.92889911e-05, -1.04348597e-04,
       -2.79360887e-04, -3.07112670e-04, 2.47384378e-06, -1.68778006e-05,
       2.83211208e-04, 3.46744899e-04, -5.72919729e-04, -1.84532299e-04,
       -7.38982044e-06, -3.32957461e-05, -8.05673844e-05, 4.74625740e-05,
       -9.83451991e-06, 2.79173051e-04, 4.06168459e-04, -6.24290318e-04,
       -2.02919808e-04, -1.46163569e-04, -1.63998906e-04,
       -2.42318827e-04, -2.79427313e-05, 1.76843852e-04, 4.20100259e-04,
       3.08892777e-04, -7.47333033e-05, -1.89923259e-04, -9.05876805e-05,
       -1.60252122e-04, -1.26955216e-04, -2.77450687e-04,
       -8.32622682e-05, 2.76801235e-04, 4.08101099e-04, -9.22545441e-05,
       -5.14026848e-04, -5.16356202e-04, -5.14866493e-04,
       -5.00739785e-04, 4.49631807e-05, 4.98468180e-05, 5.16053289e-04,
       5.75217477e-04, -1.04839921e-04, -1.55607137e-04, -3.50730443e-05,
       -1.16467469e-04, -1.38529940e-04, -2.52278522e-04,
       -1.12817303e-04, 4.02589387e-04, 5.12588536e-04, -1.52596680e-04,
       -4.18881275e-04, -2.79046159e-04, -3.83270642e-04,
       -4.69592953e-04, -9.01557214e-05, 8.05466771e-05, 5.41881658e-04,
       5.43908507e-04, 2.40578411e-05, -3.79058474e-04, -4.96425026e-04,
       -4.90471488e-04, -1.88568170e-04, -8.30211284e-05, 7.54726861e-05,
       5.61849622e-04, 5.39542176e-04, 3.65589258e-05, -4.55191330e-04,
       -4.57705697e-04, -4.75448411e-04, -9.17088109e-05,
       -1.33331356e-04, 9.34826403e-06, 5.70505683e-04, 5.69191994e-04,
       -3.35810691e-05, -2.09324178e-04, -3.18273233e-04,
       -2.67836906e-04, -1.99451126e-04, -1.24332466e-04, 1.05323425e-05,
       2.50655430e-04, 2.31725877e-04, -3.19281498e-05, -4.25477774e-04,
       -4.89272701e-04, -4.99116897e-04, -2.00129711e-04, 1.77531419e-05,
       9.40391401e-05, 3.19391460e-04, 5.41911053e-04, 2.97309191e-04,
       -1.95459666e-04, -1.32709480e-04, -7.24239726e-05, 1.38951436e-04,
       1.24792103e-04, -3.03185079e-05, 2.64821756e-05, -2.71039353e-05,
       8.01112910e-05, -3.06149414e-05, -3.33098251e-05, 1.86650039e-04,
       4.79152688e-04, 2.07835110e-05, 7.71815976e-05, 1.15493487e-04,
       2.23346593e-04, 1.40726435e-04, -3.66829103e-04, -4.11859161e-04,
       -3.59658763e-04, -1.50374535e-05, 1.24490689e-04, 7.72649310e-06,
       3.50595947e-05, -2.23356637e-05, -4.94807173e-05, -4.07027081e-04,
       -3.62524472e-04, -1.36358591e-04, 3.20086343e-04, 2.01348812e-04,
       -2.41153957e-05, 8.87542265e-05, 1.03034190e-05, 1.10065470e-04,
       1.72752407e-05, -4.03348895e-05, 1.31217777e-04, 4.70029918e-04,
       3.10525393e-05, 9.47957305e-05, 1.62448414e-04, -9.66974767e-06,
       6.88649889e-05, -2.60963105e-04, 3.81970822e-05, -1.62603628e-05,
       1.93570631e-05, 1.76617152e-06, -8.09431003e-05, 1.73123644e-05,
       2.91469587e-05, -4.56824964e-05, -1.89055194e-04, -1.40110729e-04,
       -5.93077566e-05, 3.26313020e-04, -4.52195527e-04, -3.69729270e-04,
       -1.47078652e-04, 1.99150076e-04, 2.37398835e-05, -2.21147620e-05,
       8.08100303e-05, -1.66393482e-04, -1.16251154e-04, -2.50476978e-06,
       1.97955233e-04, 4.17267380e-04, -2.23420029e-05, 2.45598610e-04,
       -7.71531122e-05, 1.96024514e-04, -1.24099170e-04, -1.14502771e-04,
       9.64770516e-06, -3.31196352e-05, 1.25602828e-05, -2.07751844e-04,
       4.04035847e-04, -1.92678752e-04, 3.53753640e-05, -3.33879085e-04,
       -2.18001864e-04, -2.91559641e-04, -1.30998946e-04, 1.01514059e-04,
       1.88948441e-04, 2.21743830e-04, 1.56052687e-04, 8.06217795e-05,
       -1.89256432e-04, -2.34077103e-04, -9.28435620e-05,
       -1.59520554e-04, -1.40934455e-04, -2.30358535e-04, 2.28143224e-04,
       -3.20269406e-04, -2.54480488e-04, -2.14232670e-04,
       -3.12521821e-04, -1.53422006e-04, -2.11739360e-04,
       -1.51156535e-04, -2.01508985e-04, 4.94452892e-04, -1.76852089e-04,
       -1.37391631e-04, -2.82460445e-04, -3.26024921e-04,
       -1.02198108e-04, -1.54187117e-04, -1.83237462e-05,
       -7.25565988e-05, 4.20007505e-04, -2.03138752e-05, -9.09078590e-05,
       -1.95742585e-04, -1.46409351e-04, -2.43241899e-04,
       -3.09050141e-04, -2.51872116e-04, -1.64634461e-04, 4.31567256e-04,
       -2.35890358e-04, -1.71235341e-04, -2.06926052e-04,
       -3.53054638e-04, -1.37355441e-04, -1.75659472e-04,
       -8.16692045e-06, -1.44205434e-04, 3.68952838e-04, -3.34718584e-06,
       -3.47934401e-05, -1.09884430e-04, -9.16612407e-05, 3.35786899e-05,
       3.74911433e-05, 7.09397646e-05, -1.42289631e-04, 8.85010595e-05,
       -7.73255597e-05, -5.58489774e-06, -8.95406774e-05,
       -9.71739519e-06, 3.53543437e-05, 3.93591501e-04, 3.88020359e-04,
       -1.50476422e-04, 2.42804035e-05, -1.57333488e-04, -8.29986457e-05,
       -7.26724465e-05, 1.39408130e-05, -3.76868265e-05, -4.51788856e-06,
       -2.03154468e-05, -1.04024220e-04, 2.59823428e-04, -4.33764289e-05,
       3.59132173e-05, -6.49153226e-05, -9.69716566e-05, -3.72401468e-04,
       2.39454544e-04, 1.38501739e-04, -3.36321478e-04, 9.85271181e-05,
       -4.18620533e-04, -5.78032996e-05, -1.39521944e-04,
       -4.25705250e-04, -3.36936246e-05, 1.82473814e-04, 1.70716594e-04,
       -5.17472290e-05, 1.35970462e-04, -8.47127103e-06, 7.90151389e-05,
       4.79900109e-06, -1.72792024e-05, -2.60390167e-04, -2.38003049e-04,
       -2.86140741e-04, -3.81162070e-04, 1.49725107e-04, -7.89083933e-05,
       -3.53448122e-05, -2.46523938e-04, -2.17069231e-04,
       -2.92778655e-04, 1.34896167e-04, 1.79726616e-04, 1.84396093e-04,
       1.16881667e-04, -1.80999268e-04, 8.47339470e-05, -1.07505293e-04,
       -3.37035774e-04, -4.59875700e-05, 3.61298735e-05, 3.90692912e-05,
       4.06277104e-04, 2.67083175e-04, -9.44947715e-06, 8.13383012e-05,
       -1.74787972e-04, -1.68383252e-04, -1.04375336e-04,
       -2.91400036e-04, -2.67544761e-04, -3.72521288e-04,
       -2.52121739e-04, -1.49149011e-04, -1.57005677e-04,
       -2.19714566e-04, -1.12901231e-04, 2.14458749e-04, -7.97761750e-05,
       -1.09235698e-04, -2.50281446e-04, -2.32999126e-04,
       -2.04496755e-04, -9.11303796e-05, -4.39709875e-05, 1.97098372e-04,
       2.45559029e-04, 2.25128446e-04, 5.99909708e-06, -7.19661912e-05,
       -1.06922111e-04, -1.60911673e-04, -8.85759800e-05,
       -1.37447991e-04, -5.63774738e-05, 5.81142784e-04, 5.32674487e-04,
       -1.40270160e-04, -2.92015233e-04, -2.32171340e-04,
       -2.58800428e-04, -6.34104435e-05, -1.58875235e-04, 3.93743903e-05,
       3.90670466e-05, 5.52127894e-05, -5.09938945e-06, -1.34885850e-04,
       -1.22306737e-04, -1.95951623e-04, -7.02077523e-05,
       -2.49355562e-05, 1.15333918e-04, 5.89911215e-05, 3.95012066e-05,
       5.99313571e-05, -1.16874107e-04, -1.60258089e-04, -1.60072828e-04,
       -1.33107838e-04, -1.00120642e-05, 2.87558534e-04, 2.63517635e-04,
       1.13167007e-04, -2.60907371e-04, -3.05850786e-04, -3.04081070e-04,
       -3.24876863e-04, -1.65365942e-04, 4.44182697e-05, 1.75734473e-04,
       -1.46309912e-05, -2.25300886e-04, -1.59379837e-04,
       -2.41944930e-04, -3.20407911e-04, -4.11544053e-04,
       -3.55100754e-04, 2.28410470e-04, 4.10068809e-04, 1.68629238e-04,
       -5.62908144e-06, -9.25534332e-05, -1.13435774e-04,
       -9.12146352e-05, -1.32718938e-04, -2.21577648e-04,
       -9.98908145e-05, 2.95525766e-04, 2.68197415e-04, -4.52568456e-05,
       -2.75533297e-04, -1.56087233e-04, -6.13814918e-05,
       -8.71119410e-05, 2.99728072e-06, 9.17769648e-05, 3.10821459e-04,
       3.19130137e-04, -1.02404061e-04, -1.21057834e-04, -2.69256503e-04,
       -3.16439313e-04, -3.35872668e-04, -3.68130219e-04,
       -1.82046948e-04, 2.91706820e-04, 4.84688993e-04, -3.01164750e-04,
       -3.74522235e-04, -4.15500253e-04, -3.03389184e-04,
       -2.56678759e-04, -1.66461614e-04, -3.18129023e-04, 4.54743567e-04,
       2.66566603e-05, -1.26957631e-04, -1.55206391e-04, -1.70998319e-04,
       -1.59419666e-04, -7.11681932e-05, 1.86148580e-04, 3.63008876e-04,
       4.28041298e-04, -1.18167627e-04, -1.21986472e-04, -1.40200849e-04,
       -3.40447557e-04, -3.86492698e-04, -1.94168359e-04, 4.71937237e-05,
       5.68062533e-04, 6.07757363e-04, 2.32070466e-04, -1.74147441e-04,
       -2.03840187e-04, -3.86197818e-04, -4.29179694e-04,
       -4.58096532e-04, -2.42712049e-04, -1.18366559e-04, 2.14358675e-04,
       2.62847141e-04, 2.76191684e-04, -1.27761145e-04, -4.43013472e-04,
       -3.88062268e-04, -4.46987047e-04, -3.22893728e-04,
       -5.58492275e-06, 1.37999023e-05, 1.01611236e-04, -4.65934172e-05,
       -1.45231621e-04, -2.70005374e-04, -2.63588649e-04,
       -2.43082875e-04, -2.25007883e-04, 2.66354531e-04, 6.24175766e-04,
       4.83760843e-04, -2.01881030e-05, -6.84142360e-05, -1.33914960e-04,
       -2.38129651e-04, -3.54819291e-04, -3.37011123e-04, 3.40203769e-05,
       5.66183240e-04, 2.39742149e-04, 3.52001225e-04, -3.31527044e-05,
       -2.83767236e-04, -3.08522955e-04, -3.83856153e-04,
       -1.52211796e-04, -2.44136954e-05, -1.14877592e-04, 1.47579907e-04,
       2.07563193e-04, 6.67732893e-05, -5.87149043e-05, -2.20618705e-04,
       -3.80159763e-04, -3.69166839e-04, -3.02403147e-04,
       -4.34374579e-06, 6.40251499e-04, 8.73386380e-05, -1.16983410e-05,
       -6.59373109e-05, -4.47710976e-04, -4.83850454e-04,
       -8.85169866e-05, 2.24360861e-04, 6.11683005e-04, 3.90150351e-04,
       1.32156783e-04, 1.57820014e-05, -5.76708480e-05, -4.25412814e-04,
       -4.46999882e-04, -4.23000984e-06, 3.53064126e-04, 5.99042454e-04,
       2.66409479e-04, 1.41469151e-04, 1.41531646e-05, -5.86813949e-05,
       -3.87328910e-04, -4.93838568e-04, -4.02162317e-04,
       -1.07615168e-04, 2.74927617e-04, 2.86109571e-04, 3.46554822e-04,
       6.77698554e-05, -1.67321457e-04, -3.71790113e-04, -4.51956032e-04,
       -2.71262950e-04, 2.42468868e-05, 1.96743669e-04, -9.91096822e-05,
       -7.95418673e-05, -1.75034613e-04, -2.75428611e-05, 2.30558944e-04,
       -3.23800661e-04, -1.71134408e-04, -7.57703965e-05, 1.45804529e-06,
       -1.40813179e-04, -1.50279739e-04, -3.51953146e-04,
       -1.05653307e-05, 3.89132998e-04, 1.09315799e-04, -1.54622103e-04,
       -1.21372941e-04, -8.53588717e-05, -8.85229747e-05,
       -1.59890551e-04, -3.12330696e-04, -3.48266418e-04, 2.84603680e-04,
       -1.87237412e-04, -1.41766461e-04, -6.86125059e-05,
       -2.84329617e-05, -9.51416441e-05, -2.08787271e-04,
       -4.27288498e-04, -2.94918107e-04, 2.84603680e-04, 3.50225600e-04,
       -6.15159297e-05, -6.69569927e-05, -4.14007773e-05,
       -1.71088002e-04, -3.43197171e-04, -3.31894815e-04,
       -8.03607400e-05, 6.16726931e-04, 2.08397600e-04, -1.37597614e-04,
       -1.50980894e-04, -7.70779443e-05, -2.05525605e-04,
       -4.17667499e-04, -2.53014034e-04, -4.45646117e-04,
       -2.19776732e-04, -7.77124587e-05, -1.23788239e-04,
       -1.87153142e-04, -1.29233973e-04, -9.23516054e-05,
       -1.18920812e-04, -2.42890223e-04, -1.12864502e-04, 6.31219940e-04,
       4.58959199e-04, -9.80617478e-05, -1.01867670e-04, -1.05288447e-04,
       -2.06118915e-04, -2.15642402e-04, -1.83962999e-04,
       -3.02847533e-04, -2.37853950e-04, -2.50237499e-04,
       -2.34728010e-04, -2.39193672e-04, -2.40196649e-04, 2.70745222e-05,
       -8.55702674e-05, 1.51988381e-04, -2.01379560e-04, 7.18772993e-04,
       1.15791641e-04, 4.77552763e-04, 5.08363810e-05, 3.23152854e-05,
       -3.61212820e-04, -3.91225389e-04, -1.73572625e-04,
       -4.09918663e-04, -6.56234406e-05, -2.83087982e-04,
       -2.24040254e-04, -2.40531779e-04, -2.39403584e-04, 1.12098242e-04,
       -2.44253984e-04, -2.00237424e-04, -3.42849788e-04, 5.01063361e-04,
       -5.29001190e-05, 2.90662399e-04, 2.53730309e-06, 1.07980544e-04,
       -2.40365363e-04, -4.13727423e-04, -4.24483267e-04,
       -4.25611011e-04, 1.36396367e-04, -1.61026488e-04, -3.32154159e-05,
       -8.87071292e-05, -7.68306927e-06, -4.23314603e-04,
       -3.44523462e-04, -2.73275189e-04, -4.35090828e-04, 5.98281404e-05,
       -2.25423559e-04, -3.23991873e-04, -2.60809145e-04,
       -2.22360744e-04, -1.23269856e-04, -1.07277723e-04,
       -1.15252493e-04, -1.72767323e-04, 8.33492843e-04, -4.15290531e-04,
       -4.35090828e-04, -2.73271755e-04, -1.08858556e-04,
       -3.67150875e-04, -3.58510239e-04, -3.32323834e-04,
       -3.01425520e-04, 2.75517639e-04, -1.04966770e-04, -1.44499892e-04,
       -1.04364422e-04, -9.78823446e-05, -2.65909948e-05,
       -2.02434210e-04, -1.26046201e-04, -9.93040449e-05, 8.18420900e-04,
       -2.05742268e-04, -3.03072447e-04, -1.03284772e-04, 6.16696125e-05,
       -8.13209845e-05, -8.55145699e-05, -3.54167241e-05,
       -8.61327935e-05, 8.94378813e-04, -5.23371389e-04, -5.23371389e-04,
       -3.72877636e-04, -1.09528912e-04, -1.33288442e-04,
       -1.52659064e-04, -1.04742685e-04, -1.02661150e-04,
       -9.03264809e-05, -3.66881810e-04, -4.45537298e-04,
       -3.20554856e-04, -1.13030444e-04, 2.19169757e-04, -7.80098708e-05,
       6.31174262e-05, -9.13991098e-05, 7.83173658e-04, -5.23371389e-04,
       -5.23371389e-04, -2.37136366e-04, 2.48128577e-04, 2.50575365e-04,
       -8.62943052e-05, -1.18669395e-05, -1.77938506e-04,
       -1.31329725e-04, -5.23371389e-04, -4.99158981e-04,
       -3.39941034e-04, 3.44467175e-04, -2.20470480e-04, -1.19271092e-04,
       -1.62859287e-04, -1.33968628e-04, -1.49850603e-04,
       -2.74858874e-04, -2.10943428e-04, -3.06685019e-04,
       -1.55642643e-04, -3.07138369e-04, -1.08734195e-04,
       -2.88825599e-04, -2.77590036e-04, -2.66077783e-04,
       -3.51744995e-04, -2.28992430e-04, -2.87417526e-04,
       -3.06955742e-04, 3.87084117e-04, -7.22359400e-05, -6.20144347e-05,
       -1.72808723e-04, 2.09510748e-04, -3.73147923e-04, -1.49586718e-04,
       -3.62309162e-04, 4.48175502e-04, 3.82313796e-04, 4.00305144e-05,
       -8.47895135e-05, -3.25037981e-04, 3.12702759e-04, -3.71943868e-04,
       -9.08287620e-06, -2.89576768e-04, 3.56452278e-04, -1.51788860e-04,
       -1.40300472e-04, -4.11581364e-04, -2.69522658e-04,
       -1.95264904e-04, -2.93016812e-04, -1.25295352e-04,
       -8.52377052e-05, -1.31225941e-04, -3.69053858e-04,
       -4.06116946e-04, -4.15598595e-04, -2.98049621e-04,
       -2.27154043e-04, -3.48007336e-04, -1.01853941e-04,
       -9.39564416e-05, -1.71841486e-04, 6.16513309e-04, 6.03281151e-05,
       -7.28436280e-05, -2.76942417e-04, 4.61301825e-04, -1.82412812e-04,
       3.49000009e-04, 5.23338931e-05, 5.96644124e-04, -2.27224431e-04,
       -3.38203565e-04, -2.93532590e-04, -3.52573057e-04, 2.27058437e-04,
       -2.15966851e-04, 3.53841497e-05, -1.14257862e-04, -1.96614521e-04,
       -3.45787092e-04, -3.62928491e-04, -2.11484221e-04,
       -2.84453272e-04, -1.70716667e-04, -2.14791478e-04,
       -1.11926449e-04, -1.88783568e-04, -2.92391749e-04,
       -8.08091791e-05, -9.43049890e-05, 1.51362619e-04, -2.82770692e-04,
       8.51101184e-04, -2.18077839e-04, 1.54788082e-04, -1.00378864e-04,
       -1.06710177e-04, -3.95388633e-04, -3.89376131e-04,
       -1.68945364e-04, -3.17215512e-04, -1.55575224e-04,
       -2.15104112e-04, -2.17174704e-04, -2.92039767e-04,
       -3.71092814e-04, -3.52511590e-04, -3.03937006e-04,
       -2.13857973e-04, -3.44775617e-04, -2.66932911e-04,
       -1.57870891e-04, -2.71351455e-04, -2.63837836e-04,
       -2.74055434e-04, -3.82719190e-05, -1.62105614e-04,
       -2.19946072e-04, -3.04680318e-04, -8.71917873e-05,
       -1.85648430e-04, -2.45138945e-05, -1.01787977e-04, 8.19213747e-05,
       8.05779651e-04, -2.85907125e-04, -2.90674798e-04, -2.88607931e-04,
       -7.64556535e-05, -2.71849101e-04, -1.18240860e-04,
       -1.79309442e-04, 8.93311691e-04, -3.87738983e-04, -3.45167267e-04,
       -3.70935217e-04, -4.21563425e-04, -4.15294111e-04,
       -2.17311943e-04, -1.71353415e-04, -1.96616602e-04,
       -1.22955229e-04, -1.36147035e-04, -3.79229168e-04,
       -2.82695342e-04, -2.74291117e-04, -3.09630414e-04,
       -3.75293923e-04, -1.58356052e-04, -2.68842763e-04,
       -8.50238939e-05, -3.20464278e-05, 2.33344035e-05, 1.52609879e-04,
       -2.98874838e-05, 1.46512437e-04, -3.10196454e-04, -1.68501560e-04,
       -1.21478253e-04, -5.66368690e-05, -3.69759800e-05, 8.52123922e-05,
       3.86512955e-04, 7.90958147e-05, 6.67056302e-04, -5.34829218e-04,
       -5.25795622e-04, -2.30156278e-04, -9.07662325e-05,
       -4.27866653e-05, -5.79694242e-05, 1.52406035e-04, 9.42735933e-05,
       2.11761537e-04, -3.89598456e-04, -4.11001180e-04, -3.85395484e-04,
       -3.19020270e-04, -1.55279078e-04, -5.72590261e-06, 3.26726586e-04,
       2.92793498e-04, 8.99192470e-04, -5.77549159e-04, -5.68388845e-04,
       -5.74487960e-04, -2.99364910e-04, -4.24840982e-05, 6.70703012e-05,
       3.90585396e-04, 5.19858695e-05, 8.70468386e-04, -3.20196996e-04,
       -4.29146370e-04, -2.49888748e-04, -1.20255892e-04,
       -1.30681365e-04, -4.46578852e-05, 1.08603424e-04, -1.19635588e-04,
       2.16531218e-04, -4.85097029e-04, -4.67699167e-04, -4.79282957e-04,
       -1.58099370e-04, -6.73619288e-05, 7.42010479e-06, 2.50663259e-04,
       1.90380946e-04, 9.00043116e-04, -3.17970756e-04, -4.77417518e-04,
       -4.78425500e-04, -2.44432595e-04, -1.08738583e-04,
       -8.19044799e-05, -3.50597747e-06, -1.70684303e-04, 7.99896152e-05,
       -4.85097029e-04, -4.75780689e-04, -4.33482317e-04,
       -1.60226627e-04, 5.77465544e-05, -1.30072047e-04, -6.18043923e-05,
       -1.01788377e-04, 9.22483159e-05, -4.69553430e-04, -4.12123831e-04,
       -4.29375650e-04, 5.34008286e-05, 4.82813106e-04, -2.42629583e-04,
       -1.80130708e-04, -1.89954590e-04, -6.83940743e-05,
