%YAML:1.0
---
HOGdiver96x160: !!opencv-object-detector-hog
   winSize: [ 80, 120 ]
   blockSize: [ 16, 16 ]
   blockStride: [ 8, 8 ]
   cellSize: [ 8, 8 ]
   nbins: 9
   derivAperture: 1
   winSigma: 4.
   histogramNormType: 0
   L2HysThreshold: 2.0000000000000001e-01
   gammaCorrection: 1
   nlevels: 64
   signedGradient: 0
   SVMDetector: [ -1.48093968e-03, -9.72020207e-04, -6.04941626e-04,
       -1.02678430e-03, -7.59813120e-04, -4.34201880e-04,
       -1.03550358e-03, -1.29555608e-03, -1.39446551e-04, 5.63006673e-04,
       -1.38482748e-04, -3.84563667e-04, -1.42497686e-03,
       -2.36952002e-03, -1.80692365e-03, -1.59749109e-03,
       -1.15767133e-03, 6.75485586e-04, 2.58167251e-03, -1.13971392e-03,
       -1.60803553e-03, -1.16486370e-03, -1.00919395e-03,
       -7.91120692e-04, -1.88258034e-03, -5.34097897e-04, 2.32142559e-03,
       2.63594720e-03, -6.22800668e-04, -1.03025918e-03, -1.42186519e-03,
       -2.58935778e-03, -1.79069838e-03, -2.53768894e-03,
       -1.03523338e-03, 3.10526066e-03, 1.33428338e-03, 2.58692744e-04,
       -2.14712738e-04, -1.76045555e-03, -2.96519394e-03,
       -1.68075995e-03, -1.02328439e-03, -2.38904846e-04, 1.02310092e-03,
       2.36539170e-03, 7.54774897e-04, -3.68063156e-05, -1.28537428e-03,
       -2.90988502e-03, -2.39166664e-03, -1.37982471e-03,
       -7.37049093e-04, 2.78355117e-04, 3.95374652e-03, 6.89847802e-04,
       1.27044259e-04, -9.35186690e-04, -2.96992483e-03, -1.57644367e-03,
       -3.05639510e-03, -5.55275066e-04, 3.95324267e-03, 4.07013483e-03,
       7.93141080e-04, 2.32176375e-04, -7.31419947e-04, -2.84108706e-03,
       -2.09436333e-03, -3.04257777e-03, -1.50829135e-03, 3.00056161e-03,
       2.35292595e-03, 1.34925032e-03, 5.81860077e-04, -4.31668246e-04,
       -2.04886915e-03, -2.06436915e-03, -2.05924222e-03,
       -1.01358979e-03, 3.68828973e-04, 2.72101257e-03, 8.66991642e-04,
       7.16246650e-05, -8.41911940e-04, -1.97325600e-03, -2.18393281e-03,
       -2.09640828e-03, -1.12863572e-03, 4.72450716e-04, 3.30194645e-03,
       9.41560953e-04, -6.09489973e-04, -1.03439705e-03, -1.67363894e-03,
       -1.91002979e-03, -2.25403788e-03, -1.65845640e-03, 2.33754958e-03,
       1.86272745e-03, 9.08961752e-04, -1.52770372e-03, -1.61840522e-03,
       -1.91814825e-03, -2.12091790e-03, -2.22249515e-03,
       -1.86868396e-03, 1.62691216e-03, 2.06293771e-03, 6.84285187e-05,
       -2.30212099e-04, -8.55994993e-04, -1.67557842e-03,
       -1.85833871e-03, -1.59222842e-03, -6.74955081e-04, 1.02531270e-03,
       1.79914967e-03, -3.75520671e-04, -3.43566877e-04, -1.04468514e-03,
       -1.39946712e-03, -2.18408485e-03, -2.02198792e-03,
       -1.51627709e-03, 1.01276231e-03, 2.02379585e-03, -6.73808157e-04,
       -1.08690932e-03, -6.23251894e-04, -1.82139652e-03,
       -1.57509116e-03, -1.81894959e-03, -7.86545046e-04, 1.63943158e-03,
       2.26471876e-03, -1.45973929e-03, -5.71067038e-04, -5.83019282e-04,
       -1.56558782e-03, -2.27612839e-03, -2.09827628e-03,
       -1.20844843e-03, 1.63943158e-03, 3.77592747e-04, -1.18527480e-03,
       -5.98486979e-04, -7.58732669e-04, -7.01853714e-04,
       -8.85896443e-04, -2.46054213e-03, -1.74715172e-03, 7.66022480e-04,
       3.48903239e-04, -1.36592251e-03, -8.61968438e-04, -6.38412719e-04,
       -5.38826105e-04, -5.71056094e-04, -1.29498728e-03,
       -9.56094242e-04, 1.11103861e-03, 1.11103861e-03, -1.09637482e-03,
       -2.62135785e-04, -3.03271954e-04, -5.84378198e-04,
       -1.20049738e-03, -1.78158132e-03, -1.51233037e-03, 1.11103861e-03,
       1.11103861e-03, -1.30020780e-03, -4.18458600e-04, -1.95730012e-04,
       -2.79976695e-04, -2.38553097e-04, -3.77773482e-04,
       -4.17799281e-04, 1.11103861e-03, 1.02722435e-03, -1.23829732e-03,
       -7.20794080e-04, -2.77027430e-04, -5.20785805e-04,
       -5.88618102e-04, -3.66798980e-04, -1.05641538e-03, 3.69933987e-04,
       1.02722435e-03, -1.70801033e-03, -1.60358474e-03, -1.56846899e-03,
       -1.86247018e-03, -1.29477168e-03, -1.76159735e-03,
       -4.71713109e-04, 1.24449295e-03, 1.02722435e-03, -9.40266356e-04,
       -3.45324836e-04, -1.72834727e-04, -2.94511003e-04,
       -2.30876540e-04, -1.34486050e-04, -3.84669373e-04, 1.02722435e-03,
       1.02722435e-03, -8.19667708e-04, -4.92883672e-04, -1.91943778e-03,
       -2.41168891e-03, -1.36577012e-03, -1.46998873e-03,
       -1.78724531e-05, 1.02722435e-03, 1.50993024e-03, -6.45425986e-04,
       -1.36836746e-03, -2.53513642e-03, -2.45021028e-03,
       -1.81675667e-03, -1.03360706e-03, 7.41251395e-04, 2.53731105e-03,
       1.68822240e-03, -1.18755130e-03, -1.27290376e-03, -2.50968128e-03,
       -2.48906226e-03, -2.41682795e-03, -7.24252313e-04, 5.14079700e-04,
       2.83074891e-03, 2.05899100e-03, -2.12337080e-04, -4.71838284e-04,
       -2.40822462e-03, -2.49964814e-03, -1.92489137e-03,
       -8.82823602e-04, 1.15430693e-03, 2.37563136e-03, 1.08124793e-03,
       -6.29047630e-04, -9.89331282e-04, -2.38990644e-03,
       -2.43735756e-03, -2.22764234e-03, -1.93610860e-04, 2.48068315e-03,
       2.64209881e-03, 1.36570982e-03, -1.28162443e-03, -1.50603906e-03,
       -2.32914323e-03, -2.37113517e-03, -2.44774320e-03,
       -1.05015025e-03, 8.99134611e-05, 2.60558329e-03, 8.30964767e-04,
       1.27708050e-03, -3.96375253e-04, -6.18992548e-04, -1.48473238e-03,
       -1.37100334e-03, -2.42798778e-05, 5.27995871e-04, 2.40567746e-03,
       1.18703094e-04, -1.23514782e-03, -1.96653232e-03, -2.34305556e-03,
       -2.13455991e-03, -2.01200810e-03, -8.45579780e-04, 1.03352999e-03,
       1.84923667e-03, 2.73659534e-04, -4.70707564e-05, -5.48565062e-04,
       -4.48287959e-04, -4.48872597e-04, -2.44776980e-04,
       -3.06749280e-04, 1.42381046e-04, 1.12257246e-03, -1.52164997e-04,
       1.88425649e-03, 2.55115039e-04, -4.28499297e-05, -2.90520577e-04,
       -3.05585738e-04, 2.30607984e-04, 5.42900292e-04, -2.94281694e-04,
       -1.52164997e-04, 1.36009860e-03, 4.87615907e-05, 6.05121080e-04,
       1.41254161e-04, 6.61375816e-05, 1.84999619e-04, 4.55939793e-04,
       -3.50821327e-04, -1.36332645e-03, 1.20278593e-04, 3.76825861e-04,
       2.71140423e-04, -7.52931464e-06, 1.52501787e-04, 2.15469569e-04,
       8.09578109e-04, -4.07904678e-04, -1.52164997e-04, 5.99370280e-04,
       8.75768601e-05, 6.60231337e-04, 1.22041274e-04, 2.41824455e-04,
       5.11773222e-04, 9.30514594e-04, -1.52164997e-04, -7.18086949e-06,
       9.59214696e-04, 1.40679782e-04, 5.98399725e-04, 4.11789544e-04,
       2.53669830e-04, 9.16331701e-05, 9.08618022e-05, -1.19491061e-03,
       -7.18086949e-06, 1.55423733e-03, 2.12178085e-04, 1.57474366e-04,
       3.68926878e-04, 1.29044682e-04, 1.04228038e-05, 2.41000089e-04,
       -1.76665699e-03, -7.18086949e-06, 1.61181029e-03, -6.94680421e-05,
       1.18007546e-03, 5.21855836e-04, 4.09653585e-04, 1.13132519e-04,
       2.47473799e-04, -5.25722513e-04, -7.18086949e-06, 2.22717528e-03,
       -4.15808317e-05, 7.00993347e-04, 3.23158660e-04, 6.63221290e-05,
       -3.64116655e-04, 1.82045289e-04, -1.17137446e-03, 1.48324369e-04,
       1.87636679e-03, 3.13611345e-05, -9.63113853e-05, 1.76061119e-04,
       3.22672204e-05, 1.80692237e-04, 9.08870716e-04, -1.28792971e-03,
       -1.83975382e-03, 5.39344968e-04, -1.60405834e-04, -4.77498943e-05,
       1.08837499e-04, 1.22725214e-05, 4.37102339e-04, 1.79966725e-03,
       -1.46443397e-03, 2.98782892e-04, 1.67308678e-03, 1.66000318e-04,
       -7.46239821e-05, -3.42471139e-05, -2.86468217e-04,
       -2.91040866e-04, 2.26730504e-03, -3.18369857e-04, -2.33107829e-03,
       -8.15153089e-06, 7.58285387e-05, 1.64331032e-05, 2.75827006e-06,
       -4.30187676e-04, 1.98872876e-04, 2.94719404e-03, -1.61091681e-04,
       -2.58674449e-03, 1.35509152e-04, 2.29099343e-04, 8.93436008e-05,
       2.62727903e-04, 2.31344937e-04, 8.66196642e-04, 1.95626169e-03,
       -1.42800633e-03, -2.97400099e-03, -1.56552866e-04, 3.71156435e-04,
       5.37300657e-04, 2.93860841e-03, 2.11834256e-03, 1.16454437e-03,
       1.18334615e-03, -2.12867279e-03, -1.69556739e-03, 2.36181426e-04,
       2.55674357e-04, 1.26002356e-04, 1.34760514e-04, -2.18832472e-04,
       9.73059738e-04, 4.06709965e-03, -5.23836003e-04, -1.34935987e-03,
       7.69448525e-04, 6.77063130e-04, 1.10185693e-03, 2.76615634e-03,
       9.99771873e-04, 3.63553612e-04, 1.26485864e-03, -6.92765403e-04,
       -3.31353047e-03, -7.13213638e-04, 1.03295870e-05, 3.54272663e-04,
       4.41144779e-03, 2.58996710e-03, 2.51503894e-04, 5.30569632e-05,
       -3.19517008e-03, -3.36509873e-03, -1.46685960e-03, 7.85603115e-05,
       1.00722967e-03, 4.36542276e-03, 1.90513174e-03, -1.00317484e-04,
       -4.49238723e-04, -3.36509873e-03, -3.07925930e-03,
       -2.36251100e-04, 1.70515385e-04, 6.10854011e-04, 4.35845507e-03,
       1.41709659e-03, -1.09876280e-04, -5.02636365e-04, -2.87317601e-03,
       -3.36241419e-03, -1.58902234e-03, -1.23226622e-04, 3.05705558e-04,
       3.98767740e-03, 3.60007136e-04, -5.27606055e-04, -7.62607669e-04,
       -3.35907238e-03, -2.30187876e-03, -1.59478758e-03,
       -2.43747723e-04, 2.04096362e-03, 5.00835245e-03, 1.13652926e-03,
       -3.57393932e-04, -9.67531523e-04, -2.50094221e-03,
       -8.96955607e-04, -1.04877877e-03, -7.74576620e-04,
       -1.26729166e-04, 2.43432657e-03, -1.17319124e-03, -8.90467491e-04,
       -1.13506359e-03, -1.18840765e-03, -2.47471151e-03,
       -1.96229294e-03, -7.70042883e-04, 2.88756331e-04, 4.60219476e-03,
       -6.57484692e-04, -1.06039189e-03, -9.62828926e-04,
       -2.45944713e-03, -1.44921802e-03, -1.16930902e-03,
       -1.99160492e-03, -2.10235245e-03, 1.43496261e-03, -1.76411669e-03,
       -1.51342759e-03, -1.07490178e-03, -1.42065657e-03, 1.79972081e-03,
       -4.66609636e-04, -1.27604837e-03, -1.15484348e-03,
       -2.07141484e-03, -1.24035461e-03, -1.56859064e-03,
       -8.75852769e-04, 1.76350982e-03, 2.10925168e-03, -9.58584074e-04,
       -9.62304592e-04, -1.21358538e-03, -2.42097885e-03,
       -1.31267298e-03, -1.53645466e-03, -6.81084930e-04, 1.99340470e-03,
       1.16726209e-03, 1.03026105e-04, -6.14388147e-04, -1.20562653e-03,
       -2.39872187e-03, -1.36370491e-03, -1.36826572e-03,
       -6.82234881e-04, -7.21178483e-04, 1.55140285e-03, -9.30539565e-04,
       -5.89335046e-04, -1.83121965e-03, -2.43351306e-03,
       -1.69223011e-03, -1.06563407e-03, -6.43370207e-04, 1.61471684e-03,
       3.07586091e-03, 1.82261982e-04, 2.65159644e-04, -1.86077523e-04,
       -2.63897097e-03, -1.06027164e-03, -2.73740268e-03,
       -1.01953780e-03, 2.82454584e-03, 2.99386028e-03, -1.13890343e-03,
       3.74678893e-05, -6.40923856e-04, -2.35644262e-03, -2.14522146e-03,
       -2.55695125e-03, -1.96530740e-03, 9.38958256e-04, 2.86911870e-03,
       4.51089174e-04, 1.93754386e-04, -2.69364828e-04, -1.02462899e-03,
       -9.30891547e-04, -1.21569703e-03, -7.94812804e-04, 2.46518664e-03,
       2.76253442e-03, -7.78971589e-05, -4.36111703e-04, -1.03359739e-03,
       -7.55464484e-04, -2.42744782e-03, -2.58839480e-03,
       -2.41948897e-03, 1.68411492e-03, 2.64054839e-03, -3.32276162e-04,
       -7.51401356e-04, -9.18087782e-04, -8.34639126e-04,
       -8.62308778e-04, -1.73295569e-03, -1.11095374e-03, 1.57679408e-03,
       1.37866137e-03, 3.81443941e-04, -1.73595559e-03, -1.76865689e-03,
       -5.92634489e-04, -1.09768426e-03, -1.36012863e-03,
       -7.56340683e-04, 1.78197992e-03, 2.24593352e-03, -2.45291973e-04,
       -1.18526851e-03, -1.25516625e-03, -2.66786898e-04,
       -1.27799797e-03, -1.84231752e-03, -1.74187066e-03, 2.10337876e-03,
       5.72718505e-04, -7.89473066e-04, -1.67308224e-03, -1.67349027e-03,
       -1.08824426e-03, -1.79109792e-03, -1.61860033e-03,
       -1.08824694e-03, 1.68821821e-03, 1.85685570e-03, -7.92766514e-04,
       -1.44815305e-03, -1.01004669e-03, -1.25879771e-03,
       -1.72309193e-03, -1.80388277e-03, -1.91924875e-04, 1.81216432e-03,
       2.02442100e-03, -8.91181466e-04, -5.60444547e-04, -4.72527201e-04,
       -1.58812141e-03, -2.32552667e-03, -2.31083366e-03,
       -1.08071184e-03, 1.42453925e-03, 1.31727045e-03, -7.77045265e-04,
       -1.18382880e-03, -1.52974494e-03, -2.21872772e-03,
       -2.32046633e-03, -1.47512334e-03, -4.45118872e-04, 2.53814110e-03,
       1.47583382e-03, -2.16198634e-04, -5.69211959e-04, -6.25876535e-04,
       -1.97788840e-03, -2.32552667e-03, -1.62460154e-03,
       -8.38278385e-04, 1.54088112e-03, 9.80771729e-04, -9.58888675e-04,
       -1.51839718e-04, -2.39360656e-04, -5.11204242e-04,
       -1.43692840e-03, -1.60911481e-03, -1.51682552e-03, 9.80771729e-04,
       9.80771729e-04, -1.77243212e-03, -2.70419376e-04, -7.98915207e-05,
       -3.96492906e-05, -6.28139096e-05, -1.80542251e-04,
       -5.21291920e-04, 9.80771729e-04, 9.80771729e-04, -8.88785464e-04,
       -4.95643821e-04, -3.70023248e-04, -3.93134163e-04,
       -1.09812350e-03, -1.09838694e-03, -1.84350007e-03, 2.76118226e-04,
       9.80771729e-04, -1.23827811e-03, -7.44054792e-04, -3.26471752e-04,
       -1.76236790e-04, -1.54140886e-04, -5.51812933e-04,
       -2.02866248e-03, -3.80307873e-04, 9.54416115e-04, -9.64150298e-04,
       -1.20926241e-04, -7.37994924e-05, -5.26513431e-05,
       -8.40265566e-05, -1.97749570e-04, 2.17646622e-04, 9.54416115e-04,
       9.54416115e-04, 6.00992134e-05, -1.26656596e-04, -1.33811962e-03,
       -2.16936064e-03, -1.17362593e-03, -1.69022160e-03,
       -4.80463292e-04, 9.54416115e-04, 9.54416115e-04, -1.32653266e-04,
       -4.39543364e-04, -3.20811028e-04, -3.29196133e-04,
       -1.38317570e-04, -4.07669635e-04, -8.53854057e-04,
       -6.52714516e-04, 9.54416115e-04, 1.03347923e-03, -4.75796609e-04,
       -1.10936048e-03, -2.63910578e-03, -2.36871908e-03,
       -1.61577680e-03, -1.10430608e-03, -2.53123053e-05, 1.90277456e-03,
       5.19457215e-04, -2.09220583e-04, -1.80205540e-03, -2.19737133e-03,
       -1.49764377e-03, -1.23640895e-03, -1.71576448e-05, 1.78596168e-03,
       1.67577539e-03, 5.39518951e-04, -3.74772731e-04, -1.88655511e-03,
       -2.00482155e-03, -1.95599534e-03, -5.17998473e-04, 7.55641900e-04,
       1.15299842e-03, 2.00791354e-03, 1.73208106e-03, -6.15443103e-04,
       -1.37220824e-03, -2.25221738e-03, -2.26624939e-03,
       -1.32722745e-03, -7.80488481e-04, 2.22295377e-04, 2.04761466e-03,
       1.95083278e-03, -9.40223224e-04, -1.81926833e-03, -2.17112293e-03,
       -2.19901791e-03, -2.18812702e-03, -1.75177073e-03,
       -6.25029672e-04, 1.54979655e-03, 3.99743614e-04, -8.69281474e-04,
       -2.08967715e-03, -1.89893355e-03, -1.58739428e-03,
       -1.00054743e-03, 1.97206435e-04, 2.46470881e-04, 1.24187081e-03,
       4.11271205e-04, -1.28499683e-04, -8.71888944e-04, -1.68718072e-03,
       2.66098446e-04, -4.02237667e-04, 2.61239853e-04, 1.41175534e-03,
       2.34914548e-03, 1.80452073e-03, -1.22735661e-03, -2.27441639e-03,
       -2.27459753e-03, -2.35280860e-03, -2.37259362e-03,
       -1.15096848e-03, -5.51198260e-04, 1.80771213e-03, 1.61739474e-03,
       -3.72424605e-04, -1.37274282e-03, -2.29816791e-03,
       -1.06882257e-03, -7.02115649e-04, 6.61183323e-04, 2.10939394e-03,
       -7.41115073e-04, -4.66951198e-04, -1.85082579e-04,
       -3.03518202e-04, -5.87301678e-04, 2.08760568e-04, 3.06094444e-05,
       9.28926820e-05, 1.64934099e-04, 1.91929634e-04, 2.39436471e-04,
       2.28898818e-04, 6.97672385e-06, -5.87919167e-05, 3.99545970e-05,
       2.85774906e-04, -4.92440362e-04, 3.71110451e-04, 7.65874109e-04,
       -1.11191894e-03, -4.84348595e-04, -4.97584173e-04,
       -1.28701364e-03, -5.25872805e-04, -8.99555162e-04,
       -8.90363735e-05, 7.65874109e-04, 7.65874109e-04, -1.96079913e-04,
       1.68882019e-04, -1.03117293e-03, -7.76961329e-04, -1.27125822e-03,
       -8.29980650e-04, -1.67183636e-03, 6.77287404e-04, 5.63207723e-04,
       2.12975335e-03, 1.15725619e-03, 8.68639909e-04, 2.52239843e-04,
       1.58500523e-04, 1.51284221e-05, -3.45303095e-04, 4.70370060e-06,
       4.20667522e-04, 9.51427501e-04, 1.93689237e-04, 5.93071818e-05,
       -4.27421764e-04, -1.09463977e-03, -8.92047421e-04,
       -3.64363630e-04, 9.87493433e-04, 1.75469369e-03, 5.91076445e-04,
       6.17878162e-04, -6.53288909e-04, -8.18006229e-04, -1.08138856e-03,
       -4.15297429e-04, -1.91148510e-03, -9.80885234e-04, 3.37484467e-04,
       -1.00509147e-03, -1.06690673e-03, -1.27561123e-03,
       -1.35681254e-03, -2.52062152e-03, -1.84751570e-03,
       -2.39680172e-03, 6.17878162e-04, -5.92502947e-05, -2.67518539e-04,
       -7.29899693e-05, -5.60069864e-04, -3.69972928e-04,
       -1.47963769e-03, -9.98358359e-04, 3.43291322e-04, 1.24686549e-03,
       -1.63084758e-03, -8.96438083e-04, -7.98693145e-05,
       -1.27827443e-04, -1.52229681e-04, -5.74391626e-04, 8.83411631e-05,
       2.03869352e-03, 3.73535440e-04, 3.06681090e-04, -9.98626580e-04,
       -1.34538522e-03, -1.24288711e-03, -9.27172892e-04,
       -2.66322796e-03, -1.46440079e-03, -9.28268943e-04, 1.45353796e-03,
       -1.11311977e-03, -1.12792233e-03, -4.11888410e-04,
       -3.33522330e-04, -4.17019823e-04, -6.97341049e-04, 2.17005465e-04,
       2.05613417e-03, 5.33838291e-04, -2.22695409e-03, -3.86838452e-04,
       -5.77733699e-05, 1.47000046e-05, -4.45482619e-05, -6.09988892e-05,
       8.47115938e-04, 3.02717835e-03, -3.28342605e-04, -1.92045793e-03,
       1.36827904e-04, 2.58029060e-04, 2.98120547e-04, 4.93085885e-04,
       3.26695481e-05, 2.53597042e-04, 1.70326605e-03, -2.44920258e-04,
       -2.66404939e-03, -6.84769533e-04, -1.30427230e-04, 7.57629459e-05,
       9.70074980e-05, 1.19229883e-03, 1.66447926e-03, 2.79005850e-03,
       -1.13697948e-04, -2.28888867e-03, -3.71835689e-04, 7.89734331e-05,
       -4.57201168e-05, 4.22613957e-05, 8.32284975e-04, 1.96766900e-03,
       1.72722375e-03, -1.18927062e-04, -2.52419244e-03, 2.26412347e-04,
       7.68426631e-04, 1.03594759e-03, 3.98098351e-03, 5.48898475e-04,
       6.17391415e-05, 2.40097012e-04, -1.82566640e-03, -3.12317396e-03,
       -1.03090401e-03, 5.08243684e-04, 1.29981013e-03, 3.52283381e-03,
       5.77368541e-04, -6.78332639e-04, -6.67326094e-04, -3.13600944e-03,
       -1.76308583e-03, 4.22621029e-04, 1.67628843e-03, 1.32814934e-03,
       6.91498281e-04, 1.46026912e-04, 4.95586486e-04, -2.69215561e-05,
       -9.74856026e-04, -2.74413452e-03, 8.58599669e-05, 2.16866937e-03,
       3.81502183e-03, 8.69324664e-04, -4.60144714e-04, -1.60620559e-03,
       -1.33373390e-03, -2.96291686e-03, -2.35405518e-03,
       -1.25806464e-03, -3.18501174e-04, 7.70697952e-04, 4.56380658e-03,
       1.31051391e-04, -1.65101071e-03, -7.95681262e-04, -2.33108085e-03,
       -5.79295564e-04, -5.47362899e-04, -1.36146939e-03,
       -1.71211071e-03, 1.56017300e-03, -1.44516502e-03, -1.59299490e-03,
       -7.52753986e-04, -6.32274197e-04, -1.45701901e-03,
       -3.07018345e-04, 8.99376522e-04, 4.39507049e-03, 7.27909035e-04,
       -1.40108762e-03, -2.22379598e-03, -9.88855259e-04,
       -2.07464560e-03, -2.23268682e-04, -2.12377461e-04,
       -1.48724837e-04, -4.56527458e-04, -3.42153304e-04,
       -2.00763019e-03, -1.79799867e-03, -7.99092057e-04,
       -4.08525928e-04, 1.64834817e-03, 9.31358256e-04, -8.14260799e-04,
       -7.90579943e-04, -1.62889715e-03, -1.30238966e-03,
       -1.33436872e-03, -3.05205060e-04, 2.31626924e-04, 2.68783164e-03,
       6.35356177e-04, -2.82025925e-04, -8.83550325e-04, -1.42892078e-03,
       -1.03054347e-03, -1.19505846e-03, -9.60883626e-04, 2.87060533e-03,
       9.01553780e-04, 1.23169308e-03, -9.97204916e-04, -1.23906322e-03,
       -2.19380995e-03, -2.54590716e-03, -2.58745276e-03,
       -2.35363073e-03, -1.39808352e-03, 3.29698622e-03, 2.07671244e-03,
       -3.72761046e-04, -9.69992136e-04, -2.37202947e-03,
       -1.49157003e-03, -2.19715573e-03, -1.38435140e-03, 2.65559996e-04,
       2.80506746e-03, 6.28099195e-04, -3.36050609e-04, -7.31975713e-04,
       -9.03071137e-04, -9.83808888e-04, -9.43919877e-04,
       -1.32960652e-03, 2.36133626e-03, 2.75881332e-03, 6.95634662e-05,
       -2.96860514e-03, -3.03502404e-03, -2.07484700e-03,
       -1.57228741e-03, -2.19457131e-03, -2.36530509e-03, 2.39299983e-03,
       3.29407817e-03, 7.45558820e-04, -7.08817504e-04, -9.66707710e-04,
       -1.15696772e-03, -1.02058379e-03, -1.48253934e-03,
       -1.68666220e-03, 3.13821074e-04, 2.52483133e-03, -3.21760104e-04,
       -3.03639122e-03, -3.08237690e-03, -2.99835135e-03,
       -1.38047826e-03, -2.29480118e-03, -1.20534515e-03, 3.13972519e-03,
       3.16137727e-03, -2.72822013e-04, -2.25126720e-03, -2.25146883e-03,
       -1.04522845e-03, -9.69406508e-04, -1.05481048e-03,
       -1.01279479e-03, 2.72447243e-03, 2.64865858e-03, -9.86465719e-04,
       -2.22155242e-03, -2.26903963e-03, -2.22753687e-03,
       -2.22499250e-03, -1.00994261e-03, -1.00636517e-03, 1.45932299e-03,
       1.55006768e-03, -4.11910296e-04, -2.30761035e-03, -2.34585605e-03,
       -2.21631909e-03, -8.19751353e-04, -9.67813190e-04, 5.01933799e-04,
       3.45211593e-03, 9.79237142e-04, -8.57995998e-04, -1.68655417e-03,
       -2.05624080e-03, -1.96486292e-03, -1.68621494e-03,
       -9.82066034e-04, 1.04495135e-04, 2.29772017e-03, 3.25300964e-03,
       -5.42160065e-04, -9.21923260e-04, -1.35559915e-03,
       -2.36042286e-03, -2.38804240e-03, -9.29182745e-04,
       -4.28641360e-04, 2.94354139e-03, 1.75896857e-03, 9.08015645e-05,
       -8.62931192e-04, -5.26000920e-04, -1.46481732e-03,
       -2.39601918e-03, -6.55195268e-04, -6.30435592e-04, 1.08511606e-03,
       1.87804888e-03, -8.65791691e-04, -1.10678887e-03, -1.77271641e-03,
       -1.77757512e-03, -2.14795466e-03, -1.61465898e-03,
       -6.76153286e-04, 1.43610686e-03, 1.75896857e-03, -1.03537354e-03,
       -1.27425732e-03, -1.01079559e-03, -9.38760524e-04,
       -2.31133774e-03, -1.42106297e-03, -1.34211581e-03,
       -1.30573031e-03, 1.36430946e-03, -6.99579732e-06, -6.94929506e-04,
       -2.02448253e-04, -2.35161016e-04, -9.41606413e-04,
       -4.55332571e-04, -1.04335626e-03, -1.11013546e-03, 1.36430946e-03,
       7.73646112e-04, -2.54822400e-04, -4.00212099e-04, -3.03365232e-04,
       -5.31227270e-04, -6.77102653e-04, -1.38994190e-03,
       -1.14561943e-03, 1.36430946e-03, -3.23489017e-04, -6.47124834e-04,
       -3.30659444e-04, -5.92421973e-04, -1.67520321e-03,
       -1.76855782e-03, -1.28933333e-03, -2.47820071e-03, 1.36430946e-03,
       1.75886764e-03, 3.70386115e-04, -1.03485399e-05, -1.33085181e-04,
       -5.47834323e-04, -8.56978761e-04, -6.99206721e-04,
       -2.36727484e-03, 7.86013901e-04, 1.34993880e-03, -2.28183562e-04,
       -6.17234269e-04, -4.50657302e-04, -2.69612414e-04,
       -4.86141420e-04, -1.01032923e-03, -1.67150318e-03, 7.86013901e-04,
       1.85609015e-03, -1.26293075e-04, -1.39486440e-03, -2.38055992e-03,
       -1.83082093e-03, -6.23252534e-04, -5.97015547e-04,
       -1.10833568e-03, 6.47579145e-04, 1.77424948e-03, 3.09565599e-04,
       -8.65113398e-05, -7.39504758e-05, -2.80304346e-04,
       -2.27565135e-04, -2.76275823e-04, -2.54547549e-03,
       -3.77406774e-04, 2.04570335e-03, 1.06744305e-03, 6.87316060e-06,
       -2.22166622e-04, -2.29926372e-04, -1.20357865e-04,
       -3.43617634e-04, -2.40138453e-03, 1.52847113e-03, 2.04957859e-03,
       -3.82794358e-04, -2.12746440e-03, -2.51339469e-03,
       -2.41721421e-03, -5.45121613e-04, -5.61210967e-04,
       -1.19988760e-03, 1.55754003e-03, 2.49663112e-03, -5.02124138e-04,
       -2.01500533e-03, -2.46654684e-03, -2.45446572e-03,
       -2.04252428e-03, -1.37684704e-03, -1.50490645e-03,
       -1.77830458e-04, 1.79612369e-03, 9.91216395e-04, -2.85047514e-04,
       -1.14845880e-03, -3.63911793e-04, -3.25448818e-05,
       -3.17744416e-04, -1.82531739e-03, 1.10106159e-03, 1.95359881e-03,
       1.55989756e-03, 1.95930668e-04, -1.26681570e-03, -6.87031134e-04,
       -4.24772879e-04, -1.48353211e-04, -3.79695441e-04, 5.55664301e-04,
       1.11577008e-03, -1.12008862e-03, -1.25743134e-03, -2.75451108e-03,
       -1.93429133e-03, -1.97237916e-03, -8.12714919e-04,
       -1.56326813e-03, 5.55664301e-04, 1.50648819e-03, -2.06918718e-04,
       -5.79518673e-04, -1.61800382e-03, -1.19706837e-03,
       -6.85253588e-04, 3.05386275e-05, -2.66462856e-04, 4.60515032e-04,
       6.88071304e-04, 3.20244872e-04, 7.12739129e-04, 2.00695358e-04,
       -1.97227782e-04, -4.36438160e-04, -7.59269096e-05,
       -4.95045329e-04, 5.55664301e-04, 2.07023136e-03, 5.36701817e-04,
       4.32975707e-04, 7.71531777e-04, 2.34176536e-04, 1.08658969e-04,
       -7.35535505e-05, -1.04032247e-03, 1.01613731e-03, 4.08129097e-04,
       -7.97590765e-05, -2.64788134e-04, -2.95295351e-04,
       -3.70791036e-04, -6.13292796e-04, -1.41071170e-04, 2.54068960e-04,
       1.01613731e-03, -7.36164162e-04, -7.39402603e-04, -1.69397204e-03,
       -1.07512774e-03, -1.06837507e-03, -7.27480801e-04,
       -1.65082060e-03, 1.05905528e-05, 9.00701561e-04, 2.31657643e-03,
       -5.24294737e-05, -1.64920610e-04, 2.48061144e-04, -1.36147704e-04,
       -1.09627845e-05, -1.94700551e-04, -1.11932086e-03, 1.97805092e-03,
       8.71755765e-04, -2.50194687e-03, -2.55313818e-03, -2.42281053e-03,
       -1.12659903e-03, -8.21114925e-04, -1.64462067e-03,
       -3.86895990e-04, 2.97371158e-03, -8.49232834e-04, -1.19412772e-03,
       -2.06169300e-03, -1.43499265e-03, -1.06313196e-03,
       -4.30210610e-04, -1.44973083e-03, 1.24677306e-03, 1.24140247e-03,
       -1.22829957e-03, -1.97035819e-03, -1.14686135e-03,
       -9.30904353e-04, -1.04217476e-03, -8.66601069e-04,
       -1.27364695e-03, 1.34694471e-03, 3.05537623e-03, -1.31836088e-04,
       -2.17650621e-03, -2.29325402e-03, -2.23593926e-03,
       -1.11540686e-03, -9.43607301e-04, -8.50433775e-04, 1.69240311e-03,
       1.25983998e-03, 1.72460073e-04, -1.42934162e-03, -1.63916848e-03,
       -1.08468719e-03, -9.08832590e-04, -1.22138567e-03,
       -2.21319206e-04, 1.34694471e-03, 3.90712921e-05, -8.36177962e-04,
       -1.13498792e-03, -5.81868168e-04, -5.52274403e-04,
       -6.81343721e-04, -1.04879589e-04, -3.15339421e-04, 1.24456629e-03,
       -1.40809163e-03, -1.23710441e-03, -2.53305945e-04,
       -2.50325276e-04, 7.27109582e-05, 3.24869965e-04, 7.07187806e-04,
       5.28608682e-04, -2.28144825e-04, -7.31734326e-04, -7.27349543e-05,
       -5.81900007e-04, -1.77530455e-04, -1.66607875e-04, 4.68727056e-04,
       4.72567976e-04, 6.70877125e-05, 1.24456629e-03, -2.04072101e-03,
       -1.59188709e-03, -7.14523892e-04, 6.86896601e-05, 2.01330357e-03,
       1.08577299e-03, 2.69249082e-04, -1.01097533e-03, -1.36094936e-03,
       -1.74207590e-03, -9.93259018e-04, -8.11372665e-05, 1.26190480e-06,
       1.05531118e-03, 1.59590703e-03, 8.46855342e-04, 5.66002564e-04,
       -5.90468815e-04, -6.69154804e-04, -7.21837510e-04,
       -1.76736910e-04, -7.34887435e-05, 2.46607320e-04, 7.20900833e-04,
       9.16287594e-04, 1.92655920e-04, 1.72516343e-03, -8.48051801e-04,
       -8.44823953e-04, -1.16827805e-03, -8.49324395e-04, 2.84666289e-03,
       -2.36098014e-04, -8.87520146e-04, -1.31834892e-03,
       -1.92943728e-03, 3.97483032e-04, -3.25104484e-04, -1.25704706e-03,
       -1.13699411e-03, -1.46655962e-04, -1.07159012e-03,
       -1.50226662e-03, -1.08294736e-03, 7.11140339e-04, 1.51011642e-04,
       9.76779964e-04, 1.12282310e-03, 9.61682817e-04, -1.65077872e-04,
       -3.46211367e-04, -5.06905257e-04, -1.49835949e-03, 1.34627637e-03,
       -3.23858112e-04, 2.78524682e-03, 2.60374742e-03, 3.19784717e-03,
       -1.22925837e-03, -2.49780808e-03, -2.55251024e-03,
       -2.47083395e-03, -1.95766357e-03, 1.39045715e-05, 1.01598178e-03,
       -2.12901461e-04, -4.87275276e-04, -3.00349668e-04,
       -9.30733571e-04, -1.21917482e-03, -1.36144029e-03, 2.47477001e-05,
       -5.15785010e-04, 2.60837865e-03, 1.45842892e-03, -1.82947741e-04,
       -2.25895247e-03, -2.52702157e-03, -2.06716661e-03,
       -1.19151082e-03, -9.51518363e-04, 1.96405235e-04, 2.62670568e-03,
       2.98560900e-03, 3.85370175e-03, -1.49808568e-03, -2.76459544e-03,
       -2.29336927e-03, -1.16087426e-03, -5.52706828e-04, 2.64830625e-04,
       5.84013120e-04, 1.09869114e-03, -8.65193608e-04, -6.64248480e-04,
       -2.67821690e-03, -1.03974447e-03, -4.16732481e-04,
       -1.35903174e-04, 4.15663031e-04, 3.07041453e-03, 2.96971202e-03,
       -5.34045685e-04, -2.30739219e-03, -2.71910778e-03,
       -1.69333757e-03, -4.94248932e-04, -7.22767072e-05, 4.57414484e-04,
       1.09823095e-03, 1.08386716e-03, -1.92005129e-03, -6.92782225e-04,
       -2.46587698e-03, -1.11922587e-03, -4.95710934e-04,
       -3.44626969e-05, 1.29446678e-04, 6.87894237e-04, 1.65504054e-03,
       9.86053376e-04, -9.42968007e-04, -9.67038621e-04, -2.30227341e-03,
       -1.75749441e-03, -2.01332686e-03, 3.85173829e-03, 2.70836847e-03,
       9.44255298e-05, -3.43933876e-04, -1.51008368e-03, -6.58563513e-04,
       -8.16472748e-04, -1.67752427e-04, -3.22641368e-04,
       -1.70989824e-03, -8.66795657e-04, 2.45062722e-04, 1.10155169e-03,
       -3.94604809e-04, 4.84344346e-05, -8.45342467e-04, -1.21594162e-03,
       -2.22453685e-03, 1.55263246e-04, 3.15293815e-04, 4.95787244e-04,
       2.86783499e-04, -1.28469174e-03, -8.78428051e-04, -4.67691454e-04,
       -4.94650623e-04, -8.40902270e-04, 5.54976892e-03, 2.82923155e-03,
       -5.39465982e-04, -7.42379343e-04, -9.54742485e-04,
       -7.84634845e-04, -1.02313270e-03, -9.39389516e-04, 2.36084015e-04,
       1.50917238e-03, 2.13911830e-04, -5.87452902e-04, -1.53704826e-03,
       -1.55978382e-03, -2.03559245e-03, -2.58260407e-03,
       -1.26284815e-03, 2.91487621e-03, 5.63306268e-04, 2.51006422e-04,
       -3.23046814e-04, -4.79642011e-04, -6.30058174e-04,
       -1.53437362e-03, -9.57939774e-04, -1.49533711e-03,
       -6.29160379e-04, -5.32784325e-04, -7.55517220e-04, 5.99257655e-05,
       -3.09435360e-04, 8.67255207e-04, -2.09846254e-03, -2.44715856e-03,
       -2.33984459e-03, -7.33734516e-04, 4.14627633e-04, -1.00209974e-04,
       -1.37584138e-04, -6.94423623e-04, -9.62425198e-04,
       -4.78370697e-04, -1.70361903e-03, 1.25939841e-04, 2.19755317e-03,
       4.50866850e-04, -4.20379190e-04, -1.01285870e-03, -1.37502665e-03,
       5.03201038e-04, 8.67117778e-04, -6.79903314e-04, 8.67981929e-04,
       1.12085824e-03, 7.43253331e-04, 6.15339377e-04, 1.21308479e-03,
       7.33885448e-04, 7.47649290e-04, -7.63392251e-04, -1.92976324e-03,
       -2.34943558e-03, 1.15678458e-05, 2.99136154e-03, 1.19131384e-03,
       -2.66985007e-04, -1.10365520e-03, -3.42665626e-05, 1.96693392e-04,
       -1.30627502e-03, -1.39126787e-03, -6.03096196e-05, 1.27360341e-03,
       -7.41590804e-04, -1.09455572e-03, -1.64117338e-03,
       -5.68926339e-07, -3.73492250e-04, -2.88389332e-04, 1.89906132e-04,
       5.58715023e-04, 1.45837548e-03, -6.94281480e-04, -7.93761166e-04,
       -1.13303738e-03, 5.51445773e-05, -1.25241640e-03, -1.06397760e-03,
       -1.38011132e-03, -1.40375050e-03, 3.14708170e-03, 2.62797024e-04,
       -8.17912398e-04, -1.55909010e-03, -1.91522238e-04,
       -4.84145945e-04, -1.36663264e-03, -6.50422589e-04, 6.12227770e-04,
       3.00022634e-03, 4.43166209e-04, -6.18024264e-04, -7.60048453e-04,
       5.83156245e-04, -1.84895750e-03, -1.73236872e-03, -1.23897800e-03,
       8.98789323e-04, -9.77670541e-04, -2.54510494e-04, 2.08107536e-04,
       -1.67907856e-04, -1.39416676e-04, -1.20878336e-03,
       -2.27302592e-03, -1.54410570e-03, -2.46829749e-03,
       -6.93807728e-04, 1.65548653e-03, 1.23491767e-03, 7.94367108e-04,
       4.65790828e-04, 8.50854849e-05, -9.88375512e-04, -4.13120229e-04,
       -2.38149520e-03, 1.70847448e-03, 6.66969572e-04, -1.21327714e-04,
       -2.40430047e-04, 6.69128902e-04, -8.77418497e-04, -2.18915218e-03,
       -2.03682203e-03, -1.05191290e-03, 1.72113720e-03, 3.45727289e-03,
       1.41089095e-03, 8.78668798e-04, 9.39306279e-04, 3.40010709e-04,
       -8.11637321e-04, -3.66214925e-04, -1.80651099e-04,
       -2.27460079e-03, 7.05110084e-04, 2.94772850e-04, 2.99034233e-04,
       3.44565662e-04, -6.86670537e-05, -1.02439204e-04, -1.88650447e-04,
       -3.12064635e-03, -1.98040088e-03, 1.81859348e-03, 1.54649338e-03,
       6.90896006e-04, 7.02177233e-04, 2.09218226e-04, 1.63558798e-04,
       -8.35633618e-05, -2.81650247e-03, 1.93154818e-04, 3.07333097e-03,
       9.05310560e-04, 4.67991485e-04, 4.41051350e-04, -9.03655091e-05,
       -2.29120269e-04, -8.91926538e-05, -1.64259528e-03, 1.93154818e-04,
       2.58734450e-03, 3.44997225e-03, 1.29653933e-03, 1.07001606e-03,
       2.27198980e-04, 8.94482437e-05, 7.85788870e-04, -1.09012786e-03,
       -3.21093044e-04, 2.48930912e-04, 7.52416265e-04, 2.31289814e-04,
       1.14419730e-04, 1.77212150e-05, -2.85647711e-05, -5.08681580e-04,
       -2.18053022e-03, 1.16747018e-04, -4.98838490e-04, 2.57768232e-04,
       1.64040641e-04, -3.17808044e-05, -7.69059188e-05, -1.37593423e-04,
       -6.57573401e-04, 1.16747018e-04, 1.16747018e-04, 1.29055500e-03,
       2.50678486e-03, 4.50843654e-04, 1.97991903e-04, -1.15424118e-05,
       -3.48015252e-04, -5.73852041e-04, -1.22772460e-03, 1.16747018e-04,
       -1.76064379e-04, 7.61614530e-04, 1.46965322e-04, -1.01794729e-04,
       -1.38945315e-05, -8.68439656e-06, 4.99491398e-05, 1.16747018e-04,
       -1.35184592e-03, -1.06661196e-03, -9.71542831e-05, 1.72821878e-04,
       1.72399174e-04, 2.04052980e-04, 4.43289755e-04, 1.31191884e-03,
       5.52729936e-04, -1.56273355e-03, -1.66219031e-03, -2.01130140e-04,
       5.04212658e-05, 2.77527230e-04, 3.77488614e-04, 7.70823157e-04,
       1.43806066e-03, -3.33508244e-04, -6.28951355e-04, -1.81894703e-03,
       -2.32625345e-04, 9.81439298e-05, 1.43849829e-04, 6.16632635e-04,
       1.34292943e-03, 1.53951615e-03, 2.42031514e-04, -1.00470008e-03,
       -2.20050127e-03, -1.16236508e-04, 3.60124744e-04, 1.32540229e-03,
       1.44799380e-03, 1.12964888e-03, 1.33291667e-03, 2.42031514e-04,
       5.19489811e-04, -1.78107322e-04, -1.23046411e-04, 3.08937379e-05,
       2.61344190e-04, -7.20344833e-05, 4.83017531e-04, 3.27333139e-04,
       5.19489811e-04, 1.62631203e-03, -2.51162215e-04, -1.59389316e-03,
       -1.32935925e-03, -2.08792207e-03, -1.30274356e-03,
       -6.52866845e-04, -6.91589550e-04, 9.62211925e-04, 2.93510413e-04,
       -3.10519186e-04, 1.35462836e-03, 7.79564027e-04, 1.04585895e-03,
       -1.46655744e-04, 3.79637146e-04, -2.05207325e-04, 5.19489811e-04,
       -9.81618432e-05, -4.08106134e-04, 1.19816535e-03, 4.88770893e-04,
       -1.34105515e-03, -1.36927527e-03, -1.28529523e-03,
       -1.23904692e-03, 3.00207583e-04, 3.25076259e-03, 1.65397266e-03,
       -1.07679586e-03, -1.48395519e-03, -2.30812305e-03,
       -1.61596423e-03, -1.42656930e-03, -5.70096949e-04, 2.33408692e-03,
       1.92549487e-03, 2.99106631e-03, 9.40032332e-05, -1.23798195e-03,
       -8.96713638e-04, -1.31666381e-03, -1.88740552e-03,
       -2.93294492e-04, 1.34609547e-03, 1.54696498e-03, 5.35341154e-04,
       1.17545482e-03, 1.10811542e-03, -1.20800582e-03, -1.10213924e-03,
       -2.08175695e-03, -1.29442825e-03, 8.10329337e-04, 4.50595835e-04,
       2.16601940e-04, 4.14204667e-04, 2.89318850e-04, -5.63628739e-04,
       -1.68446079e-03, -1.84935716e-03, -1.78095559e-03, 3.30425653e-04,
       -9.84510290e-04, 6.85507199e-04, 4.30363347e-04, 3.25842935e-04,
       8.87769973e-04, 4.71469757e-05, 4.91766623e-05, -3.55657481e-04,
       -7.82526273e-04, -2.32064771e-03, -1.46262452e-03,
       -2.45657575e-04, 9.75030940e-04, 2.53333873e-03, 5.69378259e-04,
       6.14611665e-04, -3.48668400e-04, -2.07500276e-03, -1.13503262e-03,
       -9.29658825e-04, 4.14145819e-04, 1.63438520e-03, 1.30540784e-03,
       -1.13623450e-03, -5.73701109e-04, -1.09429099e-03,
       -1.13654509e-03, -2.24225689e-03, -2.09995732e-03,
       -2.04992000e-04, 5.12596685e-04, 1.76839030e-03, -2.28354183e-04,
       9.93084861e-04, 7.30728789e-04, -1.75730523e-03, -1.58200087e-03,
       -9.78252850e-04, -1.24618178e-03, -8.12284357e-04, 1.75488368e-03,
       -1.30174463e-04, -6.08398754e-04, 3.24411551e-04, -1.90434128e-03,
       -3.17984668e-04, -1.21661222e-04, -1.10320153e-03,
       -1.32190424e-03, -3.29824426e-04, -6.80092708e-05, 3.31202136e-05,
       2.07807127e-04, -8.74264166e-04, -2.26511783e-03, -2.24205502e-03,
       -1.38249109e-03, -7.52413936e-04, 3.96576681e-04, 9.94394883e-04,
       2.22927751e-03, 1.75818498e-03, -1.49847532e-03, -1.23643468e-03,
       -1.77446927e-03, -1.85117102e-03, -1.29194034e-03, 4.30614127e-05,
       1.66811596e-03, 3.01954569e-03, 1.30086625e-03, -9.28649912e-04,
       -3.41948558e-04, 2.35036394e-04, -6.74419280e-04, -7.26803439e-04,
       -1.96017322e-06, -2.40337817e-04, 1.10495207e-03, 9.72043257e-04,
       -4.41248121e-04, -4.02107398e-04, 5.26531250e-04, 5.76019283e-06,
       -2.85897317e-04, -1.48535392e-03, -1.48368406e-03, 9.19853221e-04,
       9.27674468e-04, 1.97194066e-04, -1.03004475e-03, -5.97477949e-04,
       -1.74309139e-03, -1.28185889e-03, -2.21046503e-04, 5.35803789e-04,
       2.81546544e-03, 1.85833708e-03, 2.78712803e-04, -1.58900907e-03,
       5.12630504e-04, -5.62685891e-04, -1.57214250e-04, -4.82395728e-04,
       -2.47540476e-04, 9.34201642e-04, -5.57354419e-04, -1.21823919e-03,
       1.74630652e-04, 1.09780219e-03, 7.71703839e-04, -6.38766447e-04,
       -9.64346109e-04, -1.71595160e-03, -1.37956595e-04, 2.21153430e-04,
       3.16960766e-04, 1.99267713e-04, 9.24066058e-04, 1.32705944e-04,
       -1.89796637e-03, 8.03975738e-04, -2.38928269e-03, -1.08533096e-03,
       -1.50775275e-04, 8.23198061e-05, -1.95740047e-03, 1.54710560e-05,
       -7.04034115e-04, 6.17686368e-04, 1.74109102e-03, -6.93684095e-04,
       -4.45002603e-04, -5.81604079e-04, -1.34951505e-03,
       -1.66797382e-03, -3.18599719e-04, -8.73529119e-04,
       -1.45760085e-03, 3.76532879e-03, -1.84402382e-03, -1.22480688e-03,
       -3.21999716e-04, -1.18070177e-03, -1.52402977e-03, 4.53425659e-04,
       1.34166528e-03, 5.01212897e-04, 2.04516720e-04, 5.01958944e-04,
       -8.53958336e-05, -4.19105403e-04, -1.62008312e-03,
       -4.98548732e-04, 4.17383766e-04, 9.59567667e-04, 1.05512518e-04,
       -9.50967311e-04, -4.25914448e-04, -4.85236524e-04,
       -1.09069236e-03, -5.73589408e-04, -1.38051959e-03, 7.61740666e-04,
       2.16083252e-03, 7.30087631e-04, 2.87591451e-04, -5.54259168e-04,
       1.90932682e-04, -3.84464569e-04, -8.41485104e-04, -8.48073978e-04,
       1.86597323e-03, 1.76417478e-03, -7.05158745e-05, -1.62560050e-03,
       -1.70258491e-03, -5.05415373e-04, 8.01726594e-04, -1.15874114e-04,
       4.92793333e-05, 5.73262587e-05, -2.84714362e-04, -8.76666105e-04,
       -1.44691102e-03, -1.46798394e-03, -1.29837787e-03,
       -2.06386647e-03, -6.21831219e-04, 4.73995256e-04, 1.58751267e-03,
       2.13778534e-04, -4.73024760e-04, -1.51582208e-04, -1.13386114e-03,
       -1.27935002e-03, -1.67761394e-03, -2.99555220e-04, 6.30309281e-04,
       2.74325907e-03, 6.83858118e-04, -1.54508522e-03, -2.53635016e-03,
       -2.17913534e-03, -2.03937129e-03, -1.19205355e-03,
       -7.42189586e-04, 4.35542874e-03, 4.11686813e-03, 2.19901721e-03,
       -1.41409680e-03, -1.01595325e-03, -1.64205499e-03,
       -1.87622418e-03, -2.06277822e-03, 4.69193910e-04, 1.07105915e-03,
       1.37934042e-03, 4.63996577e-04, -1.97192658e-05, -6.48769434e-04,
       -5.17196197e-04, -8.81623710e-04, -1.36640423e-03,
       -1.84413784e-05, 1.50254171e-03, 2.61778827e-04, -1.42879481e-03,
       -1.58658181e-03, -1.84814539e-03, -7.61197647e-04,
       -1.51403248e-03, -2.19504395e-03, -1.35633838e-03, 3.40604130e-03,
       3.21582635e-03, 1.40869478e-03, -9.65626561e-04, -1.80526928e-03,
       -1.45367347e-03, -5.39155444e-04, -7.61813426e-04, 4.80285962e-04,
       2.60384986e-03, 1.66180870e-03, -1.08310964e-03, -9.72714275e-04,
       -1.57150847e-03, -2.22155987e-03, -8.55614780e-04,
       -6.67029293e-04, 5.14445768e-04, 1.50678144e-03, 5.67234762e-04,
       -1.00318855e-03, -8.98353290e-04, -8.61433160e-04,
       -1.18866831e-03, -1.64938509e-03, -2.46185227e-04,
       -5.43962000e-04, 1.72090332e-03, 4.28577769e-04, -1.79607203e-04,
       -3.09695461e-04, -6.22880762e-04, -2.37827236e-03,
       -2.16066209e-03, -1.23012764e-03, 5.71805518e-04, 2.57254462e-03,
       1.32356945e-03, -3.53872601e-04, 1.87064928e-04, -4.37119306e-04,
       -1.56088616e-03, -7.98202876e-04, 3.10812145e-04, 4.67443024e-04,
       2.07865494e-03, 1.14729453e-03, 1.20037643e-04, 5.05506978e-05,
       -7.71618739e-04, -2.19706935e-03, -1.88106240e-03,
       -1.33710634e-03, 7.89125857e-04, 9.72972484e-04, 7.06012594e-04,
       2.09696809e-04, 1.94048087e-04, -4.35897709e-05, -1.55706343e-03,
       -2.10397667e-03, -1.69021636e-03, -1.53338420e-03, 5.30238147e-04,
       2.70275911e-03, 1.34763937e-03, 4.13724978e-04, 1.10887850e-04,
       8.49444041e-05, 2.44157767e-04, -1.33987371e-04, -1.28909363e-03,
       5.30238147e-04, 7.59211180e-05, 1.29126682e-04, 3.11725686e-04,
       -2.59280350e-04, -7.16870709e-04, -2.15470186e-03,
       -1.55630743e-03, -1.10902276e-03, 5.30238147e-04, 1.47938309e-03,
       9.16603720e-04, 3.43887164e-04, 7.63162973e-07, 3.05860653e-04,
       8.66374292e-04, 8.95339937e-04, -9.23232292e-04, -2.36864988e-04,
       2.46258895e-03, 8.67799623e-04, 1.91775180e-04, 1.16419717e-04,
       1.90986138e-05, 8.34505263e-05, 1.50037931e-05, -1.91265089e-03,
       -2.36864988e-04, 1.95399835e-03, 1.87104056e-03, 6.66640874e-04,
       6.96750707e-04, 2.69551267e-04, -3.48943104e-05, 7.03941216e-04,
       -1.45514356e-03, -2.36864988e-04, 2.04682676e-03, 5.75951941e-04,
       4.25824801e-05, 5.98862971e-05, -5.32678896e-05, 4.30829998e-04,
       5.66928531e-04, -1.89226214e-03, -2.36864988e-04, 1.71205576e-03,
       5.77508705e-04, 2.67097348e-04, 4.13225207e-04, 2.19395573e-04,
       1.77169641e-04, 1.42621851e-04, -1.62610097e-03, -8.22309870e-04,
       1.73184276e-03, 2.04011961e-03, 6.39482809e-04, 5.32050501e-04,
       2.06942757e-04, -2.21303213e-04, 4.67149366e-04, -1.76421704e-03,
       -5.12802624e-04, 4.80417744e-04, 1.00605446e-03, 3.32276919e-04,
       3.01618245e-04, 3.19381041e-04, 7.28493789e-04, 1.58655096e-03,
       -2.59152643e-04, -2.59152643e-04, 1.27628108e-03, 4.71130566e-04,
       2.42349808e-04, 2.04858210e-04, 1.25729755e-04, 8.39273634e-05,
       1.77608686e-04, -2.34724930e-03, -2.59152643e-04, 2.35782540e-03,
       9.39892547e-04, 1.31828652e-04, 1.36887000e-04, 1.90109538e-04,
       4.55634290e-04, 3.58413381e-04, -1.53822126e-03, -1.27250596e-03,
       -3.65681277e-04, 5.16239495e-04, 3.40539846e-04, 7.72729225e-04,
       7.98848923e-04, 8.08173441e-04, 7.84749922e-04, -7.03916419e-04,
       -5.83003159e-04, -1.89630693e-04, 8.84708832e-04, 9.33342380e-04,
       2.57701054e-03, 1.96450041e-03, 4.39678115e-05, -1.45848212e-03,
       -2.19738274e-03, -3.12328339e-04, 2.16122321e-03, 1.20409485e-03,
       2.63212336e-04, 7.21824879e-04, 3.75989242e-04, 2.86988070e-04,
       -1.40567834e-04, -1.06500869e-03, -3.12328339e-04, 1.30222086e-03,
       1.06355664e-03, 4.82872565e-04, 1.61519879e-03, 1.11541757e-03,
       -7.69247490e-05, -1.06416084e-03, -2.11112504e-03, 1.55399597e-04,
       9.47018270e-04, 1.45728642e-03, 1.19007344e-03, 1.85775163e-03,
       1.73233740e-04, -2.28238874e-04, -1.47212518e-03, -1.70902454e-03,
       1.13824278e-03, 1.52371149e-03, 1.09816471e-03, 3.74244933e-04,
       -1.59484940e-03, -1.72896765e-03, -1.20751280e-03,
       -9.86348139e-04, -1.34329032e-03, 9.85733233e-04, 1.00681593e-03,
       -7.87616824e-04, -3.64488369e-05, 6.79649354e-04, 1.29558815e-04,
       -2.05890421e-04, -8.43602000e-04, -1.29373034e-03, 1.62916095e-03,
       1.09878357e-03, -1.73870544e-03, -1.02990645e-03, -2.08804989e-03,
       -2.28162599e-03, -8.59787804e-04, -1.00714061e-03,
       -3.91055655e-05, 2.60023447e-03, 1.47787528e-03, 3.25088564e-04,
       3.51805647e-04, -1.31333794e-03, -1.74314249e-03, -2.05021235e-03,
       -7.55591434e-04, 5.03106334e-04, 8.34623585e-04, -6.21854502e-04,
       -1.23814086e-03, -2.73899874e-04, -1.02420209e-03,
       -1.63141789e-03, -1.08575670e-03, -8.87161645e-04, 2.82888999e-04,
       2.90485239e-03, 2.12986208e-03, -1.10183581e-04, -7.72434112e-04,
       -2.09727301e-03, -2.22492334e-03, -6.64695632e-04,
       -1.95682645e-04, 2.38015247e-03, 1.50605221e-03, 5.09852180e-05,
       1.04968247e-04, -1.25757779e-03, -1.31686544e-03, -1.32234918e-03,
       1.38906029e-03, 9.43944149e-04, 2.05353531e-03, -4.36723320e-04,
       -9.66111606e-04, -9.05395835e-04, 5.55357838e-04, 2.40071720e-04,
       -1.16511970e-03, 4.14341685e-06, -2.83049041e-04, -9.87142441e-04,
       -1.62918982e-03, -1.28649804e-03, -3.53153708e-04, 9.48111701e-05,
       6.05423003e-04, -1.15131680e-03, -6.92257425e-04, -1.95890214e-04,
       -1.17008213e-03, -7.68713187e-04, 6.88386383e-04, 9.59556724e-04,
       -7.18821888e-04, -8.34229577e-04, -1.17697520e-03, 1.87366246e-03,
       1.42802508e-03, 3.46800400e-04, -8.00537178e-04, 1.18257420e-03,
       2.27049389e-03, 1.30823010e-03, 6.39758015e-04, -8.50462995e-04,
       -1.75706591e-04, -2.57754327e-05, -5.72739635e-04,
       -1.84877054e-03, -2.20612576e-03, -6.87515305e-04, 2.49962963e-04,
       7.42477772e-04, 4.50062915e-04, 1.22698816e-03, 2.05004806e-04,
       -1.07106136e-03, -1.91147474e-03, -1.81423838e-03,
       -1.39864453e-03, -9.39777179e-04, 6.33334566e-04, 1.40058470e-03,
       2.97556422e-03, 1.03471742e-03, -5.99565974e-04, -6.85313949e-04,
       -2.47193733e-04, 1.51409535e-03, 1.82400877e-03, 8.98698345e-04,
       1.58957846e-04, -3.17956874e-04, -1.15072653e-04, -4.94621694e-04,
       -1.00533839e-03, 7.67883961e-04, 1.23897847e-03, -1.18488373e-04,
       -5.86333103e-04, -8.79570900e-04, -1.77494294e-04, 5.70015618e-05,
       -3.22352804e-04, 1.31169712e-04, 5.22235874e-04, -7.74307759e-04,
       -9.17458674e-04, -1.26054787e-04, 1.24501850e-04, 9.30140552e-04,
       2.14570202e-03, 1.35612581e-03, -2.26955410e-04, 1.30669074e-03,
       3.36503981e-05, -4.67115926e-04, -9.23839805e-04, -4.73890104e-04,
       -8.55157617e-04, -1.17855670e-03, -9.84649989e-04, 6.11586147e-04,
       7.31538690e-04, 4.59602015e-04, -9.77405463e-04, -1.30497874e-03,
       -8.21115449e-04, -1.81514770e-05, 1.53706397e-03, 1.30994956e-03,
       3.40511207e-04, -8.06622789e-04, -6.54775999e-04, -1.82790612e-03,
       -2.08926690e-03, -1.03926600e-03, -1.65064412e-03,
       -4.34167538e-04, 3.17554164e-04, -1.63192744e-03, -5.00629831e-05,
       9.44390427e-04, 6.94317219e-04, 5.98682906e-04, -8.55512975e-04,
       -8.04376439e-04, -1.70267525e-03, -1.51567929e-03,
       -1.77947083e-03, -9.99876414e-04, -4.51111264e-04,
       -1.46008213e-03, 3.36512271e-03, -5.61305904e-04, 1.01557598e-04,
       -5.52211830e-04, -1.19326659e-03, -5.35437022e-04,
       -6.82166661e-04, 4.38497227e-04, -8.71795812e-04, -7.10203662e-04,
       -1.79458468e-03, -1.92830001e-03, -1.94754417e-03,
       -6.05403795e-04, -8.68298986e-04, -8.04651354e-04,
       -4.21017554e-04, -1.43526972e-03, 3.61628551e-03, -1.08604110e-03,
       -4.40109288e-04, -1.05771970e-03, -5.76329534e-04,
       -1.10569736e-03, 1.30547630e-03, 5.80693944e-04, 1.21404046e-04,
       -2.32713210e-04, -1.04356802e-03, -3.06064612e-04,
       -5.09537524e-04, -1.80654589e-03, -1.76010060e-03,
       -2.21619004e-04, 2.93431134e-04, -5.48108655e-04, -8.81064916e-04,
       -1.67045707e-03, -8.90231226e-04, 7.51199143e-04, -1.02471549e-03,
       7.00010976e-04, 2.38084001e-03, 1.37847965e-03, 1.19823097e-04,
       8.91116288e-05, -3.95024581e-05, -1.28449128e-05, 7.70042709e-04,
       -7.24057551e-04, -9.40937840e-04, 1.79371098e-03, 1.43608067e-03,
       1.68132930e-04, -1.61153046e-04, -4.36341914e-04, -5.58167114e-04,
       1.28201919e-03, -1.24716165e-03, 2.03071831e-04, 9.39753081e-04,
       3.89734196e-04, -7.51451473e-04, -2.13806308e-03, -2.21984857e-03,
       -1.76419551e-03, 8.11342616e-04, 3.13828728e-04, 3.02982004e-03,
       2.95429933e-03, 1.15498365e-03, -7.30690314e-04, -9.84932296e-04,
       -1.09622581e-03, -1.60818838e-03, -1.12464803e-03, 5.19992842e-04,
       -8.73903336e-04, 1.10933033e-03, 1.07585313e-03, 2.52901693e-04,
       -1.43136829e-03, -9.83654405e-04, -1.90324476e-03, 2.94812315e-04,
       -8.83197936e-04, 4.15442424e-04, 9.66508756e-04, 5.97108155e-04,
       2.42136048e-05, -2.76064413e-04, -7.12824520e-04, -1.40042580e-03,
       -9.12031624e-04, -1.65183956e-04, 3.28041101e-03, 3.83609929e-03,
       1.73283764e-03, -8.08793062e-04, -6.57845289e-04, -2.18505040e-03,
       -1.13843102e-03, -9.82957659e-04, 2.37891494e-04, 3.20307002e-03,
       2.79832748e-03, 2.31671191e-04, -2.82392488e-04, -1.27083156e-03,
       -2.23316788e-03, -1.93836947e-03, -2.14420492e-03, 2.22243223e-04,
       1.62495751e-04, 1.04433717e-03, 2.61766050e-04, -2.50232144e-04,
       1.33317395e-03, -6.44338375e-04, -1.26800186e-03, -9.60581354e-04,
       -3.01017833e-04, 1.86779501e-03, 7.00531164e-05, -2.03901349e-04,
       -6.54312957e-04, -1.29381299e-03, -1.69893587e-03,
       -2.50450103e-03, -2.47505424e-03, -1.95475819e-04, 3.48264189e-03,
       1.32107141e-03, 4.47695696e-04, 1.34917942e-03, -1.90825755e-04,
       -7.85182638e-04, -1.09326374e-03, -5.98254206e-04, 7.01920595e-04,
       3.19597218e-03, 1.73813105e-03, -1.87199272e-04, -3.97759686e-05,
       -1.67136628e-03, -1.05306564e-03, -1.83372851e-03,
       -1.28882844e-03, 1.33949285e-03, 2.28217803e-03, 1.86429475e-04,
       -2.20748116e-04, -2.54725688e-04, -7.09676475e-04,
       -1.29761430e-03, -1.69524853e-03, -1.90869707e-03, 3.81454389e-04,
       6.83951366e-04, -9.01994703e-04, -7.85337412e-04, -6.15764700e-04,
       -1.43521081e-03, -1.60420430e-03, -8.61974782e-04,
       -1.55390915e-03, -1.22514460e-03, 2.93183257e-03, 2.35223328e-04,
       -4.94402950e-04, -3.74393159e-04, -6.72183232e-04,
       -2.35691448e-04, -1.17038039e-03, -7.11402099e-04, 7.74735527e-04,
       2.16124649e-03, 1.13361445e-03, -3.65251530e-04, -1.00465790e-04,
       -1.89288330e-04, 1.87186073e-04, -4.24404454e-04, 1.37896990e-04,
       1.35998148e-03, 2.73898389e-04, -1.36707863e-03, -1.09589996e-03,
       -8.24078452e-04, -1.33846980e-03, -9.05871682e-04,
       -5.13583596e-04, -8.61000270e-04, -1.67946820e-03,
       -2.85374961e-04, -1.07949565e-03, -9.50001529e-04,
       -7.56089401e-04, -9.92520945e-04, 4.66503960e-04, -4.75615554e-04,
       -1.39416778e-03, -1.30519853e-03, 1.32801651e-03, 2.97377910e-03,
       2.46256473e-04, 1.96676137e-05, -3.21378175e-05, -2.64597693e-05,
       -1.08159409e-04, -1.76442045e-04, -1.59167350e-04, 1.32801651e-03,
       2.87768594e-03, 7.37950904e-04, 3.08386807e-04, 3.84475221e-04,
       2.45110161e-04, 3.25190282e-04, -2.63743248e-04, -1.94661319e-04,
       -1.26480684e-03, -7.08073727e-04, -3.92321002e-04,
       -5.59839711e-04, -4.61126067e-04, 4.92238963e-04, -1.42465607e-04,
       -2.34939507e-03, -2.01783725e-03, -5.55173610e-04,
       -1.59919169e-03, -5.32734957e-05, -1.98815396e-04, 1.29248350e-04,
       3.61159822e-04, 3.28741444e-04, -1.51962042e-03, -1.65426219e-03,
       1.18550484e-03, 1.86590909e-03, 4.15245915e-04, 2.10124897e-04,
       3.61137558e-04, 3.26309586e-04, 4.85622732e-04, 1.44576363e-04,
       -1.38830359e-03, 1.18550484e-03, 2.90873181e-03, 1.21379236e-03,
       4.49200510e-04, 6.09123730e-04, 7.49543018e-04, 1.33487151e-03,
       6.65738306e-04, -9.32504074e-04, -1.83033501e-03, -2.56182370e-03,
       -2.33418657e-04, 4.27814011e-05, 4.42565477e-04, 7.05227838e-04,
       6.62637001e-04, -1.89734099e-04, -2.24382686e-03, -2.40615243e-03,
       -2.61806464e-03, -4.60944575e-04, 4.22757497e-04, 8.60867905e-04,
       1.19867828e-03, 1.36190094e-03, 1.19269232e-03, -1.32886530e-03,
       6.75329240e-04, 1.59555615e-03, 1.19108276e-03, 3.23502929e-04,
       8.69965006e-04, 6.23374828e-04, 1.28511665e-03, 1.05314703e-05,
       -3.15380399e-04, 6.75329240e-04, 1.14772329e-03, -1.59732022e-04,
       -6.75559277e-04, 1.14630838e-03, 1.65426044e-03, 1.10424904e-03,
       5.12594008e-04, -3.91917682e-04, -1.89698255e-03, -2.22033262e-03,
       -4.82811854e-04, -3.39209655e-05, 4.39741067e-04, 4.89637896e-04,
       7.28558283e-04, 1.84693708e-04, 1.21207537e-04, -1.04133715e-03,
       -1.96710508e-03, -2.40033655e-03, -2.51478353e-03,
       -9.59174591e-04, 3.30238981e-04, 4.54368856e-04, -3.00500978e-04,
       6.75329240e-04, 9.48729983e-04, -7.49376719e-04, -2.20261887e-03,
       -1.70829764e-03, 1.28238506e-04, 6.12779811e-04, 4.09379310e-04,
       8.56422354e-04, 8.79577827e-04, 1.73680717e-03, -7.85906450e-04,
       -2.33158609e-03, -1.68490363e-03, -1.59237464e-03,
       -1.50938379e-03, -2.63096008e-04, 1.55836489e-04, 2.62588332e-03,
       1.33223366e-03, -1.35957962e-03, -2.37773708e-03, -2.33696541e-03,
       -1.28163816e-03, -6.04264060e-05, -7.37114242e-05, 3.74743482e-04,
       2.02167919e-03, 1.90091832e-03, -2.02174779e-04, -2.23187520e-03,
       -2.28717551e-03, -2.36548926e-03, -1.18125777e-03,
       -7.44339835e-04, 1.56504437e-04, 2.57885410e-03, 2.17001280e-03,
       1.02178636e-03, -5.42709837e-04, -1.84273929e-03, -2.26249499e-03,
       -1.51716685e-03, -2.94275553e-04, -2.43228220e-04, 1.23498414e-03,
       1.75295782e-03, 1.26705167e-03, 7.03438534e-04, -1.83205784e-03,
       -2.18826625e-03, -1.17580441e-03, -1.09608845e-05,
       -4.54578723e-04, 3.07744376e-05, 2.15520291e-03, 1.91065762e-03,
       -1.20133278e-03, -2.49952404e-03, -2.47201300e-03,
       -1.57296855e-03, -1.16138894e-03, -6.18774386e-04, 8.30112898e-04,
       1.90991815e-03, 1.46500696e-03, -1.66209112e-03, -2.35524075e-03,
       -2.46526115e-03, -1.00239809e-03, -8.89614399e-04,
       -8.24358722e-04, -7.52384221e-05, -2.86791037e-04, 1.20250916e-03,
       1.20250916e-03, -8.48483294e-04, -1.87471311e-03, -1.31576648e-03,
       -2.17649867e-04, -8.83758417e-04, -2.21589304e-04,
       -3.18636303e-04, 1.90884108e-03, 1.85584486e-03, 1.72153857e-04,
       -4.52374516e-04, -9.25734988e-04, -5.66359435e-04,
       -5.88498719e-04, -3.09602998e-04, 9.87518462e-04, 1.20250916e-03,
       -8.27667420e-04, -1.69026176e-03, -1.56895095e-03,
       -8.07918317e-04, -5.89497737e-04, -7.57579925e-04,
       -4.44945617e-04, -1.23375398e-03, -3.58879857e-04,
       -3.02649947e-04, -1.22542013e-04, -3.04335234e-04,
       -3.65252286e-04, -1.78587434e-05, -1.82103962e-04,
       -1.27968122e-03, 2.30215483e-05, 8.72422766e-04, 1.35079550e-03,
       8.41168920e-04, 2.45135132e-04, 3.04117246e-04, 6.37139019e-04,
       1.03616482e-03, 3.91110691e-04, -6.91050431e-04, 4.86493693e-04,
       6.24343927e-04, -7.67082674e-04, -7.10808497e-04, -1.22848828e-03,
       5.38856781e-04, 2.17282330e-04, -8.01934293e-05, -1.26232672e-03,
       -4.70354425e-04, -6.41989056e-04, -1.07484532e-03,
       -2.10354658e-04, -2.35242696e-04, 1.73709425e-03, 2.46556895e-03,
       -3.94452509e-04, -9.49111884e-04, -1.01612974e-03,
       -2.28929636e-03, -2.37909402e-03, -2.13063578e-03,
       -1.69284653e-03, 1.21428852e-03, 7.84941018e-04, -1.07014831e-03,
       6.94237358e-04, 9.22482752e-04, 6.58188481e-04, -1.69522988e-04,
       -8.99257953e-04, -1.09146407e-03, -4.29719687e-04, 6.11694762e-04,
       4.09289758e-04, 5.06818760e-04, -3.04134039e-04, -9.41613165e-04,
       -5.84605034e-04, -1.87274767e-03, -1.34421652e-03,
       -1.67034345e-03, -5.83860325e-04, -8.35131388e-04, 2.07582954e-03,
       1.15853292e-03, -4.94732463e-04, -2.55635125e-04, -1.18260249e-03,
       -1.31903752e-03, -8.91944102e-04, -4.05387516e-04,
       -8.42144014e-04, 2.72914325e-03, 2.75390944e-03, -3.23194108e-04,
       -2.50561541e-04, -1.69808615e-03, -1.47775013e-03,
       -2.20584846e-03, -1.79543498e-03, -1.24670658e-03, 1.55181442e-05,
       -1.01860031e-03, -1.20629102e-03, -1.14169391e-03,
       -1.82942359e-03, -2.46018684e-03, -2.20379652e-03,
       -2.19067116e-03, -1.42271817e-03, 3.31560936e-04, 1.40640361e-03,
       6.89131150e-04, -1.11305236e-03, 3.68516310e-04, -1.71136786e-03,
       -1.01212133e-03, -8.79229221e-04, -2.30414789e-05, 2.00315821e-03,
       1.44440378e-03, -6.57519849e-04, -1.01609458e-03, -1.61306502e-03,
       -1.69127202e-03, -1.82322040e-03, -1.91152340e-03,
       -7.18317344e-04, 1.74654135e-03, 4.87970980e-03, 2.51280540e-03,
       -6.09773328e-04, -8.13143502e-04, -1.46077725e-03,
       -1.00463675e-03, -4.97619505e-04, 3.90950590e-04, 1.29299436e-03,
       4.04549623e-03, 1.39558630e-03, 9.92071364e-05, 2.53111037e-04,
       3.91954440e-04, 2.67740368e-04, 1.42847060e-03, 7.72619562e-04,
       1.04564424e-05, 3.82816372e-03, 2.11704616e-03, 4.97997680e-04,
       4.01150930e-04, 3.28699134e-05, 3.09640927e-05, 6.49228314e-05,
       -1.85294042e-03, -2.20231898e-03, -8.33295577e-04, 2.66487150e-05,
       -5.42590387e-05, 6.46675471e-04, 2.59754132e-04, -1.88159938e-05,
       -1.17228925e-03, -2.10863119e-03, -2.72289594e-03,
       -1.62102189e-03, -5.17757086e-04, -8.98324361e-05, 4.91813524e-04,
       -7.35625435e-05, -9.46471817e-04, -1.69048191e-03,
       -2.99297506e-03, 6.73671486e-04, 4.27987659e-03, 2.72734556e-03,
       1.14691781e-03, 1.47904863e-03, 2.54152164e-05, -3.39781509e-05,
       -4.39584262e-08, -5.72588877e-04, -1.39229451e-04, 1.23526412e-03,
       1.29566097e-03, 5.20682195e-04, 3.24238348e-03, -1.91971369e-04,
       -4.84164455e-04, -7.55563902e-04, -1.01729238e-03,
       -2.24849489e-03, -1.70043821e-03, -8.19865265e-04,
       -3.82274942e-04, 7.15716276e-04, -6.49773923e-04, -1.35653198e-03,
       -2.52158009e-03, -2.47539650e-03, -2.66401982e-03,
       -6.06129121e-04, -9.25632950e-04, -1.42090232e-03, 1.68640679e-03,
       -1.38295721e-03, -2.53403024e-03, -2.83301226e-03,
       -2.80873245e-03, -1.86003745e-05, 6.38722267e-04, 3.52150935e-04,
       1.98904687e-04, 3.86303547e-03, -1.17791446e-04, -1.06431288e-03,
       -1.15230982e-03, -7.92197417e-04, 1.64223637e-03, 6.78235432e-04,
       -9.06487228e-04, -6.61002647e-04, -1.78134287e-04,
       -7.53126631e-04, -1.39026192e-03, -1.43059960e-03, 5.75820341e-05,
       -1.00656960e-03, 1.24128463e-04, -2.02257186e-04, -8.84132693e-04,
       2.93911854e-03, -1.27268839e-03, -2.25118292e-03, -2.41887802e-03,
       -2.68096523e-03, -1.63200908e-04, 1.64386773e-04, -9.04376793e-05,
       -4.44578385e-04, 5.26387710e-04, -1.40819931e-03, -9.54979972e-04,
       -8.86430382e-04, -7.18160300e-04, 1.49348401e-03, 1.03031518e-03,
       -1.67577271e-03, -7.70077051e-04, -1.72927379e-04,
       -9.76951909e-04, -1.06393323e-04, -6.07212656e-04, 3.93937167e-04,
       -1.09196827e-03, -4.94659937e-04, -1.08934368e-03,
       -3.14060162e-04, 1.59965339e-03, 6.00061845e-04, 1.02551072e-03,
       -6.66979235e-04, -1.95179530e-03, 1.05607469e-04, 7.96994485e-04,
       -2.90680677e-04, -6.23693631e-04, -8.34432372e-04,
       -1.11926044e-03, 2.81917164e-04, 2.57400796e-04, -6.30850336e-05,
       -9.53247712e-04, 3.44193722e-05, -8.72850884e-04, 8.37176573e-04,
       1.65378442e-03, 1.17791060e-03, -9.30704176e-04, -6.84448984e-04,
       -1.04634720e-03, -9.42684477e-04, -6.32402720e-04,
       -2.72751902e-04, 7.82495772e-05, 7.06133083e-04, 7.42346223e-04,
       2.74153805e-04, -8.75742408e-04, -1.73631276e-03, -1.24057499e-03,
       -7.26276659e-04, -3.17729224e-04, -5.84772322e-04,
       -6.13541226e-04, 1.20459171e-03, 1.20637263e-03, -2.35323605e-04,
       -1.52676739e-03, -4.85238706e-04, -3.90345929e-04,
       -4.81066490e-05, 5.25431649e-04, 2.11316557e-03, 9.64415958e-04,
       -9.28598514e-04, -1.08861993e-03, -7.30378088e-04,
       -2.01288098e-03, -9.11983661e-04, -3.47541092e-04,
       -7.82891933e-04, 6.66000939e-04, -8.18897795e-04, 1.63366349e-04,
       5.85335947e-04, -1.34789851e-03, -1.58198399e-03, -7.69421400e-04,
       -3.74606694e-04, -6.32491545e-04, -4.22741257e-04, 1.32540753e-03,
       2.02342402e-03, 2.89139600e-04, -9.70500289e-04, -7.52433552e-04,
       -1.30670506e-03, -2.16793720e-04, -4.41571668e-04, 2.62201589e-04,
       5.92531520e-04, 1.80835498e-03, 9.28611029e-04, -3.14145087e-04,
       -1.96760544e-03, -1.02134328e-03, -3.52860050e-04,
       -7.00757082e-04, 4.43871570e-04, -3.89892113e-04, 7.38198461e-04,
       7.22081983e-04, -1.25183444e-03, -1.53489131e-03, -1.16486638e-03,
       1.10871944e-04, -3.06594535e-04, 2.32689228e-04, -5.51518424e-05,
       2.14249222e-03, 2.48696585e-03, -9.39054065e-04, -2.90090847e-03,
       -1.89363956e-03, -5.74417238e-04, -2.84087815e-04, 3.10055184e-05,
       7.85319891e-04, 1.59294577e-03, 1.50589843e-03, -1.66616763e-03,
       -2.15867767e-03, -1.32490310e-03, -4.81919735e-04, 1.57482918e-05,
       1.20682751e-04, 1.25227217e-03, 1.91114482e-03, 3.43921129e-03,
       5.59744833e-04, -2.81194644e-03, -1.07346871e-03, -2.84188223e-04,
       -3.21813364e-04, -3.47669047e-05, 1.78819973e-04, 1.07692322e-03,
       1.92729617e-03, -2.24112812e-03, -1.45828759e-03, -5.11961640e-04,
       -1.23212769e-04, -7.08421649e-05, 9.52745977e-05, 3.90495639e-04,
       9.20227496e-04, 2.82875495e-03, -4.76236048e-04, -1.24698435e-03,
       -9.38528625e-04, -3.41225386e-04, -1.82211515e-04,
       -1.50785316e-04, 1.87993850e-04, 4.63531964e-04, 1.38416293e-03,
       1.35666016e-03, -2.54244369e-04, -9.97021561e-04, -2.01044721e-03,
       -1.78935577e-03, -1.04816002e-03, -5.40958776e-04, 4.54406436e-05,
       1.01042201e-03, 1.35666016e-03, -6.33539108e-04, -3.39618593e-04,
       4.43566787e-05, -3.89590678e-05, -3.35955177e-04, -2.78798871e-06,
       2.67129770e-04, 6.72234106e-04, -3.82484490e-04, -6.74317183e-04,
       -1.18785887e-03, -7.78140966e-04, -1.25237729e-03,
       -1.88548525e-03, -7.10141670e-04, -3.80600890e-04,
       -1.04732817e-06, 1.35666016e-03, 1.82512263e-03, 3.49540409e-04,
       -2.05181679e-03, -2.12837313e-03, -1.46260241e-03,
       -8.86142021e-04, -7.99162546e-04, -2.76123581e-04, 2.24616402e-03,
       2.68762303e-03, 2.35030474e-03, -7.62229785e-04, -1.84540916e-03,
       -2.14225380e-03, -1.55346154e-03, -1.57550676e-03,
       -8.64336907e-04, 3.26043519e-04, 5.09627920e-04, -4.09267028e-04,
       -9.06655972e-04, -1.79072761e-03, -2.26122560e-03,
       -1.37353770e-03, -1.17903179e-03, -8.66018061e-04, 1.52425934e-03,
       2.30340217e-03, 1.71169336e-03, -1.04109885e-03, -1.39880995e-03,
       -2.14117696e-03, -2.26191641e-03, -2.26559583e-03,
       -1.97088113e-03, -7.18006515e-04, 3.31555959e-03, 3.42064421e-03,
       -6.36382319e-04, -1.92368217e-03, -1.92314317e-03,
       -1.51804951e-03, -1.84491056e-03, -1.03772455e-03,
       -5.62461675e-04, 3.40614305e-03, 1.91369536e-03, -1.18929043e-03,
       -1.60417298e-03, -1.74524134e-03, -9.71251284e-04,
       -1.44324324e-03, -7.84069649e-04, 7.92515639e-04, 2.05191947e-03,
       2.27672956e-03, -9.96979186e-04, -1.26384385e-03, -2.14432832e-03,
       -2.33805156e-03, -2.36171018e-03, -2.25932896e-03,
       -1.42796664e-03, 1.60025631e-03, 4.02601843e-04, -4.80038289e-04,
       -6.44228363e-04, -1.84522138e-03, -1.33848051e-03,
       -2.02804315e-03, -1.44731742e-03, 5.08959289e-04, 3.51672224e-03,
       4.13862610e-04, -5.37897227e-04, -7.51156942e-04, -1.08747627e-03,
       -8.02082242e-04, -7.13467773e-04, -2.71851197e-04, 1.23482046e-03,
       -1.56126218e-03, -1.69089693e-03, -5.14087093e-04, 2.60931760e-04,
       8.69779673e-04, 7.37572147e-04, 1.24012225e-03, 4.25595208e-04,
       -1.42688770e-03, 9.75703762e-04, -1.25325669e-03, -7.61591480e-04,
       -8.88122187e-04, -1.26519823e-03, -1.04637141e-03,
       -8.18504719e-04, -6.23424596e-04, 1.21996447e-03, -1.58185046e-03,
       -2.54812860e-03, -1.87909033e-03, -1.25602540e-03,
       -5.68058349e-05, 4.12565103e-04, 1.38632033e-03, 1.20544422e-03,
       1.72184409e-05, -2.07725237e-03, -1.24703697e-03, -4.52158245e-04,
       -8.65949492e-04, 4.83819429e-04, 2.14918444e-04, 1.69446261e-03,
       9.66411550e-04, -6.87036722e-04, -2.05523815e-04, -5.01122151e-04,
       -1.03760976e-03, -2.50325119e-03, -2.16598692e-03,
       -1.59601879e-03, 9.09107563e-04, 8.62502027e-04, 3.07774550e-04,
       -7.44628313e-04, -2.49981461e-03, -1.19367335e-03,
       -1.26654562e-03, -9.34429234e-04, -4.51756059e-04, 6.16543344e-04,
       1.22827862e-03, 1.39890471e-03, 2.46026390e-03, -1.62188895e-03,
       -8.62600689e-04, -2.54601729e-03, -2.35769968e-03,
       -2.48086802e-03, -8.13598162e-04, 4.88964470e-05, 3.78304417e-03,
       6.24625827e-04, 6.52767703e-05, -8.65544484e-04, -1.70388480e-03,
       -2.14529806e-03, -2.28854315e-03, -1.18898158e-03,
       -8.91910284e-04, -8.23411741e-04, 6.51575625e-04, 1.54310802e-03,
       2.14223866e-04, -8.87359027e-04, -1.88857678e-03, -1.57105713e-03,
       -1.61881605e-03, -1.52200623e-03, -6.73473463e-04, 2.82546110e-03,
       2.65477982e-04, -9.34469717e-05, -2.30189343e-03, -2.24295352e-03,
       -2.44206865e-03, -1.21754792e-03, -6.52498042e-04, 2.19448842e-03,
       2.08195252e-03, 2.46420666e-03, 7.54571753e-04, -1.46486214e-03,
       -1.56330212e-03, -1.75955077e-03, -9.04205197e-04,
       -4.47114347e-04, 5.30213118e-04, 1.49910891e-04, 6.00700674e-04,
       -6.94969902e-04, -1.79597375e-03, -1.20060833e-03,
       -1.45953579e-03, -1.10972044e-03, -1.25541654e-03,
       -2.33741099e-04, 7.32541550e-04, 2.08505709e-03, 1.49648683e-03,
       2.41420275e-04, -6.61600323e-04, -2.42514187e-03, -1.23702351e-03,
       -5.91244490e-04, 1.74870002e-04, 1.06875657e-03, 1.08758593e-03,
       -5.74225909e-04, -2.24159285e-03, -2.13818718e-03,
       -2.02088710e-03, -8.53201607e-04, -2.61763344e-04, 5.64948481e-04,
       1.14982319e-03, 1.66733807e-03, 1.79312122e-03, -5.31914848e-05,
       -1.71159138e-03, -2.20772903e-03, -8.42376088e-04,
       -4.17753268e-04, 4.66854020e-04, -2.64305761e-03, -5.79386775e-04,
       1.17503793e-03, 1.29091972e-03, 5.15881507e-03, 3.43595981e-04,
       3.70374910e-04, -9.11667939e-06, -2.49308068e-03, -3.15823662e-03,
       -1.68659922e-03, -2.98351952e-04, 3.41654668e-04, 2.55866465e-03,
       -1.18705837e-04, -8.11870734e-04, -9.94947855e-04,
       -3.15143913e-03, -2.85145827e-03, -3.29570554e-04, 3.92320595e-04,
       7.71540435e-05, 6.39544660e-03, -6.58755089e-05, -9.18404039e-05,
       8.61906665e-05, -2.71811616e-03, -3.19437194e-03, -1.13499584e-03,
       -1.23557504e-04, -2.47595861e-04, 1.42046693e-03, -5.90297976e-04,
       -6.03616238e-04, -3.96408228e-04, -3.19680851e-03,
       -2.91445944e-03, -1.16532948e-03, -6.48056099e-04,
       -3.82500613e-04, 1.55536539e-03, -7.31489330e-04, -9.29567788e-04,
       -1.29004149e-03, -2.91445944e-03, -2.55454611e-03,
       -9.63619794e-04, -9.32338182e-04, -1.11357926e-03, 4.68185917e-03,
       -6.97254320e-04, -9.83825303e-04, -2.14645988e-03,
       -2.83877505e-03, -2.91445944e-03, -1.18882745e-03,
       -2.51745776e-04, -3.09297116e-04, 1.61620101e-03, -5.56684041e-04,
       -6.94389106e-04, -4.60277835e-04, -2.91445944e-03,
       -2.91445944e-03, -1.19391142e-03, -4.58435679e-04,
       -5.65177179e-04, 5.85149834e-03, -3.21684260e-04, -3.95521434e-04,
       -1.16233784e-03, -2.86831520e-03, -1.69567112e-03,
       -6.48633752e-04, -5.91916789e-04, -9.92159825e-04, 1.43303629e-03,
       -8.99307255e-04, -1.08145911e-03, -1.81742874e-03,
       -1.98743772e-03, -3.51672294e-04, -1.85132900e-04, 4.42410470e-04,
       -3.54184449e-04, 9.22458596e-04, -6.73461705e-04, 1.71676277e-06,
       -2.13424864e-04, -3.24502849e-04, -2.73368694e-03,
       -1.00549532e-03, -3.85161751e-04, -6.66730339e-04, 3.56083689e-03,
       -7.14768597e-04, -4.83525102e-04, -2.14423030e-03,
       -2.65118922e-03, -1.93278934e-03, -4.42110380e-04,
       -2.47424468e-05, -7.86521356e-04, 4.74309409e-03, -1.00312731e-03,
       -1.19552005e-03, -2.12775334e-03, -2.59145279e-03,
       -1.99080183e-04, 4.15320479e-04, 1.40008307e-03, -1.84832184e-04,
       -5.85321046e-04, -2.03212234e-03, -1.83554995e-03,
       -6.64454536e-04, -1.35783455e-04, -1.14102778e-03,
       -1.34897535e-04, 7.76303117e-04, 1.40765111e-03, 1.17184524e-03,
       -1.21033762e-03, -1.88862276e-03, -1.74527592e-03,
       -8.54280603e-04, -4.78847389e-04, -1.11584872e-04, 8.28377888e-05,
       -4.35463677e-04, 4.01912117e-03, -1.56583067e-03, -2.21850607e-03,
       -2.03634729e-03, -1.30159408e-03, -1.29637774e-03,
       -8.65862705e-04, -6.71542599e-04, -7.86426186e-04, 5.37786726e-03,
       -1.69928907e-03, -1.93804724e-03, -2.39159027e-03,
       -1.59106613e-03, -5.58121654e-04, -8.15647072e-04,
       -1.99574759e-04, -4.33944915e-05, 2.56214105e-03, -3.77907447e-04,
       -1.39359583e-03, -5.73352329e-04, -4.89265542e-04,
       -1.44539820e-03, -1.37419882e-03, -1.09660358e-03,
       -2.22422113e-03, 2.08548130e-03, -1.22679013e-03, -9.36808123e-04,
       -5.34494524e-04, -1.81815866e-03, -1.14894076e-03,
       -1.33774499e-03, -1.15173124e-03, -1.59811508e-03, 5.05109318e-03,
       -9.34537558e-04, -1.52779534e-03, -1.58152345e-03,
       -1.04935968e-03, -1.58024603e-03, -1.91682437e-03,
       -1.66832411e-03, -2.15744996e-03, 3.85267497e-03, -1.15124229e-03,
       -1.37923053e-03, -1.48400734e-03, -2.14637560e-03,
       -2.01109680e-03, -9.37603647e-04, -5.84952068e-04,
       -1.16490899e-03, 1.93736888e-03, -7.27001752e-04, -3.83729639e-04,
       3.04299581e-04, -1.80136529e-03, -1.61889452e-03, -5.87175717e-04,
       4.71970212e-04, -9.38849698e-05, 8.83301371e-04, -1.84694305e-04,
       1.73865957e-03, 1.93081633e-03, -1.36513822e-03, -2.12790049e-03,
       -1.37279416e-03, -7.80703733e-04, -2.43025133e-03, 4.57873149e-03,
       -9.89995548e-04, -6.94935792e-04, -6.86424784e-04,
       -2.17336020e-03, -1.82413403e-03, -1.27729611e-03,
       -1.25260878e-04, -4.01559140e-04, 1.87365501e-03, -4.50774067e-04,
       1.49076420e-03, 4.34894871e-04, -1.79526943e-03, -2.17248523e-03,
       -8.38014064e-04, 1.66817641e-04, -2.03058240e-04, 1.20636984e-03,
       1.97413625e-04, 2.20259815e-03, 2.30577146e-03, -1.75533537e-03,
       4.66498430e-04, -9.45748587e-04, 3.13309138e-04, 3.01867440e-05,
       1.11414364e-03, 8.46902840e-05, 1.26729195e-03, 1.90048444e-03,
       6.55071461e-04, -1.97494682e-03, -1.44449889e-03, 2.42684041e-06,
       -1.96170746e-04, 8.35421786e-04, -3.11650692e-05, 1.92077365e-03,
       1.45912622e-04, -1.93772779e-03, 8.24400806e-04, -2.06923787e-03,
       4.40052718e-05, -2.45843054e-04, 4.19647986e-05, -7.36490590e-04,
       -2.94327736e-04, -1.23552408e-03, 7.34051166e-04, 5.14574058e-04,
       -3.81363410e-04, 2.21266993e-04, 1.27810144e-05, 1.45383252e-04,
       7.20357493e-05, 1.17645337e-04, -1.93446351e-04, 2.02017720e-04,
       1.57422572e-03, -5.65855997e-04, -1.48008723e-04, -6.30709110e-04,
       -1.20509230e-03, -4.06673120e-04, -7.70514191e-04,
       -1.05961191e-03, 2.27944041e-03, 1.34879650e-04, -1.82993035e-03,
       -6.37664052e-04, -4.57012298e-04, -3.93043825e-04,
       -8.14014697e-04, -1.58193801e-03, -2.40606908e-03, 2.97585138e-05,
       6.49682013e-04, -1.33758551e-03, -7.29611085e-04, -8.47100862e-04,
       -8.04170792e-04, -7.86306802e-04, -2.63405708e-03,
       -2.59996695e-03, 7.59939838e-04, 2.43258779e-03, -5.62267611e-04,
       -4.95409768e-04, -1.24553102e-03, -2.30841385e-03,
       -1.21157721e-03, -1.41219725e-03, -1.16069720e-03, 2.76173139e-03,
       3.74876801e-03, 4.53772984e-04, -1.39184052e-03, -1.83709140e-03,
       -2.31065578e-03, -1.99398538e-03, -1.35412754e-03,
       -1.50292634e-03, 1.36427721e-03, 1.12509564e-03, -8.25134048e-04,
       -7.72599771e-04, -1.59530377e-03, -2.12173234e-03,
       -1.17993203e-03, -2.30919430e-03, -2.19712872e-03, 1.16587733e-03,
       1.51026784e-03, -9.25201573e-04, -1.64730416e-03, -2.31065578e-03,
       -2.30507925e-03, -2.31065578e-03, -1.50482054e-03,
       -1.88895140e-03, 1.10257277e-03, 3.78781673e-03, 1.72700966e-03,
       -1.24002865e-03, -1.75158435e-03, -1.97552727e-03,
       -2.01482046e-03, -1.48632494e-03, -1.79636118e-03, 1.05889840e-03,
       2.32670479e-03, -2.27812969e-04, -6.14404038e-04, -7.59905728e-04,
       -6.34222990e-04, -8.78666586e-04, -1.20363687e-03,
       -1.37771387e-03, 1.22541445e-03, 1.57242711e-03, -1.28306367e-03,
       -1.42872508e-03, -2.30411952e-03, -2.07805866e-03,
       -1.82553183e-03, -9.07691254e-04, -1.86563411e-03, 1.10328908e-03,
       -1.47443265e-04, -2.20485823e-03, -1.71599991e-03,
       -1.52878789e-03, -5.32522157e-04, -3.85763153e-04,
       -4.43483790e-04, -1.25284458e-03, 5.68453979e-04, 1.19125878e-03,
       -1.50747597e-03, -8.69099691e-04, -5.81210596e-04,
       -1.47895516e-05, -6.06862421e-04, -1.70844563e-04, 4.84874705e-04,
       1.50733802e-03, -1.31198321e-04, -2.22686841e-03, -1.38255942e-03,
       -1.26536249e-03, -6.99903234e-04, -8.82094726e-04, 1.14298868e-03,
       3.32535943e-03, 2.42034462e-03, -5.48559299e-04, -2.56313407e-03,
       -1.42055273e-03, -5.56170533e-04, 4.33160807e-04, -9.04966961e-04,
       -3.47579262e-05, -1.00509916e-03, 1.19650367e-05, 3.55722004e-04,
       -1.86892482e-03, -9.85143008e-04, -7.96070555e-04,
       -1.65028416e-03, -2.60331575e-03, 4.78907677e-05, -1.35655724e-03,
       4.54533700e-04, 3.25715082e-04, -1.73382286e-03, -1.20248809e-03,
       -1.39084843e-03, -1.90665154e-03, -1.78439007e-03,
       -3.43157240e-04, 8.58481159e-04, 1.41849846e-03, 3.41215916e-03,
       -1.26537296e-03, -1.02817139e-03, -2.13217968e-03,
       -1.84507202e-03, -2.24082870e-03, -9.88892629e-04,
       -5.35909378e-04, 3.71961016e-03, -1.54273963e-04, -7.64476776e-04,
       -5.22851944e-04, -1.38302671e-03, -2.09916965e-03,
       -2.40183040e-03, -5.38687687e-04, -1.00118364e-03,
       -6.20818115e-04, 9.99164549e-05, -1.29551312e-03, -1.31859037e-03,
       -1.87856692e-03, -1.34847173e-03, -1.44316710e-03,
       -3.89686291e-04, -4.95564949e-04, 3.56583885e-04, 3.73329828e-03,
       -4.45020502e-04, -1.49167876e-03, -2.61249673e-03,
       -1.58972724e-03, -2.16457923e-03, -9.78553900e-04,
       -7.89767422e-04, 2.90959515e-03, 3.30288592e-03, 2.62197526e-03,
       -2.24564821e-04, -2.13613780e-03, -1.06821302e-03,
       -2.08277092e-03, -8.59371270e-04, -4.75012144e-04, 9.38793586e-04,
       -1.19549783e-04, -1.53116824e-03, -2.42133485e-03,
       -2.65304605e-03, -2.29490572e-03, -9.46551212e-04,
       -4.18903743e-04, -2.48926634e-04, 7.36504095e-04, 4.39843534e-05,
       -1.12653291e-03, -1.11889513e-03, -2.57835025e-03, 1.74177883e-04,
       -2.54700775e-03, -7.95927190e-04, -4.55304398e-04, 1.81072101e-04,
       2.60252063e-03, 2.73992307e-03, -3.49258626e-05, -2.05632555e-03,
       -1.31416472e-03, -2.67499872e-03, -7.13817659e-04,
       -4.09897533e-04, 8.86740512e-04, 1.77984941e-03, 2.62227166e-03,
       1.58923119e-03, -1.24016893e-03, -1.67519902e-03, -2.18856148e-03,
       -5.39608067e-04, -3.58952297e-04, 8.47568968e-04, -3.07795242e-04,
       -1.37023733e-03, -9.95487091e-04, -1.83352665e-03, 1.46937068e-03,
       -2.91538518e-03, -5.99770632e-04, -7.31702079e-04,
       -1.17112344e-04, -3.68806272e-04, -1.99080037e-04,
       -4.99217422e-04, -1.56732602e-03, 8.89493211e-04, -2.91538518e-03,
       -4.91144718e-04, -7.36987393e-04, -7.23848498e-05,
       -2.41550524e-03, -2.10205704e-04, -2.83864883e-05,
       -8.13755789e-04, 3.85697279e-03, -1.79704275e-05, -1.12550930e-04,
       -6.80767233e-04, -2.17414391e-03, -2.27749557e-03,
       -7.89875339e-04, -7.92999635e-04, -9.95123526e-04,
       -1.09170527e-04, -1.37128227e-03, -9.73076909e-04,
       -8.89244780e-04, -2.63494044e-03, -1.54548616e-03,
       -9.30586684e-05, -1.85233555e-04, -2.52099195e-03, 4.72427625e-03,
       -1.13083143e-03, -2.37101398e-04, -4.96424967e-04,
       -1.83006888e-03, -6.22076448e-04, -6.39907201e-04,
       -1.51063874e-03, -2.03710282e-03, 1.83776618e-04, -2.21277564e-03,
       -1.54181279e-03, -1.79380062e-03, -2.02746410e-03,
       -2.63747131e-03, -1.12871092e-03, -9.44540254e-04,
       -7.32292072e-04, 5.75837796e-04, -1.12319575e-03, -1.26168807e-03,
       -8.95654259e-04, -2.63747131e-03, -2.63747131e-03,
       -1.01277616e-03, -5.18176588e-04, -5.20331436e-04, 5.61344437e-03,
       -5.72131190e-04, -1.00522710e-03, -1.32644537e-03,
       -2.63747131e-03, -1.12427503e-03, -1.15777308e-03,
       -1.87469320e-03, -1.46414712e-03, -6.09599520e-04,
       -1.80243375e-03, -1.40419917e-03, -1.72332616e-03,
       -1.59136031e-03, -2.56023114e-03, -1.30044040e-03,
       -1.09610427e-03, -1.70843198e-03, 5.08823711e-03, -1.72812666e-03,
       -1.65150745e-03, -1.55056070e-03, -2.62049004e-03,
       -2.76289415e-03, -4.36565344e-04, 7.08838925e-05, -5.47362943e-05,
       3.96740949e-03, -3.14910314e-04, -7.89142272e-04, -1.41843827e-03,
       -2.76289415e-03, -2.70377239e-03, -5.46861498e-04,
       -3.33989228e-05, -5.03597315e-04, 4.29248624e-03, -1.07519468e-03,
       -1.30121724e-03, -2.51362659e-03, -2.73923529e-03,
       -2.76201661e-03, -9.08922055e-04, -4.38226154e-04,
       -5.10404003e-04, 4.61608963e-03, -1.31570233e-03, -1.63588929e-03,
       -1.13206124e-03, -2.76289415e-03, -2.69353436e-03,
       -1.24654663e-03, -3.49940063e-04, -9.48776607e-04, 4.27373080e-03,
       -1.86894613e-03, -1.89783319e-03, -2.14127684e-03,
       -2.75213993e-03, -9.41645296e-04, -3.97858850e-04,
       -5.78298874e-04, -1.38072646e-03, 2.64963438e-03, -1.54787011e-03,
       -9.79353092e-04, -1.90139632e-03, -1.95552851e-03,
       -1.00540707e-03, -1.01972360e-03, -9.63126135e-04,
       -2.42621894e-03, 3.70982941e-03, -1.06705748e-03, -6.87859778e-04,
       -1.32746354e-03, -9.27256653e-04, -2.01900769e-03,
       -7.08970998e-04, -5.76565682e-04, -2.26751505e-03, 2.19479692e-03,
       -2.34578946e-03, -1.38420647e-03, -2.14352645e-03,
       -1.71096320e-03, -6.04680914e-04, -7.67054735e-04,
       -5.88904135e-04, -2.45621731e-03, 3.16204969e-03, -1.91831216e-03,
       6.56526900e-05, -5.57588472e-04, -4.71103936e-04, -1.34553434e-03,
       -1.58761244e-03, -1.46558438e-03, -2.01447634e-03, 4.19966737e-03,
       -1.49299169e-03, -6.48556917e-04, -1.14119228e-03,
       -1.01351237e-03, -1.77722273e-03, -1.65369688e-03,
       -1.35521218e-03, -2.01117573e-03, 3.42191616e-03, -1.47606630e-03,
       -1.14467961e-03, -1.76523603e-03, -2.07202486e-03,
       -1.04699563e-03, -9.23744927e-04, -6.86252781e-04,
       -2.17596418e-03, 3.09821684e-03, -1.32071727e-03, -1.53487883e-04,
       -8.42297508e-04, -1.10119150e-03, -2.15258147e-03,
       -1.33132236e-03, -6.54663250e-04, -1.96652929e-03, 1.89468300e-03,
       -1.63754798e-03, -9.53088107e-04, -1.26236526e-03,
       -2.13777251e-03, -1.82814570e-03, -1.45061791e-03,
       -1.65105463e-04, -2.39597703e-03, 5.38724102e-03, -1.82026590e-03,
       -5.86644630e-04, -1.30266882e-03, -1.82814570e-03,
       -1.03102589e-03, -1.00633362e-03, -1.13530157e-04,
       -9.57168348e-04, 1.57457823e-03, -8.34682898e-04, 1.57593028e-03,
       7.69318431e-04, -9.01510241e-04, -1.89612515e-03, -1.27282215e-03,
       -6.86844636e-04, -2.43986631e-03, 1.29253382e-03, -2.47644051e-03,
       -1.56642601e-03, -1.10788783e-03, -1.12965610e-03,
       -7.13425630e-04, -8.32920370e-04, -8.02528579e-04,
       -1.10925245e-03, -2.49661796e-04, -1.15613185e-03,
       -4.81866533e-04, -2.77198618e-04, -2.58981745e-04,
       -4.07364510e-04, -1.29036664e-03, -3.29197297e-04,
       -3.83225299e-04, 8.56187427e-04, -2.31233673e-04, 1.53446267e-03,
       4.80106479e-04, -2.20995847e-04, 2.04985030e-03, -1.81396178e-03,
       -2.44872557e-04, -8.42476322e-04, -1.66872142e-05,
       -1.57675566e-03, -1.88554067e-03, -2.12959736e-03, 2.07105908e-03,
       -1.28825672e-03, -1.11779058e-03, -7.79712573e-04,
       -6.47969020e-04, 1.89466972e-03, -4.08953027e-04, -2.15752807e-04,
       -2.92265206e-04, -6.61502942e-04, -7.64961471e-04,
       -8.72788543e-04, -7.69291073e-04, -1.14817242e-03, 1.63533632e-03,
       -6.68509398e-04, -7.94124033e-04, -1.51158986e-03,
       -1.59836863e-03, 1.50441739e-03, -2.04206211e-03, -1.00961013e-03,
       -1.05044898e-03, 9.92570785e-05, -1.29978580e-03, -2.58074957e-03,
       -2.60019465e-03, 2.28040735e-03, 2.77616689e-03, -1.80328719e-03,
       -1.04360410e-03, -2.07118923e-03, -9.20086633e-04,
       -1.36052375e-03, -2.60572042e-03, -2.60572042e-03, 3.00415372e-03,
       -6.94439921e-04, -6.32825133e-04, -6.50827016e-04,
       -1.04054902e-03, 1.74379116e-03, -5.47731761e-04, -7.91138620e-04,
       -8.15495499e-04, -9.65106534e-04, -1.03699043e-04,
       -7.37666036e-04, -9.41977603e-04, -2.60572042e-03, 4.49874700e-04,
       -1.84378680e-03, -1.50514499e-03, -6.32935960e-04, 3.48450529e-04,
       3.52412858e-03, -6.21127663e-04, -6.75924297e-04, -1.78925088e-03,
       -1.71955198e-03, -1.32021843e-03, -2.34959181e-03,
       -1.89168390e-03, 2.79897358e-03, 4.25802637e-03, -5.83637680e-04,
       -1.45756057e-03, -2.31865328e-03, -2.30103964e-03,
       -1.92799931e-03, -2.33707833e-03, -2.34540994e-03, 2.77594407e-03,
       6.55479904e-04, -6.38860802e-04, -5.32792415e-04, -2.29315110e-03,
       -1.33780367e-03, -2.28398829e-03, -1.50985271e-03,
       -9.92698711e-04, 4.67894017e-04, 4.59465460e-04, -7.03324797e-04,
       -9.15109413e-04, -1.56661600e-03, -1.46520440e-03,
       -2.34959181e-03, -2.34959181e-03, -2.22980999e-03,
       -2.50775367e-04, 4.24262416e-03, -1.76603510e-03, -1.84025231e-03,
       -2.40328303e-03, -1.50865805e-03, -1.19748816e-03,
       -1.63145922e-03, -2.40430282e-03, 3.10068368e-03, 1.37396064e-03,
       -2.36597331e-03, -2.21259007e-03, -2.05152947e-03,
       -5.93415643e-05, -2.03876509e-04, -1.00752768e-04,
       -8.04573880e-04, 2.76102847e-03, 3.44240514e-04, -1.39726384e-03,
       -2.26325355e-03, -1.59407826e-03, -1.60014734e-03,
       -1.19436090e-03, -1.53619191e-03, -1.91181211e-03,
       -3.78147670e-04, 9.51100883e-05, -1.51206274e-03, -2.19869078e-03,
       -1.33138662e-03, -1.01018406e-03, -4.08075255e-04,
       -2.79917585e-04, -6.73180970e-04, 2.30186575e-04, 5.21492388e-04,
       -2.84010265e-03, -2.69465381e-03, -1.15151075e-03, 6.61591883e-04,
       -8.21945025e-04, 4.07850952e-04, -1.27520680e-03, 1.60321535e-03,
       2.57859589e-03, -1.60819897e-03, -1.38901966e-03, -7.36680930e-04,
       -1.54927233e-03, -2.60020699e-03, -1.63441146e-04,
       -2.34968099e-03, 2.57859589e-03, 2.22587070e-04, -1.06373627e-03,
       -1.71059812e-03, -1.16109930e-03, -5.00218477e-04,
       -4.87587269e-04, -2.35205604e-04, -6.34462398e-04, 2.62056215e-04,
       9.46380780e-04, -1.43009832e-03, -1.58125162e-03, -8.94983183e-04,
       -9.65271785e-04, -5.20114612e-04, -7.78043352e-04,
       -1.01830589e-03, 7.20165845e-04, 1.37873471e-03, -1.21851545e-03,
       -8.55657679e-04, -1.62546826e-03, -1.98264164e-03,
       -2.35890900e-03, -3.94766917e-04, -1.15264137e-03, 1.18320796e-03,
       2.63289292e-03, -1.46572222e-03, -1.79810112e-03, -2.48496840e-03,
       -1.81823655e-03, -7.85606506e-04, 2.08865138e-04, 3.59517115e-04,
       3.44590540e-03, 2.07076664e-04, -2.29404191e-03, -1.77015399e-03,
       -1.12218503e-03, -1.72442372e-03, -6.49810012e-04,
       -7.75780587e-04, -6.67835120e-04, 4.73173917e-04, 1.98316644e-03,
       -1.08662131e-03, -1.26556354e-03, -2.07043649e-03,
       -2.15004408e-03, -7.11370318e-04, -4.53374785e-04,
       -9.29181260e-05, 2.05633184e-03, 1.55627017e-03, -7.88930163e-04,
       -1.28713762e-03, -3.15370294e-03, -1.55927939e-03,
       -8.75212951e-04, 3.80381207e-05, -1.42445788e-06, 2.20428430e-03,
       1.08116376e-03, -4.22787154e-04, 4.27451625e-04, -2.73446389e-03,
       1.77744776e-03, -2.98609841e-03, 3.80627062e-05, 9.04094395e-06,
       1.14284072e-03, 1.96869159e-03, -1.30843851e-04, -4.12385678e-04,
       -2.16952246e-03, -1.38904667e-03, -1.37211848e-03,
       -6.33816453e-05, 1.23401187e-04, 2.02603731e-03, 2.15069740e-03,
       1.46656984e-03, 1.69421907e-03, -1.66156259e-03, 6.73615956e-04,
       -2.91124196e-03, 2.82415305e-04, 4.01229801e-04, 2.16868008e-03,
       1.71197957e-04, -1.05962600e-03, 6.70358830e-04, -1.16383494e-03,
       2.03212048e-03, -3.04907840e-03, -2.31440135e-04, -2.91389209e-04,
       3.46113840e-04, -6.96435563e-06, -4.99334128e-04, 1.83796728e-04,
       -9.15017154e-04, 1.24239747e-03, -3.04907840e-03, -4.77622816e-04,
       -6.50673232e-04, 3.35717836e-04, 8.24653602e-04, 1.08965952e-03,
       2.34044646e-03, -7.73684529e-04, 2.80404987e-04, -2.52239150e-03,
       -3.67206929e-04, -8.09417470e-05, 1.06999977e-03, 8.87031259e-04,
       -8.12904545e-05, 8.45206960e-04, -1.89272221e-03, -3.81526508e-04,
       -1.69625995e-03, -8.93036835e-04, -3.32568074e-04, 1.72545272e-03,
       1.69601443e-03 ]
