%YAML:1.0
---
HOGdiver96x160: !!opencv-object-detector-hog
   winSize: [ 152, 152 ]
   blockSize: [ 16, 16 ]
   blockStride: [ 8, 8 ]
   cellSize: [ 8, 8 ]
   nbins: 9
   derivAperture: 1
   winSigma: 4.
   histogramNormType: 0
   L2HysThreshold: 2.0000000000000001e-01
   gammaCorrection: 1
   nlevels: 64
   signedGradient: 0
   SVMDetector: [ 1.33096590e-03, 3.92397633e-04, 3.45184776e-06,
       -3.38756363e-05, 8.41499495e-05, -1.26267296e-05, 1.08759254e-04,
       4.60222829e-04, 1.10868970e-03, 1.20717613e-03, -4.22321085e-04,
       -1.12373533e-03, -1.26345060e-03, -1.11521839e-03,
       -3.95639392e-04, -2.61485606e-04, 4.90998791e-04, 1.17425865e-03,
       2.74171820e-03, 6.48781890e-04, 1.84518081e-04, 3.60161619e-04,
       1.25044771e-03, 3.91554204e-04, 7.42713106e-04, 9.49000649e-04,
       2.68538855e-03, 2.58398079e-03, 5.91992284e-04, -3.59491678e-04,
       -1.69107574e-04, 1.10945117e-03, -5.56448591e-04, -8.14105675e-04,
       5.12006693e-04, 2.51439051e-03, 1.05409394e-03, -2.20508664e-04,
       -9.58274875e-04, -1.18741253e-03, -5.78138104e-04,
       -4.00316349e-04, -2.73076119e-04, 1.62611163e-04, 1.20281277e-03,
       1.42617046e-03, -8.71607044e-05, -4.88123449e-04, -1.20748009e-03,
       -7.20923010e-04, -5.38988505e-04, -6.39102014e-04,
       -1.52221066e-04, 1.42667175e-03, 3.04851704e-03, 1.04115519e-03,
       -3.55815311e-04, -4.55380905e-05, 3.73021729e-04, -3.01441731e-04,
       -9.64495994e-04, 4.40603588e-04, 2.98584695e-03, 2.95713125e-03,
       3.34312790e-04, -3.34879500e-04, -1.10137137e-03, -8.73949728e-04,
       -4.25994716e-04, -8.01016577e-04, 1.92398133e-04, 2.80333543e-03,
       1.19015505e-03, -1.06917709e-04, -1.79596333e-04, -6.21098967e-04,
       -5.74680744e-04, -5.64162328e-04, -1.41462102e-03,
       -8.08781188e-04, 1.32309797e-03, 1.04072853e-03, -1.33606736e-05,
       -6.91138266e-05, -8.56410625e-05, -3.17652768e-04,
       -4.25584702e-04, -1.40218134e-03, -1.37604238e-03, 1.68726163e-03,
       3.28346714e-03, -7.24657948e-05, -1.39872456e-04, -4.08811669e-04,
       -3.36392462e-04, -4.29226784e-04, -1.29827042e-03,
       -1.05290930e-03, 3.05747031e-03, 3.38145415e-03, 1.15470801e-04,
       -8.85016270e-05, -1.76052767e-04, -5.84586116e-04,
       -1.27057603e-03, -1.43424759e-03, -1.20810501e-03, 3.23021482e-03,
       8.97446356e-04, 1.56874114e-04, -1.68408460e-05, -4.38545685e-05,
       -2.79333181e-04, -3.44298984e-04, -1.69304200e-03,
       -9.26527136e-04, 1.56015204e-03, 7.96751759e-04, 1.79864481e-04,
       6.94270202e-05, 1.06244834e-05, 8.05240707e-05, 9.55514115e-05,
       2.58740474e-04, 3.04830202e-04, 1.66682259e-03, 3.47761554e-03,
       3.97774158e-04, -8.74921752e-05, -3.86987784e-04, -1.77233224e-03,
       -1.81390182e-03, -1.77409570e-03, -1.63649197e-03, 3.34251416e-03,
       3.52873630e-03, 4.38753574e-04, 4.78642687e-05, -4.88151454e-05,
       -9.06860863e-04, -4.17145435e-04, -3.93787108e-04, 5.83626505e-04,
       3.42274993e-03, -1.82594202e-04, -6.90499146e-05, -2.47567776e-04,
       2.90130702e-04, 5.00595779e-04, 2.83642294e-04, 3.61898346e-05,
       1.15916329e-04, -5.61690722e-05, -2.00505456e-05, 7.56909867e-05,
       -5.04993892e-04, 2.00258521e-03, 1.83755532e-03, 1.70814106e-03,
       5.00586932e-04, 4.73348846e-05, -3.16246907e-04, 1.69313839e-03,
       -8.31941143e-05, -5.66278293e-04, 2.11385457e-04, -8.82587163e-04,
       -3.33320990e-04, -9.76411044e-04, -2.43805087e-04, 2.02087755e-03,
       1.12988451e-03, 1.31211564e-04, -1.17944740e-03, 1.77984731e-03,
       1.15382590e-03, 1.73421914e-03, 4.61487565e-04, 1.69164210e-04,
       6.55042240e-04, -2.86427967e-04, -6.21943182e-05, -7.71411113e-04,
       9.00966988e-04, 1.09333510e-03, 1.02440326e-03, 1.19122073e-04,
       -2.56100375e-05, -4.70324565e-04, 8.17684559e-05, 1.02065664e-04,
       1.74836037e-04, 9.61603597e-04, 2.98351445e-03, 1.27501145e-03,
       1.65748555e-04, 1.44707417e-04, 9.53472409e-05, 5.52802194e-05,
       -1.86455800e-04, -1.65839517e-03, 1.02045061e-03, 3.06101778e-04,
       1.84049783e-03, 9.27373258e-05, -7.30490428e-05, -2.70911347e-04,
       3.36056168e-04, 1.78724062e-04, 2.57721811e-04, 1.62832986e-03,
       2.96432595e-03, 2.07954738e-03, 4.19897609e-04, 2.83312780e-04,
       3.46489251e-04, 4.12426307e-04, 1.53240995e-04, 1.17216601e-04,
       9.30447015e-04, 2.90985149e-03, 1.81827915e-03, 2.38154971e-04,
       2.31747312e-04, 5.27062803e-04, 1.83691533e-04, -2.04406067e-04,
       -2.25977401e-05, -3.87042928e-05, -2.75251397e-04, 1.66309492e-05,
       -8.81970045e-05, -8.97012651e-05, 3.51391995e-04, 1.94388349e-03,
       3.16937658e-04, 1.77795126e-04, 1.11109612e-03, 2.90985149e-03,
       2.33717356e-03, 8.64716771e-04, 9.10307048e-04, 2.51256465e-03,
       1.59620622e-03, -9.05054330e-04, -8.33223457e-04, -8.44552051e-05,
       -1.46236178e-03, -9.07109279e-05, -2.52396509e-04, 4.44142170e-05,
       2.18544528e-03, 6.04252680e-04, 1.30748871e-04, 1.83115291e-04,
       1.22811383e-04, 1.03337842e-03, 2.80348671e-04, 8.42382942e-05,
       7.83175346e-05, 5.61114110e-04, -2.08066820e-04, -4.02167876e-04,
       -6.13933138e-04, -3.62489285e-04, 1.08790654e-03, 5.52882731e-04,
       9.27249275e-05, 2.94262398e-04, 5.23563009e-04, 2.80558341e-03,
       2.03870281e-04, 2.25709358e-04, 5.24817908e-04, 1.18766169e-04,
       3.80800921e-04, 2.13837833e-04, 6.00073079e-04, 2.87260022e-03,
       2.11260421e-03, -3.36867495e-04, -3.89758468e-04, 7.85123339e-05,
       1.15092618e-04, 1.05224585e-03, 6.72399648e-04, 1.57679792e-03,
       2.58363248e-03, -3.98045901e-04, -2.95258651e-04, -4.97640634e-04,
       -4.68088183e-05, -3.14028739e-06, 4.30667016e-04, 1.70524174e-04,
       1.41005075e-04, 7.84899530e-05, 3.17089114e-04, 5.11656341e-04,
       3.40221042e-04, 1.09011144e-03, 1.64593162e-03, 2.67979712e-03,
       2.84823915e-03, 1.50749180e-03, 8.88053502e-04, 3.95933865e-04,
       -5.59012347e-04, -7.95138534e-04, -1.70229876e-04,
       -5.29306068e-04, 3.62706283e-04, 4.19276999e-04, 7.44104909e-04,
       1.27130840e-03, 8.35729763e-04, 3.78948462e-04, 2.97901948e-04,
       5.78338513e-04, -3.13864119e-04, 1.66596740e-03, 2.82052602e-03,
       1.47875340e-03, 9.71766480e-04, -9.49556925e-05, -1.06070761e-03,
       -1.24465209e-03, -2.14215062e-04, -1.08917768e-03, 1.44471799e-03,
       3.10786208e-03, 8.95684760e-04, -4.32269117e-05, 3.47869136e-05,
       2.34920899e-05, 1.82401163e-05, 3.65719425e-05, -5.69121585e-05,
       1.29328552e-03, 3.13964998e-03, 9.69671120e-04, 1.16126015e-04,
       -3.01780208e-04, -3.29934148e-04, -1.00359757e-05,
       -6.19766288e-05, -1.44968869e-03, 9.77179618e-04, 3.03201587e-03,
       7.58828246e-04, -1.90730236e-04, 1.06195133e-04, 3.27032431e-05,
       4.95695458e-05, 5.87909490e-05, 2.94562415e-05, 2.24848650e-03,
       3.13678291e-03, 2.08570552e-03, 1.60457246e-04, -1.01679855e-03,
       1.61741176e-04, 1.77197318e-04, 1.97214205e-04, -1.74466067e-03,
       9.46687884e-04, 3.26912594e-03, 9.09430790e-04, -1.07282121e-03,
       2.93320540e-04, 2.80519278e-04, 2.75420491e-04, 6.67137734e-04,
       1.04651134e-03, 5.94187586e-04, 2.25346696e-04, 2.86153576e-04,
       2.26791672e-04, 8.17801047e-04, 1.07315027e-04, 3.14872683e-04,
       2.12768442e-04, 3.25410423e-04, 2.51305290e-03, 3.62996175e-03,
       3.62996175e-03, 3.56242119e-04, 1.00004242e-03, 3.45132896e-04,
       4.98190988e-04, 6.22124760e-04, 8.65465088e-04, 7.67672784e-04,
       2.34581181e-03, 1.22018578e-03, 6.17397716e-04, 4.11326415e-04,
       3.73711402e-04, 3.21420812e-04, 1.02593121e-03, 1.64161797e-03,
       1.26144115e-03, 4.75228881e-04, 4.08870779e-04, 4.34210669e-04,
       1.13546266e-03, 6.93027454e-04, 1.17231579e-03, 1.16695208e-03,
       2.21076771e-03, 2.29546265e-03, 1.06253871e-03, 6.85423147e-04,
       7.10983353e-04, 9.86609026e-04, 1.13947014e-03, 1.01868482e-03,
       1.27924036e-03, 1.40978664e-03, 6.61331171e-04, 3.89651046e-04,
       7.10268330e-04, 8.74918303e-04, 2.29546265e-03, 2.02257233e-03,
       2.29546265e-03, 2.29546265e-03, 1.58784771e-03, 1.58337748e-03,
       6.42162689e-04, 6.77595497e-04, 1.35273114e-03, 5.06790995e-04,
       2.94668978e-04, 5.91131509e-04, 9.19467362e-04, 2.02420587e-03,
       1.76228536e-03, 4.45098034e-04, 2.91844131e-04, 1.70940577e-04,
       5.56549581e-04, 3.60368198e-04, 3.10518197e-04, 8.88643088e-04,
       2.02420587e-03, 2.02420587e-03, 1.19978457e-03, 7.17344985e-04,
       4.67676145e-04, 2.02420587e-03, 1.41669868e-03, 2.02420587e-03,
       1.61143381e-03, 1.82633835e-03, 1.58569496e-03, 3.85567575e-04,
       6.47845445e-04, 6.35349832e-04, 2.02420587e-03, 1.39604777e-03,
       7.53257598e-04, 1.00088306e-03, 2.02420587e-03, 2.02420587e-03,
       1.00910815e-03, 1.21452485e-03, 9.32113733e-04, 5.67775627e-04,
       6.26824680e-04, 6.07560156e-04, 6.47733745e-04, 1.39620691e-03,
       1.30135322e-03, 1.18333858e-03, 9.16537014e-04, 9.53875249e-04,
       7.22690194e-04, 3.43871623e-04, 9.26228880e-04, 9.66076332e-04,
       -1.00044860e-03, 5.17513661e-04, -2.34839405e-04, 6.77938515e-04,
       9.89280874e-04, 1.02577428e-03, 1.84442685e-03, 1.57128111e-03,
       1.02787151e-03, 1.50782231e-03, 1.59984722e-03, 7.37214868e-04,
       8.85125482e-04, 1.53928716e-03, 1.27521460e-03, 1.70763698e-03,
       1.51436997e-03, 1.87357608e-03, -7.08469597e-04, 5.73372876e-04,
       -1.41418830e-04, -1.86571036e-04, 1.46351568e-03, 2.00691191e-03,
       7.57627829e-04, 7.11070315e-04, 4.32005152e-04, -9.36538447e-04,
       6.13111421e-04, 8.38172971e-04, 1.45605835e-03, 2.01546145e-03,
       2.00839713e-03, 9.62212740e-04, 2.44510680e-04, -2.79315631e-04,
       -1.47450541e-03, -1.13064155e-03, 5.17713779e-04, 1.15441054e-03,
       1.92642701e-03, 2.02652975e-03, 1.93103368e-03, 1.61221134e-03,
       1.18878530e-03, -3.13728960e-04, 5.51578181e-04, 8.63770547e-04,
       9.84922983e-04, 1.46523118e-03, 2.02464825e-03, 1.11586729e-03,
       4.37027396e-04, 6.67855556e-06, -6.39136240e-04, -8.61164735e-05,
       4.11190733e-04, 3.40145023e-04, 1.86337228e-03, 1.24400610e-03,
       5.96735277e-04, 3.93748574e-04, 9.43111445e-05, -2.44308030e-04,
       -8.49394535e-04, 7.44090532e-04, 7.48793886e-04, 1.34581921e-03,
       6.01795153e-04, 8.84441542e-05, -4.59348630e-05, 1.41014767e-04,
       8.00768554e-04, 9.62095452e-04, 1.09900464e-03, 8.81903747e-04,
       1.02639280e-03, 1.22919586e-03, 9.54807678e-04, 8.32479331e-04,
       5.54403407e-04, 6.84547922e-05, -2.16088971e-04, 1.00986974e-04,
       -2.63072114e-04, 9.90942004e-04, 1.58978940e-03, 9.18878126e-04,
       1.18193182e-03, 1.39470317e-03, 4.17085917e-04, 7.33263674e-04,
       7.22268887e-04, -2.22049552e-04, 6.65040337e-04, 5.36647916e-04,
       -6.57024202e-06, -2.36103282e-04, 4.24780446e-04, 1.44069793e-03,
       1.63209927e-03, 1.24171702e-03, 5.62166970e-04, 7.88966776e-04,
       -5.39508765e-05, -4.79853588e-05, -1.17450887e-04, 3.10954383e-05,
       4.11636342e-04, 2.65432882e-05, -3.94973409e-04, -2.56122556e-04,
       -1.78699192e-04, 1.31699059e-03, 3.90287052e-04, 1.07408711e-03,
       1.55648112e-03, 1.44069793e-03, 7.25639693e-04, 4.46530932e-04,
       -8.51679419e-04, 1.09071807e-04, -3.44945351e-04, -2.54212646e-04,
       -2.98249332e-04, 5.16480904e-05, -1.69486520e-04, -4.89388709e-04,
       -2.55680061e-04, -6.57997502e-04, -4.48961015e-04,
       -6.00588042e-04, -2.16158573e-04, -5.42309135e-04,
       -1.43980680e-04, -7.54291890e-04, -4.71368781e-04,
       -5.14515617e-04, -7.18881143e-04, -7.25541962e-04,
       -6.22184016e-05, -7.35010963e-06, -3.26849367e-05, 1.61425571e-03,
       4.59121447e-03, 1.03571132e-04, 2.44038256e-05, -1.13443502e-05,
       -6.70973241e-05, -9.35446296e-04, -6.96995179e-04,
       -1.77201489e-03, -3.23540618e-04, -1.76248187e-03,
       -6.53122202e-04, -2.98462313e-04, -4.03169455e-04,
       -1.01153133e-03, -1.43350640e-04, 6.19634739e-06, -6.77675780e-05,
       1.45606801e-03, 4.47499612e-03, 1.35003775e-05, 4.96653729e-06,
       1.09793127e-05, -1.37303257e-04, 1.12824759e-03, 1.25424733e-04,
       1.06184969e-04, 5.03744930e-04, 2.21747370e-03, 6.61113998e-04,
       3.24129360e-04, 1.68725834e-04, 1.84922852e-03, 7.98252993e-04,
       3.76910961e-04, 5.53746686e-05, 6.55852084e-04, 7.16311333e-04,
       -3.00470623e-04, -1.21091411e-03, -7.55529269e-04, 7.84974894e-04,
       2.12502223e-03, 3.39860737e-04, 3.92861024e-04, 4.38962685e-04,
       2.41741491e-03, 9.58770921e-04, 7.11562170e-05, 1.51578555e-04,
       2.41142418e-03, 1.13477150e-03, 4.78237111e-04, 4.00133693e-04,
       1.49439822e-03, 7.16311333e-04, 1.78742819e-04, -1.23574957e-03,
       2.42285430e-04, 9.01288528e-04, 1.73113379e-03, 5.27690048e-04,
       7.42560223e-05, 8.78253661e-04, 1.12268922e-03, -2.99075637e-05,
       -1.06300937e-03, -1.72318338e-04, 1.12324720e-03, 2.21465481e-03,
       -1.86056805e-05, -7.95711967e-05, -3.40044673e-04,
       -6.43299951e-04, -7.14417081e-04, -1.06120203e-03,
       -9.71921254e-05, 2.04435573e-03, 1.65270257e-03, 2.24676056e-04,
       1.08932560e-04, 1.15991314e-03, 1.14931283e-03, -4.05109546e-04,
       -7.78998889e-04, 6.49172696e-04, 2.37675919e-03, 2.30550859e-03,
       -2.13479871e-05, -4.35620641e-05, -2.24232135e-04,
       -6.88661006e-04, -1.23520696e-03, -1.22970226e-03, 5.44196337e-05,
       2.18103873e-03, 2.32081092e-03, -1.83131342e-04, -1.13961942e-04,
       -2.84414797e-04, -4.73972817e-04, -6.62536651e-04,
       -9.21389437e-04, -1.05048448e-03, 2.04311381e-03, 2.56359484e-03,
       -6.55375015e-06, -1.12577465e-04, -3.72369715e-04,
       -1.09770836e-03, -1.17877766e-03, -1.14524015e-03,
       -1.04221096e-03, 2.09349277e-03, 2.56504305e-03, 1.65370089e-04,
       -9.13270051e-05, -4.50930558e-04, -8.53897771e-04,
       -1.10685802e-03, -9.57564218e-04, -2.98264669e-04, 2.26892089e-03,
       2.55485275e-03, 2.65022711e-04, -2.08995043e-04, -7.23240257e-04,
       -1.06325687e-03, -1.17669743e-03, -1.13016693e-03,
       -5.02239971e-04, 2.24611117e-03, 2.43543019e-03, 1.48630759e-04,
       -4.11393448e-05, -3.76967975e-04, -1.37691968e-03,
       -1.43725157e-03, -1.41065300e-03, -7.11673114e-04, 2.50876322e-03,
       2.57716863e-03, 2.56592728e-04, 7.38086383e-05, -8.30644422e-05,
       -1.02061825e-03, -5.36083651e-04, -3.75542586e-04, 2.79125146e-04,
       2.70706858e-03, 2.65857065e-03, -1.49875614e-05, -2.34542473e-04,
       -1.01536093e-03, -1.37376727e-03, -1.43696694e-03,
       -1.39663054e-03, -2.34040286e-04, 2.55073444e-03, 2.70082685e-03,
       2.26383345e-04, -2.41455073e-05, -4.16309456e-04, -1.37037877e-03,
       -8.06598284e-04, -3.27796326e-04, 3.16233229e-04, 2.70487578e-03,
       1.66287506e-03, 1.43944189e-05, -1.90868013e-04, 2.94775149e-04,
       -1.13937764e-04, -3.90601053e-04, -6.65679050e-04,
       -5.99300547e-05, 2.20086053e-03, 7.38761330e-04, 7.44215504e-05,
       -1.67653576e-04, 2.12236284e-03, 1.23255025e-03, 9.96339601e-04,
       -8.34340826e-05, 1.02774720e-05, 3.68216803e-04, 1.60384609e-03,
       -5.22207876e-04, -1.20693340e-03, -4.15250717e-04,
       -8.48478521e-04, -1.05477415e-03, -4.03089216e-04,
       -2.01285526e-04, 1.48456986e-03, -5.00629656e-04, -9.81169753e-04,
       -1.34332664e-03, 1.27458334e-04, -1.36497722e-03, 9.69355344e-04,
       1.07097614e-03, -3.72025068e-04, -2.48047232e-04, -1.26275816e-04,
       -5.94144331e-05, -9.80408950e-05, 1.95975788e-03, 2.07014242e-03,
       1.63394574e-03, 9.59212593e-06, -1.01560108e-04, -4.62743745e-04,
       -2.91777193e-04, 5.17259796e-05, 2.15299806e-04, 1.30596675e-03,
       2.48930044e-03, 1.83443585e-03, 1.77588430e-04, 1.42933539e-04,
       -9.73248898e-05, -1.68151630e-03, -8.53339036e-04,
       -1.23032893e-03, 3.02718370e-04, 1.43178942e-04, 1.46970630e-03,
       -2.48835626e-04, -7.58633949e-04, -1.52749335e-03,
       -1.88530877e-03, -4.36706498e-04, -7.24429672e-04,
       -4.28886007e-04, -2.01249553e-04, 7.84671633e-04, -1.33570540e-03,
       -6.88174448e-04, -1.47237722e-03, 1.51463074e-03, 2.32148697e-04,
       9.55712894e-05, 6.02620479e-04, 2.32669478e-03, 1.13986782e-03,
       3.71604954e-04, 4.83057840e-04, 2.00847443e-03, 1.85316498e-03,
       -5.55671228e-04, -1.32355443e-03, -6.24004952e-06,
       -2.76606064e-04, 9.50373360e-05, 5.51052908e-05, 2.07522695e-04,
       2.05686502e-03, 1.25127379e-03, -1.04574472e-04, -1.08349440e-03,
       -1.00324789e-04, 8.36972031e-04, 2.97570776e-04, -1.25829771e-03,
       -4.00537509e-04, 9.02897154e-04, 1.11743796e-03, -1.59988028e-03,
       -2.72859819e-03, -1.49687275e-03, -2.71964842e-03,
       -1.06697681e-03, -1.23189564e-03, -3.42506537e-04, 1.29270938e-03,
       1.59045320e-03, -5.60153800e-04, -7.76826229e-04, 8.10291327e-04,
       7.43409735e-04, 3.60379578e-04, 7.62002892e-05, 2.87393021e-04,
       1.73807517e-03, 2.53310573e-04, -5.30997582e-04, -4.47547733e-04,
       1.21354579e-03, 1.35653687e-03, 7.56150461e-04, 2.74843071e-04,
       6.07545022e-04, 8.95366771e-04, 4.73424181e-04, -8.52562487e-04,
       -1.24371052e-03, 3.58433230e-04, 2.24505406e-04, 2.65642448e-04,
       -1.05021533e-03, -5.38484484e-04, 5.25666401e-04, -1.31572550e-03,
       -4.86592937e-04, -7.36154849e-04, 1.42803148e-03, 5.10394282e-04,
       8.72016069e-04, -9.74534254e-04, -7.27396051e-04, -1.57745054e-03,
       4.69028484e-04, -2.95844191e-04, -6.30349823e-05, 6.44001237e-04,
       3.75672331e-04, 7.71898020e-04, 7.72222586e-04, 8.52785073e-04,
       1.31609547e-03, 1.53053249e-03, 2.25438052e-04, 1.99453629e-04,
       7.21689663e-04, -8.71174270e-05, 5.34715189e-04, 1.23467890e-03,
       1.14017341e-03, 1.45397673e-03, -1.12737855e-03, -7.16335926e-05,
       7.05770208e-06, 1.46953051e-03, 1.43194353e-04, 6.80707162e-04,
       -2.39701585e-05, -7.18085677e-04, -1.20208366e-03, 4.73032451e-05,
       -9.41670878e-05, -5.41578629e-05, 7.38958246e-04, -1.92876917e-03,
       7.38655071e-05, 3.08987437e-05, -3.70016314e-05, -3.01530992e-04,
       -8.33316881e-04, -5.51765552e-04, -7.34430971e-04,
       -1.03782804e-05, -1.03457994e-03, 6.21686748e-04, 2.69751111e-03,
       7.13053276e-04, -4.73033258e-04, -3.18142011e-05, 8.86031776e-05,
       6.60046935e-05, 4.14571114e-05, -8.80562438e-05, 2.88245920e-03,
       3.32838786e-03, 2.99274363e-03, 1.71008956e-04, -1.91092386e-03,
       -9.53376642e-04, -1.70677353e-03, -2.97981518e-04,
       -2.58676452e-03, -1.84832868e-04, -2.49733217e-04,
       -2.53155798e-04, -1.71932217e-03, -1.28331117e-03,
       -3.45880078e-04, -6.66944019e-04, 9.45025677e-05, -1.18110562e-03,
       7.88822188e-04, 2.73752632e-03, 7.91203231e-04, -9.51540540e-04,
       2.29620418e-04, 2.80933564e-05, 3.96655669e-05, 6.69868532e-05,
       1.16924057e-04, 1.87253091e-03, 2.54144007e-03, 2.00976338e-03,
       2.48892058e-04, 1.65384859e-04, 2.00586379e-04, 9.62094127e-05,
       2.53295264e-04, 4.64337441e-04, 1.41624152e-03, 2.38986383e-03,
       8.86031892e-04, 2.20846487e-04, -3.63505649e-04, -7.48028397e-04,
       -9.61078913e-04, -1.28397357e-06, -8.77822342e-04, 1.73823023e-03,
       2.15884019e-03, 1.68323214e-03, 2.63852213e-04, -3.03637760e-04,
       -2.95429898e-04, -1.07540935e-03, 2.26664488e-04, -1.11523515e-03,
       2.19574897e-03, 1.23912480e-03, 1.42151734e-03, 6.16249687e-04,
       8.16923421e-05, 4.45499551e-04, 8.04966432e-04, 6.81661419e-04,
       5.50111465e-04, 6.42601284e-04, 2.18880901e-04, 3.80273734e-04,
       2.00426395e-04, 4.27793304e-04, 9.28832043e-04, 2.70090788e-03,
       2.75924453e-03, 3.32174473e-04, 2.71850498e-04, 1.10740621e-04,
       2.81139306e-04, 6.65978005e-05, -3.68300418e-04, 6.16074947e-04,
       1.39336742e-03, 2.14212690e-03, -7.02662801e-04, 7.70889805e-04,
       -7.11745932e-04, 9.28661393e-05, 2.66590621e-04, -8.89153918e-04,
       1.41607854e-03, 1.93566363e-03, 2.74760625e-03, -1.19948736e-03,
       -6.16005273e-04, -9.26171197e-04, -3.06530390e-04,
       -9.29023663e-04, 1.26650452e-03, 1.77484250e-03, 2.13542162e-03,
       2.17557536e-03, 3.87073145e-04, 4.04507475e-04, 1.00638958e-04,
       2.53496954e-04, -3.65472661e-05, 1.70215429e-03, 1.70636747e-03,
       1.46789651e-03, 1.33033353e-03, 8.77956918e-04, 9.71741567e-04,
       1.95408516e-04, 4.57010872e-04, 4.92038031e-04, -6.33703661e-04,
       9.67251777e-04, 1.12213683e-03, 2.17557536e-03, -1.63643842e-03,
       -5.78450505e-04, -3.17451253e-04, -1.89651822e-04,
       -1.37554843e-03, 7.97406246e-04, 1.39964197e-03, 1.81099109e-03,
       2.14201398e-03, 1.59771938e-04, 5.18363086e-04, 3.74008581e-04,
       1.09216446e-04, 1.09668137e-04, 7.10616878e-04, 1.47982384e-03,
       1.80750620e-03, 1.55000656e-03, 9.12081741e-04, 5.35774161e-04,
       1.19698518e-04, 2.81045621e-04, 6.60620339e-04, 9.44517145e-04,
       2.02357140e-03, 2.07670662e-03, 2.15994823e-03, 1.66799568e-04,
       4.01869649e-04, 4.34330614e-05, 5.61177294e-05, 5.62812318e-04,
       4.39153402e-04, 1.76168303e-03, 2.23879749e-03, 2.23879749e-03,
       1.39767968e-03, 3.21488798e-04, 2.50581536e-04, 9.22979307e-05,
       3.97431169e-04, 2.11692721e-04, 9.57089593e-04, 1.93496351e-03,
       1.95667031e-03, -2.22966564e-03, -3.43242253e-04, 1.89929196e-04,
       1.41841825e-04, 2.39328714e-04, 2.13514362e-03, 2.11325730e-03,
       2.00011744e-03, 2.05058628e-03, 1.68560553e-04, 7.76920933e-04,
       7.82310381e-04, 7.30972621e-04, 6.62921928e-04, 1.38167944e-03,
       1.05991145e-03, 6.97783311e-04, 1.10609795e-03, 1.68560553e-04,
       4.90652223e-04, 2.71240104e-04, 1.34325237e-04, 4.98205831e-04,
       2.82053807e-04, 4.72688174e-04, 1.42823101e-03, 1.84431719e-03,
       1.68560553e-04, 9.35464341e-04, 4.17228672e-04, 3.77699238e-04,
       1.24957587e-04, 2.58618384e-04, -6.81624952e-05, -1.80462739e-04,
       9.62240738e-05, 1.68560553e-04, -2.62486341e-04, 2.82228739e-05,
       1.94057633e-04, -1.80588511e-04, 7.54668319e-04, 9.17019323e-04,
       1.02806184e-03, 1.45433727e-03, 1.13975559e-03, 7.54892244e-04,
       -3.93029681e-04, -2.19090187e-04, 3.46616813e-04, 1.57191290e-03,
       9.91789275e-04, 1.18573778e-03, 1.21427386e-03, 1.34118798e-03,
       5.33430721e-04, -2.73089026e-05, -1.63818069e-04, 6.83200313e-04,
       9.04771077e-05, -5.04120653e-05, -1.12322077e-05, 1.73864857e-04,
       1.13975559e-03, -1.72025684e-04, -8.81503162e-04, -4.06551517e-05,
       -1.15768453e-04, -3.77849101e-05, -1.83472730e-04,
       -2.29948309e-05, 2.53227972e-06, 1.23623584e-03, -3.47932764e-05,
       -4.13646398e-04, -1.55377784e-04, -1.27139923e-04, 2.57805432e-03,
       1.35664898e-03, 1.95486657e-03, 2.39763106e-03, 2.08671950e-03,
       -3.36212863e-04, 1.09600536e-04, -4.22562822e-04, 1.13490911e-03,
       -3.20068677e-04, -1.58516894e-04, -2.26698568e-04,
       -6.53965835e-05, -2.24799325e-04, -7.50054372e-04,
       -1.09683504e-04, -4.95022046e-04, -4.41228971e-04,
       -1.70686457e-04, -4.80699353e-04, -1.71295120e-04,
       -8.42935988e-04, 2.24485341e-03, -7.86892837e-04, -2.18494490e-04,
       -5.47639211e-04, -6.89349079e-04, -3.69681657e-04,
       -3.85916617e-04, -2.23512558e-04, -1.01190933e-03,
       -3.79890756e-04, -8.64703557e-04, -3.70841764e-04,
       -6.26939232e-04, -8.86128226e-04, -5.49046323e-04,
       -4.69380378e-04, -1.20344572e-03, -3.54853895e-04,
       -1.03124999e-03, -5.15199732e-04, -3.63069674e-04,
       -2.45358533e-04, -4.62826749e-04, -5.21197326e-05, 2.97846345e-05,
       -5.16012187e-05, 1.16313971e-03, 4.80134226e-03, 1.78408682e-05,
       -2.00507111e-06, 2.79028391e-05, -5.07433433e-05, -6.08409231e-04,
       -3.42062733e-04, -7.10213091e-04, -1.23041403e-03,
       -1.25798956e-03, -9.36343800e-04, -8.18177417e-04,
       -8.47307441e-04, -8.82436638e-04, -5.46849406e-05, 4.69217093e-06,
       -4.11619549e-05, 6.73807226e-04, 4.86277137e-03, 2.18251982e-04,
       -2.62760550e-05, 1.93013148e-06, -5.21495422e-05, 2.46762065e-03,
       2.46640324e-04, 2.28390607e-04, 1.04396917e-04, 4.81189491e-04,
       2.12090585e-04, 9.99750137e-06, 1.02406339e-04, 2.83148955e-03,
       1.67888752e-03, 3.61769926e-04, 2.93718185e-04, 2.98108789e-04,
       -1.42576278e-03, -2.04844261e-03, -2.17880029e-03, 3.33045609e-04,
       2.05473904e-03, 2.89493171e-03, 5.30701218e-05, 6.02053042e-05,
       6.65116240e-05, 5.83957190e-05, 1.74654378e-05, 3.93163973e-05,
       9.78521057e-05, 2.89493171e-03, 2.77909241e-03, 9.27027213e-05,
       1.46930077e-04, 1.03216742e-04, -9.81369754e-04, -3.10586445e-04,
       5.38331878e-05, 1.95941218e-04, 2.77477689e-03, 1.87814771e-03,
       1.95959467e-04, 3.93299524e-05, 1.80850402e-04, -1.91198225e-04,
       -1.21487875e-03, -1.33897399e-03, 2.92718207e-04, 2.68436456e-03,
       2.68823281e-03, 5.52196434e-06, -9.18110600e-05, -1.71446140e-04,
       -6.12611650e-04, -1.57249370e-03, -1.55505631e-03,
       -4.40578588e-04, 2.42014462e-03, 2.74903583e-03, 1.46992024e-04,
       6.64750114e-05, 3.85678140e-06, -3.00319196e-04, -6.31815114e-04,
       -8.43996590e-04, -7.52464803e-06, 2.70567811e-03, 2.71048630e-03,
       -1.25207616e-05, -9.90618719e-05, -2.88336771e-04,
       -9.91156325e-04, -1.55219843e-03, -1.53922534e-03,
       -5.32957318e-04, 2.36892491e-03, 2.42382567e-03, -4.90464736e-05,
       -1.68672035e-04, -4.33326175e-04, -6.13688608e-04,
       -1.00326061e-03, -1.14773260e-03, -2.49092234e-04, 2.40884512e-03,
       2.60168361e-03, -5.78322215e-05, -2.26085045e-04, -7.97748857e-04,
       -1.13844697e-03, -9.19143786e-04, -9.31441318e-04,
       -8.12002982e-05, 2.58439058e-03, 2.67564366e-03, -5.56871761e-04,
       -8.11954553e-04, -8.34058446e-04, -9.54890100e-04,
       -1.14952738e-03, -1.14421151e-03, -4.29770764e-04, 2.28115707e-03,
       2.50898977e-03, -9.33257455e-04, -1.11045525e-03, -1.14173174e-03,
       -8.53750098e-04, -9.24348074e-04, -6.64873573e-04,
       -3.63372092e-04, 2.44424562e-03, 2.42564175e-03, -4.43911267e-06,
       -1.39324213e-04, -6.37060730e-04, -1.24314090e-03,
       -9.10922710e-04, -1.16589514e-03, -3.22786946e-04, 2.71552219e-03,
       2.59412616e-03, 2.29587866e-04, -8.91022864e-05, -3.31963034e-04,
       -1.24546152e-03, -4.65959893e-04, -8.96300073e-04,
       -4.47787723e-04, 2.51373462e-03, 2.53735087e-03, -2.25578406e-04,
       -6.88518572e-04, -5.44453796e-04, -9.37331992e-04,
       -7.61227100e-04, -1.24099094e-03, -9.78137716e-04, 2.37181364e-03,
       1.95749011e-03, -6.37078265e-05, -3.30384821e-04, -6.30756374e-04,
       -6.18037302e-04, -8.78501625e-04, -1.22680154e-03,
       -1.12894329e-03, 1.65323995e-03, 1.56658480e-03, 2.14094052e-05,
       -6.87975844e-05, -9.01147432e-05, 2.22540562e-04, 1.43389945e-04,
       1.15163111e-05, -1.44544232e-04, 1.72860327e-03, -2.24711141e-04,
       -3.16430902e-04, -9.39365491e-05, 3.53811833e-04, 8.51866906e-04,
       1.60325749e-03, 1.05520070e-03, -1.86172751e-04, 2.85824848e-04,
       9.70457215e-04, -6.46278495e-04, -1.88893348e-04, -4.97120665e-04,
       -5.65499420e-07, -3.21752741e-04, -1.21300376e-03,
       -1.21640449e-03, 9.70457215e-04, 5.68576856e-04, -1.01979775e-03,
       7.67102116e-04, 1.73917320e-03, -5.17620705e-04, 1.07141247e-03,
       -6.75390998e-04, -1.47354498e-03, -1.01069374e-04,
       -5.71614772e-04, -6.21877407e-05, -7.36356651e-06, 7.69620179e-04,
       1.89521362e-03, 2.01295107e-03, 2.76867591e-04, -3.86713626e-04,
       -6.20041508e-04, -5.70283155e-04, 5.30864854e-05, 1.30367544e-05,
       2.60582776e-04, 8.23765062e-04, 1.43408042e-03, -2.84292706e-04,
       -4.59744653e-04, -5.01181756e-04, -1.36587117e-03,
       -4.32678033e-04, 7.00951729e-04, 2.06445670e-03, 1.56166917e-03,
       1.53810054e-03, -4.83017677e-04, -1.54924905e-03, -1.46546983e-03,
       -1.31348928e-03, -2.97161081e-04, 2.09180507e-04, 1.33142888e-03,
       9.12512129e-04, 1.38555735e-03, -6.64444931e-04, -1.65916258e-03,
       -1.27901009e-03, 1.50896993e-03, 5.18882473e-04, 2.58371467e-04,
       2.26488628e-04, 1.96556537e-03, 4.88353253e-04, -1.88407175e-05,
       -4.46663907e-05, 9.02818982e-04, 2.19021132e-03, 9.43502309e-05,
       -7.31703825e-04, -9.84492362e-04, -9.94732254e-04,
       -1.02214585e-03, -1.10499817e-03, -2.44252064e-04, 1.99265964e-03,
       8.29674187e-04, 2.22838789e-04, 2.39761735e-04, 5.17713896e-04,
       2.15308694e-03, 6.66358799e-04, -1.06466468e-03, -1.18180970e-03,
       8.20988382e-04, 1.15024496e-03, -5.68754840e-05, -3.24876950e-04,
       -1.02428556e-03, -1.00413046e-03, -1.07684126e-03,
       -2.57655350e-03, -2.37852358e-03, 6.56111282e-04, 2.36797589e-03,
       1.35791692e-04, -5.35208674e-04, -4.12788038e-04, -2.34626696e-05,
       -3.28634138e-04, -5.59910783e-04, -1.11671310e-04, 2.43420247e-03,
       8.22268310e-04, 3.33308039e-04, -1.66210128e-04, 1.84027231e-04,
       8.35190236e-04, 2.86459137e-04, 2.16529923e-04, 9.25746426e-05,
       4.90650651e-04, 1.07320026e-03, -8.90541065e-04, -7.15816976e-04,
       -1.09416095e-03, -6.79139514e-04, -7.86456221e-04,
       -2.27791280e-03, -1.73367036e-03, 1.03392301e-03, 1.00841781e-03,
       -1.51729200e-03, -6.20191335e-04, -5.01459115e-04,
       -6.08617032e-04, -4.35157621e-04, -9.16322635e-04,
       -6.03563327e-04, 1.07552449e-03, 3.57963581e-04, 3.39824182e-04,
       4.81509996e-05, 3.63898755e-04, -1.84163611e-04, -2.47925091e-05,
       1.61753429e-04, 4.47162602e-04, 6.77318487e-04, 1.05701713e-03,
       2.69000157e-04, -1.24955783e-04, 4.60756528e-05, -6.88225031e-04,
       -2.58176035e-04, -1.11163157e-04, 5.51349716e-04, 1.56976783e-03,
       1.05717324e-03, -7.00981473e-04, -4.44236881e-04, -2.04627184e-04,
       -4.87805781e-04, -6.28423935e-04, -5.41148533e-04, 1.01080674e-04,
       1.10974326e-03, 1.08816940e-03, -3.12976445e-05, -7.21938442e-04,
       -8.95819976e-05, -5.74195408e-04, -6.99661497e-04,
       -7.33108493e-04, -2.66752380e-04, 1.11949991e-03, 1.03617436e-03,
       2.76635419e-05, -7.33704597e-04, -2.65000504e-04, -1.55127270e-03,
       -4.58043098e-04, -5.39773784e-04, -4.48604305e-06, 1.90030795e-03,
       1.40107807e-03, 1.80368326e-04, 5.61632951e-05, 1.73161869e-04,
       2.18206435e-04, 3.09053867e-04, 1.15356222e-03, 1.20703143e-03,
       2.02016649e-03, 1.30576454e-03, -9.12504212e-04, -1.74089125e-03,
       -7.22394616e-04, -1.56348897e-03, -1.25688466e-03,
       -9.20277147e-04, -5.10902610e-04, 1.28913310e-03, 1.49916939e-03,
       -1.52057008e-04, -7.63697375e-04, -4.41783166e-04, 2.73824062e-05,
       -2.54243729e-04, -1.25429442e-03, -1.90372346e-04, 1.50107569e-03,
       7.95971195e-04, 1.33366746e-04, 1.05823878e-04, 1.41981494e-04,
       3.29408649e-04, 7.06494553e-04, 9.20862949e-04, 1.30154274e-03,
       1.11363851e-03, 8.36276042e-04, 8.14778497e-04, 1.83956081e-03,
       1.91977399e-03, 1.70416466e-03, 1.21235091e-03, 5.84408117e-04,
       1.89628755e-03, 1.64178631e-03, 3.72960989e-04, 3.75364500e-04,
       -1.79610724e-04, -4.22310230e-04, -3.64418775e-05,
       -6.61068712e-04, -1.42292934e-03, -1.06719125e-03, 3.72960989e-04,
       2.66660034e-04, 6.04224333e-04, 1.30694197e-03, 1.55214290e-03,
       1.83993927e-03, 3.41736275e-04, -7.54168897e-04, 5.72492019e-04,
       3.72960989e-04, 1.42421428e-04, 1.10667723e-03, 2.20897305e-03,
       2.30938313e-03, 9.75764706e-04, 2.37539076e-04, 1.25700062e-05,
       2.93212128e-04, 3.31062271e-04, 2.99099629e-04, 2.07073940e-03,
       2.27655587e-03, 2.33070576e-03, 5.93769422e-04, 2.15327964e-04,
       1.25923121e-04, 8.52323428e-05, 9.70753390e-05, -7.44544726e-04,
       7.70473620e-04, 1.34394038e-03, 1.29327958e-03, 9.88527318e-04,
       9.53503331e-06, -1.19701517e-03, -4.54362598e-04, -1.06249645e-03,
       -1.83776603e-04, 1.62903196e-03, 1.94625417e-03, 9.03555774e-04,
       2.34574778e-04, -1.08647269e-04, -1.28658058e-03, -6.37778721e-04,
       -1.05755823e-03, 2.76336184e-04, 9.37362725e-04, 1.82049989e-03,
       1.97677570e-03, 7.70537998e-04, 6.93847251e-04, 4.15868242e-04,
       1.41734417e-04, 2.85757596e-06, 4.09280095e-04, 1.04142004e-03,
       1.91724324e-03, 2.00872403e-03, 1.65544555e-03, 1.00505212e-03,
       6.44271902e-04, 2.03668242e-04, 2.53496110e-04, -1.16719725e-03,
       4.23275837e-04, 1.27397862e-03, 7.31651206e-04, -5.77140541e-04,
       -1.90778257e-04, -6.73045870e-04, -2.66931456e-04,
       -1.17748568e-03, 3.00357118e-04, 1.86526065e-03, 1.97313633e-03,
       1.82750681e-03, 9.82912723e-04, 5.66097151e-04, 5.05350996e-04,
       2.48569384e-04, 1.69228937e-04, 2.99318606e-04, 1.73720077e-03,
       2.03738129e-03, 2.03738129e-03, 1.71575777e-03, 5.01360744e-04,
       3.51566268e-04, 1.51799584e-04, 1.54228517e-04, 1.76754373e-04,
       1.07515184e-03, 1.98649778e-03, 1.90164440e-03, -1.39183493e-03,
       1.89860948e-04, 2.50716635e-04, 1.38793868e-04, 1.06884952e-04,
       1.11491233e-03, 2.03738129e-03, 2.03738129e-03, 2.03738129e-03,
       1.73528481e-03, 3.76147014e-04, 4.24194441e-04, 2.28276884e-04,
       2.99216248e-04, 7.54514476e-04, 1.09501311e-03, 1.91778899e-03,
       1.85793091e-03, -1.13069057e-03, 2.45337957e-04, 6.07414520e-04,
       2.63242400e-04, 1.54429494e-04, 1.08526321e-04, 3.67831351e-04,
       1.52418716e-03, 2.03231093e-03, 7.54321401e-04, 1.06098561e-03,
       4.88357618e-04, 4.45092388e-04, 1.45130078e-04, -7.84549993e-05,
       -1.91596700e-04, -1.94570093e-04, -1.31323577e-05, 7.04931444e-04,
       2.26186952e-04, 3.93643888e-04, 3.20253341e-04, -1.52091059e-04,
       5.33621060e-04, 5.11585327e-04, 1.05391257e-03, 1.94989378e-03,
       7.04931444e-04, 1.02671143e-03, 1.43792585e-03, 4.88518621e-04,
       2.01875460e-04, 8.79482343e-07, 1.35859591e-04, 3.36359226e-04,
       1.68673199e-04, 7.04931444e-04, 3.62878811e-04, 6.00176340e-04,
       2.18667454e-04, 7.86283927e-05, -1.23093225e-04, -1.80325107e-04,
       -2.89015647e-04, -3.81566206e-04, 2.17939005e-03, -7.58460024e-04,
       -6.06214162e-04, -7.42770644e-05, -2.00194350e-04,
       -4.08595297e-05, -1.18873650e-04, -7.73574648e-05,
       -3.50041446e-05, 2.60537839e-03, -1.84627977e-04, -4.05632978e-04,
       -1.22676662e-04, -5.44439863e-05, -8.26781688e-05,
       -4.62416829e-05, 1.98676425e-05, -3.35196994e-04, 2.17939005e-03,
       -5.89666481e-04, -5.60207525e-04, -7.98522524e-05,
       -5.91479438e-05, -5.88840194e-05, -6.71709349e-05,
       -1.49002764e-04, -2.23730694e-05, 2.23722961e-03, -3.72560869e-04,
       -4.80011571e-04, -1.35425682e-04, -5.31379083e-05,
       -1.54692840e-04, -3.75759264e-04, 4.28702879e-05, -3.71373928e-04,
       3.97860445e-03, -3.06730566e-04, -5.49739489e-05, -3.25686036e-04,
       -5.67051524e-04, -2.20525297e-04, -3.07382084e-04, 7.33597626e-05,
       -6.15415687e-04, -3.53013194e-04, -5.76537393e-04,
       -2.09632810e-04, -4.83639713e-04, -9.35979246e-04,
       -3.78301658e-04, -2.80715845e-04, -2.04225245e-04,
       -4.45472135e-04, 4.06772736e-03, -4.44020261e-04, -7.85955272e-05,
       -3.10899777e-04, -5.44867944e-04, -8.89718707e-04,
       -4.84196440e-04, -1.78292306e-04, -7.96807057e-04,
       -4.09309832e-05, -1.03613769e-03, -1.75761452e-04,
       -7.94951571e-04, -1.15103100e-03, -3.27384012e-04,
       -1.54335212e-04, -7.27900333e-05, -6.29844493e-04,
       -9.94451111e-04, -3.50169255e-04, -2.43960152e-04,
       -4.38042392e-04, -9.06797184e-04, -2.82204070e-07, 3.16254409e-06,
       1.48879662e-05, 6.78020064e-04, 4.97906003e-03, 9.34501819e-04,
       -6.93717811e-06, -6.28915132e-06, -7.30299064e-07,
       -1.16529781e-03, -4.82729170e-04, -2.00884228e-04,
       -1.02844893e-03, -1.21968158e-03, -1.01279828e-03,
       -2.09141741e-04, -1.06573838e-03, -1.92046887e-03, 3.38863720e-05,
       1.59254560e-05, 5.87170980e-05, 1.68080372e-03, 4.91631310e-03,
       1.40717754e-03, 4.61276541e-05, 9.95454866e-06, 2.97567603e-05,
       2.70200637e-03, 1.01428035e-04, 6.10401912e-05, 8.01231145e-05,
       7.06623105e-05, 2.05749584e-05, 5.68187024e-05, 1.35189053e-04,
       2.70200637e-03, 1.88402552e-03, -2.49124446e-06, 1.92065840e-04,
       2.43107315e-05, -3.38911987e-03, -6.07164002e-05, 3.44077744e-05,
       -9.92672813e-06, 1.58220867e-03, 2.70200637e-03, 3.25277040e-04,
       1.20991033e-04, 2.39954024e-05, 3.51000490e-05, 1.89746443e-05,
       3.55472293e-05, 1.96582725e-04, 2.70200637e-03, 2.24660453e-03,
       5.72743476e-04, 1.74294357e-04, 5.97378130e-05, -1.68826559e-03,
       -3.39603503e-05, -1.66745653e-04, -1.01761150e-04, 1.69269682e-03,
       2.64129601e-03, 1.39261479e-04, 1.45868704e-04, 7.25367281e-05,
       -3.40172031e-04, -1.80971940e-04, -1.32880477e-05, 1.19282420e-04,
       2.55924277e-03, 2.49622483e-03, -1.31614957e-04, -1.24897037e-04,
       -3.59491911e-04, -1.61224126e-03, -1.61241682e-03,
       -1.58439099e-03, -4.13133006e-04, 2.28194799e-03, 2.67094257e-03,
       3.28458031e-04, 9.95698210e-05, 4.39993455e-05, -1.05965788e-04,
       6.56043776e-05, 4.03439553e-05, 7.69244361e-05, 2.36388971e-03,
       2.44365935e-03, 1.97524951e-05, 1.84725668e-05, -1.34253569e-04,
       -1.61428424e-03, -1.57001137e-03, -1.39795349e-03, 7.72473795e-05,
       2.45135557e-03, 2.63307663e-03, -3.26935726e-04, -6.39865408e-04,
       -3.95534880e-04, -1.03696180e-03, -1.17621268e-03,
       -9.61749873e-04, -2.38855253e-04, 2.58893962e-03, 2.55954685e-03,
       -8.20719928e-04, -1.11966499e-03, -6.13850832e-04,
       -3.08693940e-04, -5.68973366e-04, -4.25982143e-04,
       -1.89676444e-04, 2.61411164e-03, 1.40323082e-03, -3.45461231e-05,
       -1.47625324e-04, -9.88478860e-05, -7.86463730e-04,
       -9.32591967e-04, -7.87237368e-04, 1.50401815e-04, 2.64097285e-03,
       1.90879835e-03, -5.15843167e-05, -9.32759314e-04, -1.04569997e-04,
       -4.00396704e-04, -1.06710009e-03, -1.07730029e-03,
       -5.63951558e-04, 2.49434076e-03, 2.41856836e-03, -5.36916545e-04,
       -1.12113461e-03, -8.58220621e-04, -2.72692210e-04,
       -3.99352459e-04, -5.67787094e-04, -4.47517057e-04, 2.38682306e-03,
       1.68792473e-03, -5.94103127e-04, -8.76144564e-04, -1.07433391e-03,
       -3.05693306e-04, -6.68538210e-04, -9.74139839e-04,
       -9.98040894e-04, 1.72768591e-03, 1.85951637e-03, -3.16251186e-04,
       -1.06279191e-03, -8.58021958e-04, -3.17000173e-04,
       -5.15898806e-04, -6.54058880e-04, -3.07808048e-04, 2.45574699e-03,
       1.65607152e-03, -5.56532585e-04, -1.11903099e-03, -9.07803420e-04,
       -1.99110364e-04, -1.21471538e-04, -2.12003477e-04,
       -2.60138127e-04, 2.02029245e-03, 1.05124700e-03, -3.29727976e-04,
       -2.43252900e-04, -2.84391310e-04, -3.80697311e-05,
       -2.60720699e-04, -7.91861676e-04, -1.12656946e-03, 1.05124700e-03,
       5.14232495e-04, -3.35964432e-04, 5.24551026e-04, 1.49639894e-03,
       -4.96149878e-04, 1.37249951e-03, -6.47451496e-04, -1.19919947e-03,
       -1.98644047e-04, 1.05124700e-03, -1.79148978e-04, -2.31610073e-04,
       -1.00269397e-04, 2.49092263e-04, 2.67539668e-04, 9.61513506e-05,
       -3.78086697e-04, 1.06224511e-03, -3.33325734e-04, -4.55584785e-04,
       -2.94417288e-04, 4.56992944e-04, 1.62512588e-03, 2.28166091e-03,
       1.73703200e-04, -3.04305082e-04, -4.25920094e-04, -1.02122838e-03,
       -1.46922117e-04, 9.37180710e-04, 1.91207742e-03, 1.68403145e-03,
       1.60517090e-03, -1.89767336e-04, -1.09377864e-03, -1.14018610e-03,
       -9.75523028e-04, -3.60181293e-04, 5.90810436e-04, 1.65048009e-03,
       9.62702034e-04, 1.15904596e-03, -4.72920423e-04, -1.33025262e-03,
       -9.84731363e-04, -1.39734219e-03, -7.83357827e-04,
       -8.64396934e-05, 7.49042083e-04, 2.18412583e-03, 2.39527901e-03,
       1.71463602e-04, -2.29181343e-04, -1.29329192e-03, -1.76134508e-03,
       -1.16181758e-03, -4.30760410e-04, 1.71882144e-04, 6.83707709e-04,
       1.67305861e-03, -3.07583046e-04, -8.54197890e-04, -1.60065200e-03,
       1.22542959e-03, -2.99665553e-05, 9.95424634e-05, 7.59776449e-04,
       2.19953409e-03, 5.47499279e-04, -6.94012211e-04, -8.11376900e-04,
       1.21859321e-03, 1.66789663e-03, -5.71678625e-04, -5.08561381e-04,
       -9.66913300e-04, -1.20641082e-03, -9.06929839e-04,
       -2.18167598e-03, -1.75732980e-03, 1.17908069e-03, 2.63960974e-04,
       -3.55627068e-04, -4.02903388e-04, 1.83734170e-04, 1.59436895e-03,
       4.56777692e-04, -1.14060073e-04, -2.31019760e-04, 4.03246813e-04,
       7.40322575e-04, -1.19464402e-03, -1.02016609e-03, -1.23885577e-03,
       -1.20601582e-03, -8.68954347e-04, -1.22751412e-03,
       -8.65072710e-04, 1.10927271e-03, 1.51472795e-03, -7.70838058e-04,
       -4.31092427e-04, -8.29274592e-04, -8.58336745e-04,
       -7.55788293e-04, -1.77047600e-03, -8.83619068e-04, 1.52690685e-03,
       1.22236623e-03, -9.59802128e-04, -3.35093122e-04, -5.35446452e-04,
       -5.45640651e-04, -4.70558298e-04, -1.14461023e-03,
       -9.69875764e-05, 1.30614813e-03, 1.57394202e-03, -4.27356194e-04,
       -4.83708369e-04, -8.37831583e-04, -8.70814896e-04,
       -5.27345226e-04, -9.48654197e-04, -6.55491836e-04, 1.31845428e-03,
       8.13347287e-04, -1.19011493e-04, 1.65760983e-04, -4.14952898e-04,
       -6.31699804e-04, -3.22652719e-04, -1.12802489e-03,
       -3.56674980e-04, 8.60713306e-04, 7.33785448e-04, -2.45579809e-04,
       -1.89521787e-04, 1.17094838e-04, -2.26353790e-04, -2.03395772e-04,
       -4.32702538e-04, 3.13991040e-04, 8.24682065e-04, 6.56150398e-04,
       1.74682427e-04, -4.31952998e-04, 6.58946170e-04, -2.91222706e-04,
       -2.37499917e-04, -1.33631111e-05, 3.77049553e-04, 7.45747820e-04,
       -6.05062269e-05, -6.67751825e-04, 7.88984238e-04, 7.49244238e-04,
       -4.49378531e-05, 1.48954510e-04, -4.70181287e-04, -5.53407997e-04,
       -3.02733504e-04, -1.39226904e-04, -8.87413567e-04, 1.47046623e-04,
       1.18102471e-03, 6.92191999e-04, 8.30660923e-04, 2.57448875e-04,
       2.19372741e-05, 3.60349048e-04, 1.02619932e-03, -1.95300876e-04,
       -1.33412157e-03, -2.24063886e-04, -1.33751275e-03,
       -8.23379843e-04, -1.86485995e-04, 3.21816449e-04, 1.19806721e-03,
       1.64005032e-03, 3.26023728e-04, 2.75728380e-04, 5.07460500e-05,
       7.25501231e-05, 1.73113513e-05, -7.11365195e-04, 3.33807897e-04,
       1.49230915e-03, 7.39750758e-05, -2.52804195e-04, 1.07444219e-04,
       3.78237106e-04, 5.90833079e-05, 4.02580990e-05, -9.53848474e-04,
       -6.72846567e-04, 2.42308932e-04, 1.88947524e-04, 1.46906095e-04,
       1.52204977e-03, 1.13791984e-03, 6.86484913e-04, 1.84751407e-04,
       -7.00932462e-04, -3.14160017e-04, 1.35369657e-04, 1.15102774e-03,
       5.74803562e-04, 4.81944953e-05, -1.04657942e-04, -3.48461035e-04,
       -1.14942450e-04, -1.08369684e-03, -5.74318809e-04, 9.26988141e-04,
       7.67621153e-04, 7.94694293e-04, 2.64531147e-04, 8.83885194e-04,
       3.28910770e-04, 5.66466770e-04, 3.07206465e-05, 4.75530775e-04,
       9.24665132e-04, -3.80197773e-04, 6.53542695e-04, 7.15772621e-04,
       1.12624781e-03, -1.40484842e-03, -2.37553788e-04, -1.30278466e-03,
       -1.16629037e-03, -4.90580744e-04, -6.82369515e-04, 7.37640425e-04,
       3.46057932e-04, 1.33905455e-03, -6.37448160e-04, 5.43188828e-04,
       8.45713716e-04, -1.45905306e-05, -8.27986572e-04, 2.47283577e-04,
       1.08235981e-03, 8.04209267e-04, 6.29646878e-04, 1.25377162e-04,
       2.84683716e-04, -3.11228301e-04, 2.28691992e-04, -2.85639544e-04,
       1.19448535e-03, 1.64981466e-03, 1.38029002e-03, 6.13514276e-04,
       1.65213118e-04, -2.15280612e-04, -5.80533990e-04, 1.77206181e-04,
       6.08518429e-04, -6.74168288e-04, 5.20485919e-04, 1.47755694e-04,
       9.95779876e-04, -1.63175201e-03, 3.16594640e-04, -3.97807235e-05,
       -7.24407255e-06, -7.33055873e-04, 1.11531897e-03, 6.70568785e-04,
       6.70568785e-04, 6.59984013e-04, -5.94328856e-04, -3.88810528e-04,
       -3.38253129e-04, 3.63400963e-04, 1.47107011e-03, 1.90027975e-04,
       1.36306579e-03, 1.86561875e-03, 7.05886167e-04, -4.46313148e-04,
       -8.58863408e-04, -6.51479175e-04, -2.50781799e-04, 6.89597146e-05,
       9.20936873e-04, 2.28731520e-03, 2.34420295e-03, 1.80168985e-03,
       8.45644856e-04, 5.05093303e-05, 2.89726100e-04, 1.67149512e-04,
       3.09144729e-04, 3.17941798e-04, 9.12044314e-04, 6.65922940e-04,
       3.71628732e-04, -1.12111261e-03, -1.16953847e-03, -7.33080844e-04,
       -3.91626760e-04, 5.96402679e-04, 6.15537690e-04, 2.24883202e-03,
       2.32163863e-03, 1.15970406e-03, 4.76298854e-04, 5.67062634e-05,
       1.15066417e-04, 5.77192332e-05, 2.71095720e-04, 2.34764535e-03,
       2.34764535e-03, 2.34764535e-03, 1.88272703e-03, 1.17697380e-03,
       1.68953280e-04, 2.88020790e-04, 2.75692786e-04, 5.93130477e-04,
       1.56924513e-03, 1.24464650e-03, 5.73617348e-04, 1.93154404e-03,
       -7.90555670e-04, 6.85067324e-04, 1.11233140e-03, 5.85381233e-04,
       3.18337261e-04, 1.23077014e-03, 2.03279266e-03, 1.79354963e-03,
       5.71735785e-04, 1.04889378e-03, 2.96388636e-04, 1.67617371e-04,
       2.73978425e-04, 3.63271276e-04, 6.74436160e-04, 5.85650036e-04,
       1.31548528e-04, 1.25180872e-03, -7.90555670e-04, 1.06799987e-03,
       4.27869993e-04, 3.10732226e-04, 1.95673769e-04, 5.46001829e-04,
       3.97368800e-04, 2.72720528e-04, 1.86429976e-03, 1.07355334e-03,
       9.58458171e-04, 1.51441386e-03, 5.37896820e-04, 8.88008217e-05,
       2.94777619e-05, 1.61733173e-04, 2.67715863e-04, 9.88404499e-05,
       9.15122684e-04, 6.26081528e-05, 4.00475081e-04, 8.25096795e-05,
       4.33532296e-05, 1.62564946e-04, 3.04625602e-04, 1.61085307e-04,
       1.96274044e-03, 1.07355334e-03, 1.33573322e-03, 5.56312676e-04,
       2.72370817e-04, 2.48397591e-05, -1.95556095e-05, 1.87957732e-04,
       5.91565440e-05, 3.39877646e-04, 1.07355334e-03, -2.50573590e-04,
       2.90805474e-04, 2.20679372e-04, 1.16480296e-05, -3.27751804e-05,
       -3.99433219e-07, 6.96851930e-05, 1.43643294e-04, 2.11028429e-03,
       -3.78324650e-04, -4.90345061e-04, -2.40140616e-05,
       -4.17635556e-06, -4.28016065e-05, -4.51039305e-05,
       -7.02920297e-05, 1.29829888e-04, 2.16241600e-03, -3.17549770e-04,
       -4.70665604e-04, -8.59264255e-05, -5.67140632e-05,
       -6.95835479e-05, -2.11725683e-06, -3.91778267e-05, 3.47294088e-04,
       2.11028429e-03, -4.98949725e-04, -2.43676885e-04, 7.64304859e-05,
       -8.38083997e-06, -4.56760681e-05, -7.03793921e-06, 2.61290388e-05,
       4.11848479e-04, 2.11028429e-03, -7.79734051e-04, -5.06661832e-04,
       -9.31839531e-05, -8.33028607e-05, -2.60666304e-04,
       -1.87831334e-04, -5.67799761e-05, -3.77161952e-04, 4.33972431e-03,
       -2.50628189e-04, 1.46782868e-05, -2.30195743e-04, -2.98088358e-04,
       -1.07808877e-03, -5.73242607e-04, -3.44638266e-07,
       -9.89565044e-04, -8.43774342e-06, -1.14326912e-03,
       -3.15289508e-04, -9.21984960e-04, -1.23704853e-03, 4.26195083e-06,
       -6.67207714e-05, 1.83741227e-04, 2.58861284e-04, 4.49248077e-03,
       -1.51818822e-04, 6.88192158e-05, -1.10848312e-04, -7.98580368e-05,
       -8.55814375e-04, -5.85378497e-04, -1.90977851e-04,
       -6.89739885e-04, 1.24147467e-04, -7.43012584e-04, -4.11071582e-04,
       -9.89678898e-04, -1.18267734e-03, -7.70872808e-04,
       -3.84591141e-04, -1.36947019e-05, -5.86680195e-04,
       -1.06712070e-03, -7.01760582e-04, -2.66600837e-04,
       -7.81844952e-04, -1.16712623e-03, 2.23486713e-05, 7.60458533e-06,
       5.42484304e-05, 2.11900962e-03, 4.72582504e-03, 3.08382063e-04,
       6.50181028e-05, 1.68298029e-05, 2.11380593e-05, -1.12043414e-03,
       -6.85504812e-04, -4.79552691e-04, -8.79398431e-04,
       -6.25138870e-04, -7.23883219e-04, -5.10924612e-04,
       -1.50422228e-03, -1.70146464e-03, -9.16191711e-05,
       -8.60358778e-05, -2.49600653e-05, 2.21097446e-03, 4.38949605e-03,
       1.81415235e-04, -7.15579290e-06, -9.82537676e-05, -7.07745494e-05,
       2.24568462e-03, 3.83491366e-04, 1.37447263e-04, 5.31973910e-06,
       3.04973328e-05, 2.49494569e-05, 5.01530048e-05, 2.47696240e-04,
       2.15430767e-03, 2.25528283e-03, 3.60798498e-04, -1.21919875e-04,
       1.56277438e-05, -2.20629247e-03, -5.66762392e-05, -1.67358288e-04,
       1.04185157e-04, 1.35665422e-03, 2.97381403e-03, 2.94175785e-04,
       1.61114469e-04, 5.84848131e-05, 1.87735695e-05, 4.65931698e-05,
       4.34312351e-05, 2.87988922e-04, 2.97381403e-03, 2.54404126e-03,
       1.69426174e-04, -8.79027575e-05, 9.48280358e-05, -3.34742456e-03,
       1.96732639e-04, -1.41590663e-05, 5.89489529e-04, 2.54404126e-03,
       2.73409905e-03, 2.81633635e-04, 5.64348920e-05, 2.35082935e-05,
       -1.30216053e-04, -1.52515331e-05, -3.22810702e-05, 1.02566191e-04,
       1.97815942e-03, 2.14115600e-03, 3.57722980e-04, 2.70479679e-04,
       -4.24693781e-06, -1.90597947e-03, -2.42916611e-03,
       -2.23321817e-03, -3.94692353e-04, 1.74321141e-03, 2.92387512e-03,
       1.26046856e-04, 2.83711743e-05, 4.55303489e-05, -2.14742540e-04,
       1.08757289e-04, -1.15826958e-06, 6.15313533e-04, 2.92387512e-03,
       2.86178128e-03, 2.79270636e-04, 1.06011830e-04, 2.50084813e-05,
       -5.92117372e-04, -4.90306178e-04, -7.77471229e-04,
       -1.86322650e-05, 2.89994339e-03, 1.41333032e-03, 5.90517884e-04,
       7.09452084e-04, 2.90541851e-04, -1.63506265e-04, -8.29063356e-04,
       -8.12989078e-04, -4.03859440e-06, 1.60169916e-03, 1.46220287e-03,
       6.08591770e-04, 4.60332703e-05, 4.12496331e-04, -1.60546260e-04,
       -1.15670846e-03, -1.10065006e-03, -1.08654110e-03, 1.81030866e-03,
       3.20397993e-03, 7.12410198e-04, 4.71844047e-04, 2.08560814e-04,
       2.72673842e-05, -1.78363771e-04, -9.43530758e-04, -1.88205537e-04,
       3.11102113e-03, 3.03173577e-03, 1.34672184e-04, 1.34604750e-04,
       2.47828342e-04, -1.40145959e-04, -9.71253670e-04, -1.29003904e-03,
       -1.06494548e-03, 2.13013776e-03, 1.56227592e-03, 9.61343831e-05,
       -5.34993247e-04, -6.65045518e-05, -2.05332952e-04,
       -7.56600813e-04, -1.06702209e-03, -7.54304056e-04, 1.70875445e-03,
       1.61565130e-03, -3.83147533e-04, -4.97908215e-04, -3.51660972e-04,
       -2.56676547e-04, -3.19737708e-04, -5.19399066e-04,
       -2.71426601e-04, 1.81680382e-03, 2.39632162e-03, -6.71026355e-04,
       -3.38640675e-04, -6.62641833e-05, -2.72256293e-04,
       -6.88949774e-04, -1.09692116e-03, -1.07377046e-03, 1.87447155e-03,
       1.87447155e-03, -1.13739364e-03, -7.92855688e-04, -6.80322584e-04,
       -6.30464579e-04, -4.78246540e-04, -8.70932010e-04,
       -4.18188371e-04, 1.87447155e-03, 2.15112290e-04, -6.06656191e-04,
       -5.97560487e-04, -2.24623509e-04, 3.80077225e-04, 9.43671330e-05,
       -1.51194508e-05, -2.69224722e-04, 5.05303789e-04, -1.04015751e-03,
       -7.43417419e-04, -2.85711954e-04, 8.74110672e-04, 9.93406866e-04,
       2.18057935e-03, 1.19285898e-04, -2.86143681e-04, -1.02607033e-03,
       1.26796798e-03, -7.22905213e-04, -8.74094781e-04, -5.82932378e-04,
       1.19795741e-05, -2.44285475e-04, -1.35784649e-04, -2.65884650e-04,
       1.53164775e-03, 3.30957846e-04, 5.78097010e-04, 6.44385989e-04,
       2.09517078e-03, 7.51394109e-05, 7.51210144e-04, -2.40258323e-05,
       -3.89978522e-04, -5.33334651e-06, -1.44340179e-03,
       -1.32351241e-03, -3.32282361e-04, 9.38726705e-04, 2.17547081e-03,
       1.67301029e-03, -7.85692027e-05, -1.69063074e-04, -1.40087574e-03,
       -1.73245277e-03, -1.52965414e-03, -9.35682037e-04, 1.75891531e-04,
       6.15231693e-04, 9.31994931e-04, -3.06969101e-04, -4.91109735e-04,
       -1.08526065e-03, -1.29837403e-03, -2.60441942e-04, 7.58917653e-04,
       2.43052188e-03, 1.96010503e-03, 1.01482437e-03, -7.07030413e-05,
       -1.98614245e-04, -1.31945999e-03, -1.26750313e-03,
       -9.74594208e-04, 4.85531375e-04, 1.98670384e-03, 6.75803749e-04,
       1.02179276e-03, -1.56257389e-04, -2.27333701e-04, -2.91646342e-04,
       -3.50040820e-04, -9.27251938e-04, -6.71298243e-04, 3.57194949e-05,
       1.83633459e-03, 6.51921902e-04, 1.08293869e-04, -2.15543783e-04,
       -3.97713069e-04, 1.14504139e-04, -9.36570868e-04, -1.05476798e-03,
       -1.16490829e-03, -1.14120031e-03, -1.11816963e-03,
       -1.22374576e-03, -1.01507525e-03, 6.97104610e-04, 1.08748570e-03,
       5.28260625e-06, 6.62330829e-04, 1.41721393e-03, 1.96583220e-03,
       9.36625409e-04, 1.75718378e-04, -3.86970805e-06, 1.93440868e-03,
       1.48926873e-03, -2.58256878e-05, -3.64439271e-04, -7.92144972e-04,
       -1.07897143e-03, -1.20070006e-03, -1.15640741e-03,
       -9.21052531e-04, 1.02327042e-03, 8.82055552e-04, -1.59799340e-04,
       -4.31858527e-04, -9.16396850e-04, -9.02486907e-04,
       -5.19189460e-04, -9.67389322e-04, -8.90928786e-04, 5.03613963e-04,
       3.15900921e-04, -4.53360815e-04, 1.16112482e-04, -4.53161454e-04,
       -4.46112303e-04, 2.10632104e-04, -7.10996217e-04, -8.82589607e-04,
       -3.78759105e-05, 1.94624672e-03, 1.47385421e-04, -1.59340663e-04,
       -4.39141906e-04, -8.29401484e-04, -6.11878932e-04,
       -4.01736266e-04, -9.65515283e-05, 7.49707280e-04, 1.30400958e-03,
       9.17019031e-04, 4.50126623e-04, 3.84607323e-04, -3.78034805e-04,
       2.60415341e-04, 3.50527815e-04, 4.07194748e-04, 6.95248018e-04,
       -7.00358767e-04, -1.06353138e-03, -1.56911730e-04, 8.29795725e-04,
       6.73451694e-04, 5.67845127e-04, -5.85659174e-04, -1.04974001e-03,
       -8.57668172e-04, -6.54528616e-04, -9.93292080e-04,
       -4.05744067e-04, 1.36497407e-03, 1.08811713e-03, 7.57218804e-04,
       -3.39734659e-04, -8.77340848e-04, -6.61143800e-04, 5.10532642e-04,
       1.67322592e-04, 7.49767525e-04, 7.08539854e-04, 7.40290328e-04,
       9.39278747e-04, 3.45136155e-04, 8.60060856e-04, 1.24232363e-04,
       9.71009780e-04, 1.12153159e-03, 1.52218284e-03, 1.20277482e-03,
       4.22135257e-04, 3.06744914e-04, -2.60231318e-04, 2.20082275e-05,
       9.66794440e-04, -8.33345344e-04, -4.68311220e-04, -5.59903929e-05,
       4.25379316e-04, -5.56437953e-06, -1.39578242e-05, -1.00907276e-03,
       -1.26187212e-03, -1.01490400e-03, -1.01134181e-03, 1.98797934e-04,
       1.63131172e-03, 1.63807289e-03, 5.70807315e-04, -3.05700698e-04,
       -1.15622487e-03, -1.11096690e-03, -1.14988117e-03, 1.79549702e-03,
       9.34041978e-04, 4.98011534e-04, -6.28642738e-05, -8.11858452e-04,
       -9.25683300e-04, -9.02161933e-04, -8.22550792e-04, 1.54599780e-03,
       1.76007440e-03, 2.42917705e-03, 2.45554536e-03, 2.37094681e-03,
       -4.47691622e-04, -7.65440054e-05, -1.07299478e-03,
       -1.42303499e-04, 7.13064335e-04, -1.14023290e-03, 7.21513527e-04,
       1.01183762e-03, 5.81727538e-04, -3.66794731e-04, -6.81211939e-04,
       -1.36845675e-03, -1.30320690e-03, -1.16887328e-03,
       -9.09955590e-04, 1.12368201e-03, 7.89175450e-04, 1.45210209e-03,
       3.29495451e-05, -2.02228010e-04, -1.11871865e-04, -1.96100562e-04,
       -5.14774292e-04, -8.84443754e-04, 1.96347176e-03, 1.81958475e-03,
       8.41463800e-04, -1.21721195e-03, -1.23032962e-03, -2.30766810e-03,
       -1.36717956e-03, -1.56560121e-03, 1.06357511e-04, 1.45412504e-03,
       1.09986076e-03, 3.53077281e-04, -8.19074980e-04, -3.17124359e-04,
       -3.91958340e-04, -1.53131737e-06, -2.36097883e-04,
       -1.46324490e-03, 3.88863788e-04, -1.62539116e-04, 5.70309465e-04,
       -1.15944899e-03, -5.99386040e-05, 3.67222565e-05, -1.27731300e-05,
       -4.37515962e-04, -7.84806252e-05, 5.68446238e-04, 5.59413864e-04,
       1.68961735e-04, -4.94827575e-04, -1.77839654e-04, -1.65526490e-05,
       1.05788022e-04, 3.03540874e-04, -9.28481768e-06, 1.06809137e-03,
       7.02200050e-04, 1.99727001e-04, -1.37879280e-03, -1.10820190e-04,
       -3.37731399e-05, 2.47635675e-04, -1.77514739e-04, 1.62172146e-04,
       2.08745152e-03, 2.19213264e-03, 2.22458481e-03, 6.44407235e-04,
       1.27327308e-04, 8.37063853e-05, 1.94969616e-04, -2.34029521e-05,
       -4.32212197e-04, 1.46131060e-04, 7.14562251e-04, 3.92739341e-04,
       -1.06169854e-03, -5.10288402e-04, -3.71439528e-04,
       -5.11822815e-04, -1.54092326e-04, 1.98940281e-04, 1.05521164e-03,
       1.83579233e-03, 9.93657042e-04, 6.73369155e-04, 4.01559024e-04,
       1.23714781e-04, 2.45169963e-06, 2.05213888e-04, 2.45300645e-04,
       2.06843321e-03, 2.25376710e-03, 2.27835355e-03, 9.75611154e-04,
       2.23374736e-04, -2.54625600e-04, -2.26850432e-04, 3.97313670e-05,
       1.93930056e-03, 6.76186406e-04, 1.37721421e-03, 9.32032592e-04,
       6.57407683e-04, 3.87026754e-04, 6.11003197e-05, 1.59788295e-04,
       1.69216865e-03, 3.54037387e-04, 5.48011158e-04, 4.69409570e-04,
       4.69170656e-04, 1.51339045e-03, 6.35937031e-04, 1.83161173e-04,
       2.87979434e-04, 2.24115225e-04, 8.90505398e-05, 1.97076064e-04,
       1.19324221e-04, 7.92776933e-04, 1.47951447e-04, 1.78637938e-03,
       1.20177720e-04, 1.21615791e-04, 1.02089725e-04, 2.56503816e-03,
       7.83995201e-04, 2.51637248e-04, 1.75418099e-04, 1.04776351e-03,
       6.32687705e-04, 3.81141319e-04, 3.97486263e-04, 2.02682381e-03,
       1.08323060e-03, 9.76577518e-04, 3.65267595e-04, 5.11943188e-04,
       1.47951447e-04, 3.13248159e-03, 1.23441929e-03, 3.30185139e-04,
       6.10864372e-04, -4.11610636e-05, 1.41010343e-04, 6.57484707e-05,
       8.31884623e-04, 1.65168766e-03, 8.52266152e-04, -3.54657859e-05,
       1.61400385e-04, 6.08703849e-05, -1.30448476e-04, 1.02324098e-04,
       -3.13275668e-05, 1.89271581e-04, 5.53202932e-04, -1.23843353e-03,
       -1.61997261e-04, 2.24664036e-04, 4.19524149e-05, 1.44229838e-04,
       3.52732750e-04, 2.46996846e-04, 7.15107890e-04, 1.65168766e-03,
       2.70347320e-03, 7.08747713e-04, 2.81442364e-04, 1.05988147e-04,
       -2.17054276e-05, 1.64168465e-04, 3.98506410e-04, 1.54958887e-03,
       6.65612635e-04, -3.89538269e-04, -1.57009985e-04, 1.31183479e-04,
       6.75998963e-05, -8.78329301e-05, -1.72532691e-06, -7.44557547e-05,
       4.15145536e-04, 2.14224937e-03, -1.06452813e-03, -2.69191689e-04,
       6.09671952e-06, -3.14066710e-05, -3.17167542e-05, -1.97562040e-05,
       -2.67987361e-05, 2.58591142e-04, 2.14224937e-03, -1.25645380e-03,
       -5.76115039e-04, -1.03776452e-04, -8.56030092e-05,
       -2.09087957e-05, 2.79784836e-05, 1.84383942e-04, 1.30828237e-03,
       2.14224937e-03, -8.18665198e-04, -3.69753980e-04, -1.14887065e-04,
       -6.22313382e-05, -3.91493586e-06, -3.78263721e-05,
       -2.27478286e-05, 1.18215998e-04, 2.14224937e-03, -1.38243986e-03,
       -6.27029280e-04, -1.78780945e-04, -6.31945659e-05, 1.85208974e-05,
       -8.27311742e-05, 6.54601245e-05, 2.12389743e-04, 4.58620675e-03,
       -2.75273924e-04, -6.68164066e-05, -8.79520521e-05,
       -9.07189533e-05, -1.05812086e-03, -7.16943818e-04,
       -5.23160503e-04, -7.31871813e-04, -3.78938508e-04,
       -5.79592597e-04, -5.49836957e-04, -1.01208151e-03,
       -1.28628407e-03, 9.65621803e-05, -7.72580242e-05, -3.18743005e-05,
       -1.23531659e-04, 4.34169080e-03, -3.85053718e-04, -1.62359211e-04,
       -2.08985250e-04, -2.23873776e-05, -8.40754423e-04,
       -4.84007789e-04, -1.52876542e-04, -6.26141322e-04,
       -5.69222146e-04, -9.95802227e-04, -4.21737903e-04,
       -1.11683225e-03, -7.70571874e-04, -9.52023431e-04,
       -4.92794614e-04, -3.36103374e-04, -4.81787574e-04,
       -4.77500929e-04, -3.87420470e-04, -4.15821589e-04,
       -1.06736447e-03, -1.33036112e-03, -1.60651995e-04,
       -7.93598447e-05, -3.90560199e-05, 8.97412130e-04, 4.66111582e-03,
       4.51460539e-04, -6.24624881e-05, -2.03078525e-04, -1.83752651e-04,
       -1.17782259e-03, -4.59321513e-04, -1.83537326e-04,
       -4.93054977e-04, -3.46292800e-04, -1.13719422e-03,
       -6.76420226e-04, -1.47216930e-03, -1.12669973e-03,
       -3.38118640e-04, -8.47332631e-05, -2.73931910e-05, 4.94826119e-04,
       4.06580651e-03, 3.07320355e-04, -2.63851776e-04, -4.79065406e-04,
       -3.60306556e-04, 2.28941324e-03, 5.74234698e-04, 6.47234672e-04,
       4.92185180e-04, 1.89353581e-04, 1.09226101e-04, 8.66151604e-05,
       7.03225087e-04, 2.28941324e-03, 1.65548932e-03, 1.04513485e-03,
       8.93665419e-04, 1.13785604e-03, -3.22405854e-03, 6.54855801e-04,
       8.24661911e-05, 7.12629524e-04, 1.65548932e-03, 2.28941324e-03,
       9.71788075e-04, 8.04240000e-04, 5.57139923e-04, 2.44931085e-04,
       1.18912518e-04, 1.71510590e-04, 8.47411167e-04, 2.28941324e-03,
       1.81315222e-03, 2.04568752e-03, 1.51590444e-03, 1.35711802e-03,
       -5.53990481e-04, 8.31196259e-04, 2.97554332e-04, 6.74641633e-04,
       1.48026471e-03, 2.41925195e-03, 6.71432179e-04, 2.03679476e-04,
       6.09572744e-04, -9.06420639e-04, 6.43305772e-04, 8.43865855e-05,
       8.08276061e-04, 2.41925195e-03, 1.59672834e-03, -1.03849417e-03,
       -1.24580355e-03, -4.35272814e-04, -2.85427016e-03,
       -3.25458386e-04, -2.93814752e-04, 1.15153707e-04, 1.69686531e-03,
       1.72288704e-03, 1.33546209e-03, 7.89225567e-04, 8.55770602e-04,
       2.07073914e-04, 1.04662753e-03, 3.23365472e-04, 5.21687849e-04,
       1.62156450e-03, 2.00665183e-03, 7.87339304e-05, -1.00429621e-04,
       -1.79037052e-05, -7.01193174e-04, 1.49532323e-04, -1.01381156e-04,
       3.62193496e-05, 1.67047523e-03, 2.54341192e-03, -1.66773942e-04,
       -2.24603631e-04, -1.26676576e-04, -3.42620566e-04,
       -2.84684269e-04, -5.18868328e-04, -2.13843392e-04, 2.37948447e-03,
       1.65589200e-03, -5.50062745e-04, -2.83634145e-04, -2.41127738e-04,
       -4.04145452e-04, -1.19459885e-03, -2.25526025e-03,
       -2.17125565e-03, 4.89425147e-04, 2.63963058e-03, 3.21681932e-06,
       7.24948040e-06, -3.35559816e-05, -1.33339154e-05, -2.14590073e-05,
       4.64361761e-07, 9.44851035e-06, 2.40975106e-03, 2.46612099e-03,
       -3.92694128e-05, -2.50346111e-05, -6.24331733e-05,
       -4.59146249e-05, -4.52021122e-05, -6.58609424e-05,
       -3.80273268e-05, 2.31649936e-03, 1.31084397e-03, -1.24845339e-03,
       -6.08074421e-04, -2.51077348e-04, -2.76049570e-04,
       -3.59407859e-04, -1.44808844e-03, -1.33699609e-03, 1.31084397e-03,
       1.31084397e-03, -1.42389536e-03, -1.16252073e-03, -6.98882388e-04,
       -6.31513947e-04, -2.99813517e-04, -7.12052279e-04,
       -2.91734003e-04, 1.31084397e-03, 2.35885731e-03, -1.52177463e-05,
       2.36180108e-06, -3.55355369e-05, -2.41054095e-05, -1.35127284e-05,
       -9.17322268e-06, 7.68964965e-05, 2.40624347e-03, 2.62324745e-03,
       -7.67110760e-06, -3.11331278e-05, -4.67381542e-05,
       -1.48705985e-05, -2.65795325e-06, 1.25376955e-05, 1.10313587e-04,
       2.62636575e-03, 7.31739216e-04, -1.10226334e-03, -1.53973699e-03,
       -1.22934917e-03, -6.48175017e-04, -4.81191993e-04,
       -2.95878155e-04, -1.77804468e-04, 7.31739216e-04, 1.43626065e-04,
       8.01824091e-04, -1.59323608e-04, 1.21060398e-03, -6.28364971e-04,
       3.80457786e-04, -1.84374003e-05, -3.76091702e-05, 2.04603391e-04,
       2.08274252e-03, 1.82767413e-04, -7.41407130e-05, 5.83356923e-05,
       1.85985598e-04, 8.22738293e-05, 6.01378124e-05, 1.45928105e-04,
       2.29905383e-03, 8.24386370e-04, 3.75362259e-04, 6.09640483e-06,
       1.63489149e-03, 1.48435682e-03, 1.14752166e-03, 2.61285604e-04,
       5.77454048e-04, 1.02487928e-03, -2.61476007e-03, 2.34797280e-05,
       5.56729618e-04, 2.00607977e-03, 1.32362870e-03, 1.00406108e-03,
       2.93656576e-05, -3.18897764e-05, -2.60882149e-03, -2.53327843e-03,
       -1.42418197e-04, 4.59523028e-04, 1.82303751e-03, 3.15352081e-04,
       1.30595011e-03, -1.26427520e-04, -3.38294281e-04, -1.50491577e-03,
       -2.10142811e-04, 1.44041522e-04, 1.36404196e-04, 1.45323586e-03,
       2.07697251e-03, 1.66264689e-03, 3.26615322e-04, 2.45394505e-04,
       -1.59816918e-04, -5.36576961e-04, 2.01941657e-04, -9.01891690e-05,
       1.31488987e-03, 1.87131308e-03, 2.18494236e-03, 3.66751716e-04,
       2.31650352e-04, -5.89255127e-04, 3.76501062e-04, -1.47418305e-05,
       8.27821859e-05, 1.71323062e-03, 1.24034274e-03, 9.20699851e-04,
       -2.09330959e-04, 5.60558401e-05, 1.09851803e-03, 7.08959822e-04,
       -1.13795756e-03, -9.64540232e-04, -9.49298555e-04,
       -2.01817113e-03, -1.44773314e-03, -1.85210106e-03,
       -9.84292827e-04, 8.23717273e-04, 3.08853691e-04, 4.74776869e-04,
       2.12868745e-05, 1.29632221e-03, 1.98337133e-03, 1.72041939e-03,
       1.62660042e-04, 4.58623545e-04, 6.53769006e-04, 4.89067228e-04,
       4.28222032e-04, -7.06208175e-06, -4.43604622e-05, -1.05815008e-03,
       -1.04944257e-03, -1.28573587e-03, 3.19339946e-04, 1.09981222e-03,
       1.28367834e-03, -3.45291453e-04, -3.65978805e-04, 2.69034732e-04,
       -9.27319692e-04, -5.33864077e-04, -5.50752738e-04,
       -1.17751661e-04, 9.97044262e-04, -7.05307582e-04, 4.66020574e-04,
       1.54279158e-04, 1.66694296e-03, 2.11510982e-04, 4.31940018e-04,
       4.74747503e-04, 6.35559147e-04, -1.41647609e-03, 6.36270794e-04,
       4.78274713e-04, 1.90046165e-04, 1.07149128e-03, 2.77912332e-04,
       -1.92812193e-04, -4.74650995e-04, -6.53109164e-05, 8.14989908e-04,
       1.48899402e-04, 8.40003835e-04, 9.59514873e-04, 1.89903169e-03,
       1.40710210e-03, 9.63892962e-04, 1.20897486e-04, -2.89423060e-05,
       -1.10683213e-04, -2.32089730e-03, 1.19793440e-05, 1.08384877e-04,
       4.18801472e-04, 2.01035611e-04, 7.85597804e-05, -3.15405632e-04,
       -2.90245109e-04, -2.14499165e-03, 9.28463705e-04, 1.78582501e-03,
       2.87254603e-04, 2.82590860e-04, -3.23294225e-04, -3.32718744e-04,
       -7.86211865e-04, -1.16477080e-03, -6.71103946e-04,
       -7.22737386e-05, 1.49227236e-03, 2.18160241e-03, 9.13792581e-04,
       6.58640172e-04, 7.23757694e-05, -2.83464295e-04, -1.64444529e-04,
       -3.26332607e-04, 1.62115402e-03, 2.52872868e-03, 2.09653610e-03,
       5.71681012e-04, 7.28012819e-05, -1.09173910e-04, -4.51600208e-04,
       -4.24641272e-04, -2.89569725e-04, 1.23426097e-03, 1.98023673e-03,
       7.60778421e-05, -3.67080531e-04, -1.89581374e-03, -9.75300383e-04,
       -1.12067384e-03, -1.34035759e-03, -1.02276099e-04,
       -5.20982256e-04, 2.09308439e-03, 1.87985983e-03, 5.04920783e-04,
       -1.87443884e-03, -3.13019234e-04, -5.65506110e-04,
       -7.72895000e-04, -2.38978420e-03, 1.44606328e-03, 2.33875494e-03,
       1.93094078e-03, -2.80519685e-04, -1.33223296e-03, -8.24595219e-04,
       -8.37435015e-04, -5.96149068e-04, -2.35618572e-04, 1.00170146e-03,
       2.31835712e-03, 2.12542573e-03, 4.60234296e-04, -1.32002949e-03,
       -1.92733103e-04, -4.18556738e-04, -1.95465705e-04,
       -2.86224182e-04, -1.63711305e-03, 2.03563413e-03, 2.09650747e-03,
       4.98473877e-04, -5.57231600e-04, -4.28245199e-04, -6.03088352e-04,
       -5.32032282e-04, -2.34775431e-03, -5.88133524e-04, 2.02969788e-03,
       2.14870414e-03, -1.01332334e-04, -5.34717634e-04, -2.58552551e-04,
       -4.45066253e-04, -4.09439555e-04, -1.04342017e-03,
       -3.18475213e-04, 1.75057538e-03, 1.05575740e-03, -8.40305147e-05,
       -4.32126573e-04, -4.49223735e-04, -7.35467649e-04,
       -3.96197371e-04, -6.55664480e-04, -6.56347955e-04, 1.85946678e-03,
       2.00825837e-03, 1.60238687e-05, -3.88897955e-04, -5.72464778e-04,
       -5.82911074e-04, -3.82472208e-04, -9.28255729e-04,
       -9.00816929e-04, 1.61542860e-03, 1.61746657e-03, 2.72765057e-04,
       -1.25950330e-03, -3.25213157e-04, -4.63827862e-04,
       -4.72646963e-04, -1.32276712e-03, -1.30164390e-03, 6.01424719e-04,
       1.57574541e-03, 1.84648205e-03, -1.20037189e-03, -2.32424209e-04,
       -2.59136286e-04, -1.43340556e-04, -1.38344639e-03,
       -1.37847161e-03, 1.57532259e-03, 1.69223198e-03, 4.45856422e-04,
       -7.46313366e-04, -6.82268699e-04, -8.86424270e-04,
       -8.78685212e-04, -1.67206454e-03, -1.24934083e-03, 1.73341949e-03,
       1.30384637e-03, 1.61849544e-03, -7.90222024e-04, -3.96303396e-04,
       -3.54747288e-04, -5.56767453e-04, -9.66862601e-04,
       -4.76245419e-04, 1.05504273e-03, 1.50618877e-03, 2.37541366e-03,
       -2.24264781e-03, -7.00259670e-06, -4.06060019e-04,
       -1.17557123e-04, -4.34841728e-04, 2.20342516e-03, 5.96769562e-04,
       7.61334377e-04, 5.87481947e-04, -1.12260121e-03, 7.03943297e-05,
       -7.91699640e-05, 2.25832904e-04, 2.22266070e-03, -1.35865982e-03,
       2.35600543e-04, 7.29382853e-04, 1.80557114e-03, -9.42119223e-04,
       -6.72261755e-04, -2.11147402e-04, -3.84226994e-04,
       -3.50873568e-04, 5.80389693e-04, -2.98670580e-04, -5.18434972e-04,
       4.41835145e-05, -7.48732244e-04, -2.46565527e-04, -1.36537245e-04,
       -6.75406700e-05, 8.77510349e-04, 2.26253341e-03, 4.50668304e-04,
       2.96096755e-06, 1.18146063e-05, 6.72662398e-04, 1.81720563e-04,
       1.58842609e-04, 2.84221838e-04, 2.13383697e-03, 6.14018471e-04,
       7.25679391e-04, 1.34409900e-04, 3.29611852e-04, 8.03539879e-04,
       1.73607527e-03, 6.82194193e-04, 1.15689734e-04, 3.15662677e-04,
       4.30946420e-05, -3.68847715e-04, -3.12545308e-04, -3.23409797e-04,
       9.03662120e-04, -2.85703485e-04, -4.51487780e-04, -2.32299542e-04,
       2.98060681e-04, -1.18213601e-03, -3.44666827e-04, -2.85567250e-04,
       3.29467410e-04, 3.73710704e-04, 2.22768300e-04, -7.59818067e-04,
       -6.57522236e-04, -1.06524804e-03, -1.64934681e-04, 2.88872019e-04,
       1.18631760e-04, 5.83885238e-04, 2.16188701e-03, 1.74701179e-03,
       4.69028659e-04, 7.73309221e-05, -3.28965078e-04, -3.20665917e-04,
       1.07485161e-04, 4.36664297e-04, 1.04339037e-03, -6.69415167e-04,
       5.09441852e-05, -2.33176561e-05, 6.13626471e-05, -3.89922410e-04,
       -1.03566714e-03, -2.10339102e-04, -3.61503364e-04, 5.48687938e-04,
       1.53161795e-03, 7.16136768e-04, -2.51493126e-04, -2.74709193e-04,
       -1.03120960e-03, -1.14640943e-03, -2.81099259e-04, 1.95395434e-04,
       1.65273697e-04, -1.38011796e-03, 2.78166786e-04, -1.48858395e-04,
       -2.07571502e-04, -1.40266889e-03, -1.77482347e-04,
       -2.30311944e-05, 3.06542643e-04, 1.05614669e-03, 1.79517898e-03,
       -5.26318385e-04, -2.62220477e-04, -5.99240557e-05,
       -3.38446407e-04, -3.50908929e-04, -7.85771335e-05,
       -6.92474059e-05, 9.32157418e-05, 1.70863874e-03, -1.62250816e-03,
       -6.76212832e-04, -2.85234506e-04, -4.55850619e-04,
       -1.08867534e-03, -3.08388117e-04, 2.50883051e-04, 3.65705608e-04,
       7.71201390e-04, -2.89687829e-04, -3.35031771e-04, -4.46215476e-04,
       -1.55104068e-03, -1.04671507e-03, -1.65653983e-04,
       -1.59946925e-04, 3.02616856e-04, 1.00614759e-03, -1.60049030e-03,
       -5.88136434e-04, -6.48461631e-04, -1.33857934e-03,
       -5.02524781e-04, -1.23816193e-04, -1.42734993e-04,
       -1.33493115e-04, 3.57915391e-03, -1.08550198e-03, -4.91581915e-04,
       -4.25878156e-04, -5.67656592e-04, -6.88574684e-04,
       -4.90078586e-04, -2.44218187e-04, -4.72727901e-04,
       -1.01875223e-03, -1.29938812e-03, -4.29455918e-04,
       -1.18875445e-03, -6.20617066e-04, -1.03993597e-03,
       -4.13356000e-04, -4.10857756e-04, 1.62009292e-05, 3.08983400e-03,
       -1.54971168e-03, -3.40892497e-04, -4.88057500e-04,
       -1.19188533e-03, -7.92570994e-04, -1.13086973e-03,
       -9.32489114e-04, -6.01988519e-04, -1.45069987e-03,
       -9.68916924e-04, -2.36480249e-04, -1.02465332e-03,
       -6.72343362e-04, -7.20750715e-04, -5.34567342e-04,
       -3.28258902e-04, -4.59550240e-04, -7.69491773e-04,
       -9.56708100e-04, -6.17840968e-04, -1.24968588e-03,
       -7.63242191e-04, -5.76684484e-04, -2.22219154e-04,
       -2.04757103e-04, 5.93719829e-04, 3.58629203e-03, -1.01400772e-04,
       -3.94236296e-04, -7.05028593e-04, -6.65581203e-04,
       -1.17021857e-03, -1.13486336e-03, -1.04204495e-03,
       -8.97048158e-04, -1.65484217e-03, -1.21065101e-03,
       -6.77422155e-04, -1.68928877e-03, -9.88303684e-04,
       -1.03027886e-03, -7.96602573e-04, -1.23161334e-03, 1.42993859e-03,
       2.30542710e-03, -7.42637494e-04, -7.14927970e-04, -1.56336429e-03,
       -8.78719788e-04, 2.51552975e-03, 6.03695109e-04, 2.96473969e-04,
       1.13382659e-04, 5.87546274e-05, 9.02757674e-05, 1.61204531e-04,
       3.98945471e-04, 2.51552975e-03, 1.84050598e-03, 1.01215614e-03,
       6.40803424e-04, 3.22349631e-04, -3.10677045e-04, 5.43447095e-04,
       5.52687678e-04, 8.56764265e-04, 1.84050598e-03, 1.99366454e-03,
       4.81147261e-04, 1.93687432e-04, 7.84434305e-05, 9.72144189e-05,
       1.91660292e-04, 2.22153118e-04, 3.06566304e-04, 2.51552975e-03,
       1.91394158e-03, 3.86419677e-04, 2.81642337e-04, 9.09746275e-04,
       2.51552975e-03, 7.64383993e-04, 7.77464127e-04, 9.12930584e-04,
       2.51552975e-03, 1.42717105e-03, 7.87384517e-04, 6.32327574e-04,
       5.21654612e-04, 1.10481319e-03, 9.63617931e-04, 6.26486144e-04,
       8.93681834e-04, 1.89979048e-03, -4.40758944e-04, 1.89820639e-04,
       4.00138561e-05, 9.80634795e-05, 1.53928369e-04, 2.55768129e-04,
       -1.30574088e-04, -1.15124436e-04, -1.00434199e-03, 1.36982196e-03,
       2.46764568e-04, 2.56409985e-04, 2.21618684e-03, 2.73698801e-03,
       1.44961756e-03, 1.09718775e-03, 9.85693536e-04, 2.64108065e-03,
       7.78699992e-04, 1.73116889e-04, 2.74462189e-04, 6.52917312e-04,
       2.19313637e-03, 3.63223400e-04, 2.91767676e-04, 2.43042712e-04,
       1.59875152e-03, 1.72276713e-03, 6.99353841e-05, 3.09869392e-05,
       -2.27566125e-04, -6.34881362e-05, -1.32758316e-04, 8.81745364e-05,
       -2.28408885e-06, 1.09807344e-03, 3.63307452e-04, -1.29916822e-04,
       2.93663634e-05, -2.63546157e-04, -2.62529677e-04, -4.13159636e-04,
       -1.49996158e-05, -5.26597660e-06, 4.23969672e-04, 1.44452637e-03,
       1.44080681e-04, 2.21810144e-04, 4.43322278e-06, 1.09273933e-04,
       1.01967344e-05, 4.00475605e-04, 3.00387648e-04, 2.91486550e-03,
       2.60255742e-03, 1.41523313e-04, 8.39482964e-05, 0.,
       3.31083320e-05, 3.89099114e-05, 1.80334173e-04, 2.48211407e-04,
       2.93337717e-03, 3.35340534e-04, -1.17325311e-04, 2.32110524e-05,
       -2.77926098e-04, -1.67958977e-04, -2.30235295e-04,
       -6.13750090e-05, -9.15019264e-05, 7.52670399e-04, 1.31875742e-03,
       -3.86650616e-04, -2.14253218e-04, -3.86535306e-04,
       -7.59900577e-05, -2.66695279e-05, 2.08004076e-05, -2.30214573e-05,
       1.15517236e-03, 2.10940116e-03, 1.85157987e-04, 1.94147127e-04,
       1.72481691e-07, 5.88246185e-05, 3.71336464e-05, 1.91995841e-05,
       2.72253645e-04, 2.92600901e-03, 1.75685075e-03, 2.01172021e-04,
       3.67587520e-04, 1.37105953e-05, 1.96328663e-04, 2.82443107e-05,
       3.54672266e-05, 5.96786907e-04, 2.94212578e-03, 2.53549457e-04,
       -1.82444724e-04, -3.78797180e-04, 1.07603875e-04, 1.90229388e-04,
       2.79458094e-04, 2.09128615e-04, 2.31956597e-06, 6.40068436e-04,
       -1.10141153e-03, 4.02170321e-04, 2.13506355e-04, 2.73588463e-03,
       1.98325422e-03, 2.50866450e-03, 7.04019680e-04, -3.79436184e-04,
       -2.16342183e-03, 9.54391551e-04, 2.94156926e-04, 2.34722829e-04,
       2.17340785e-04, 4.16680530e-04, 4.12032095e-04, 1.86206860e-04,
       3.05090536e-04, 1.57977559e-03, 6.26987952e-04, 4.21324308e-04,
       5.23387629e-04, 2.61791283e-03, 2.73588463e-03, 2.73588463e-03,
       8.16027226e-04, 3.30157607e-04, 5.89014555e-04, -2.50461837e-03,
       2.75800936e-04, 1.99737828e-04, 1.51800830e-03, 1.25108601e-03,
       1.27100514e-03, 5.21239883e-04, -2.97851220e-04, -3.07855289e-03,
       -2.33385456e-03, 9.75101721e-04, 4.53707646e-04, 9.41179111e-04,
       6.01340260e-04, 1.56101899e-03, 8.15790961e-04, 7.21732853e-04,
       -2.16564396e-03, 2.85842194e-04, 5.07369055e-04, 5.78909356e-04,
       1.75569439e-03, 1.96822057e-03, 1.52848009e-03, 1.06892933e-03,
       5.66196744e-04, 2.98216182e-04, 1.52653467e-03, 1.94462726e-03,
       1.28346600e-03, 1.96822057e-03, 1.43611664e-03, 1.96822057e-03,
       1.96822057e-03, 1.90998625e-03, 1.14282104e-03, -7.38140137e-04,
       6.86218729e-04, 3.23547574e-04, 9.16001562e-04, 1.61740137e-03,
       1.38426991e-03, 5.10728045e-04, 6.66252919e-04, -3.67451983e-04,
       -2.11656583e-03, 4.95721644e-04, 1.48341904e-04, 8.19181878e-05,
       -1.36729935e-03, -1.12141517e-03, -1.60203199e-03, 1.76198198e-04,
       -1.82906876e-03, 1.50243193e-03, 1.40868477e-03, 1.07958482e-03,
       1.37998408e-03, 1.32476818e-03, 1.98760163e-03, 1.98760163e-03,
       1.98760163e-03, 1.51865254e-03, 1.72005466e-03, 1.61908206e-03,
       1.47381064e-03, 1.13677618e-03, -2.20441827e-04, 1.28954940e-03,
       1.08831469e-03, 1.94173702e-03, 1.75235362e-03, -2.01332266e-03,
       3.26048437e-04, 6.88056607e-05, 3.44856846e-04, -1.54393143e-04,
       -4.12673326e-05, -7.49387022e-04, -3.33525997e-04,
       -2.10271659e-03, -5.08702244e-04, 2.23202142e-03, 2.12817080e-03,
       1.00789347e-03, 2.19819616e-04, -2.73445097e-04, -8.27471842e-04,
       -8.13200139e-04, -1.05793227e-03, 2.09172931e-03, 2.54493300e-03,
       1.67163450e-03, 4.73253691e-04, -5.29715289e-05, 2.85456714e-04,
       -2.32452032e-04, 8.67098395e-04, 1.34967593e-03, 2.48677447e-03,
       2.34492100e-03, 2.34040688e-03, 3.13490134e-04, -5.79646090e-04,
       -7.14608934e-04, -9.00118903e-04, -5.43915899e-04, 4.12194466e-04,
       -8.40642082e-04, 2.22772313e-03, 2.06010602e-03, 4.33647976e-04,
       -6.90325323e-05, -4.67388454e-04, -1.21737621e-03,
       -6.10903255e-04, -1.13712414e-03, -1.28835451e-03, 2.28322716e-03,
       1.98888779e-03, 6.49952708e-05, -7.46074540e-04, -3.73967894e-04,
       -1.10379222e-03, -1.14318717e-03, -2.14109477e-03, 7.61420350e-04,
       1.76648737e-03, 1.76648737e-03, -2.98274244e-04, -6.31783099e-04,
       -7.85781245e-04, -7.54588575e-04, -4.78092639e-04, 1.89016675e-04,
       1.04000361e-03, 1.76648737e-03, 1.69357122e-03, -4.42701683e-04,
       -4.38999559e-04, -3.30017356e-04, -3.60239996e-04,
       -1.63134828e-04, 3.60681093e-04, -6.92153932e-04, 2.40455079e-03,
       2.31517572e-03, 2.21794107e-06, -1.48805883e-03, -3.61243001e-04,
       -8.46847717e-04, -7.71190855e-04, -1.51576742e-03,
       -9.30019422e-04, 2.44099926e-03, 2.42347433e-03, 5.35605650e-04,
       -1.94742053e-03, -4.87357247e-05, -6.80842204e-04,
       -5.64136950e-04, -1.49234955e-03, 1.66261604e-03, 2.21059960e-03,
       1.07440155e-03, 3.63887259e-04, -3.39010381e-04, -2.51863647e-04,
       -7.25227990e-04, -6.45324588e-04, 3.12342308e-04, 1.44936854e-03,
       2.29574740e-03, 2.21676379e-03, 5.77693048e-04, -2.95488426e-04,
       -6.09210285e-04, -7.09783926e-04, -7.28426792e-04,
       -3.09441122e-04, -1.19279220e-03, 2.29541142e-03, 1.91596616e-03,
       3.59255791e-04, -3.98519536e-04, 9.69981775e-05, -5.73333120e-04,
       -3.48065165e-04, -1.95719907e-03, -1.85235264e-03, 1.42552855e-03,
       2.11542798e-03, 6.12923235e-04, -8.16943357e-05, 2.54762199e-05,
       -8.65690294e-04, -3.20551801e-04, -2.23006587e-03, 8.55356280e-04,
       2.13628169e-03, 2.32508662e-03, 1.35836453e-04, -2.34641600e-04,
       -4.65136371e-04, -7.61739851e-04, -7.43501121e-04,
       -4.76084620e-04, 2.11790830e-04, 1.63793331e-03, 2.19812058e-03,
       2.13317908e-04, -7.47007198e-06, 1.20214208e-05, -3.75893287e-04,
       -3.96512682e-04, -6.42507948e-05, -1.52448157e-03, 1.55917043e-03,
       2.36491719e-03, 8.45774310e-04, -4.02808102e-04, 1.13530681e-04,
       -2.86068796e-04, -1.59069503e-04, -1.82315509e-03,
       -1.74892903e-03, 2.23303935e-03, 1.97919738e-03, 7.26828177e-04,
       -7.77301670e-04, 2.58089975e-04, 4.32003435e-04, 3.32075637e-04,
       -1.34495902e-03, 7.13499147e-04, 1.87376048e-03, 2.15628417e-03,
       4.32676228e-04, 1.27342879e-04, 2.96882179e-04, -3.61429011e-05,
       -2.73107085e-04, 3.55884840e-04, 5.14792278e-04, 9.66938096e-04,
       1.05731445e-03, 7.35162932e-04, 4.94828797e-04, 9.25428525e-04,
       4.46633610e-04, -3.49730079e-04, 3.06075206e-04, -1.29354384e-03,
       9.36247990e-04, 1.01505278e-03, 8.99848004e-04, -9.60480829e-05,
       1.92388994e-04, 5.65050170e-04, 9.73016373e-04, -4.33315261e-04,
       1.04992441e-03, 7.39831012e-04, 2.98180355e-04, 6.24600681e-04,
       4.85785160e-04, 1.37129711e-04, 2.15451691e-05, 1.47072686e-04,
       1.12317456e-03, 1.27926515e-03, 7.31989392e-04, 1.33924582e-03,
       1.01630460e-03, 9.23566346e-04, 9.00296203e-04, 6.42122643e-04,
       3.75297939e-04, 1.27926515e-03, 1.28905312e-03, 6.48918853e-04,
       3.41571023e-04, 1.09982873e-04, 3.04281391e-04, -6.82628233e-05,
       -8.49773816e-04, -3.36411264e-04, 1.27926515e-03, 5.96822007e-04,
       2.10984188e-04, 1.97208923e-04, 2.01064788e-04, 1.45187601e-03,
       1.65865829e-04, 1.49071211e-05, 1.67843376e-04, 5.71172452e-04,
       1.97024114e-04, 2.00125596e-05, 1.41730197e-04, 5.88308962e-04,
       9.63134458e-04, 6.30981871e-04, 6.95673907e-06, 1.72596148e-04,
       -2.57935153e-05, 1.34546170e-03, 1.22176614e-04, -3.29652132e-04,
       -4.04727791e-04, 8.17906461e-04, -3.24995664e-04, -8.50798620e-04,
       -5.06039476e-04, 1.58407097e-03, 1.29592459e-04, -7.61773495e-04,
       8.10127458e-05, 9.22687701e-04, 8.84675654e-04, 9.67954111e-04,
       -9.31748131e-04, -1.70729094e-04, -1.40615695e-04,
       -1.89731887e-04, -4.45666774e-05, 1.17897849e-04, 5.75490703e-04,
       1.80146156e-03, 8.90918425e-04, 4.68964972e-05, 1.70560033e-05,
       -2.33819912e-04, -3.06940492e-04, -5.96089376e-06, 2.66539282e-04,
       5.33919956e-04, -4.96755994e-04, 7.88252975e-04, 1.01864556e-04,
       5.21120019e-05, -1.79752606e-04, -1.03028037e-03, -1.09009689e-03,
       1.01187412e-04, 1.07769156e-03, 1.74226251e-03, 1.44845550e-03,
       -5.56144281e-04, -4.47830389e-04, -1.01479632e-03,
       -1.07229664e-03, -9.78920609e-04, 2.80928158e-04, 1.39493600e-03,
       8.55090562e-04, 1.15543278e-03, -7.56686146e-04, -6.94325077e-04,
       -6.44483312e-04, -3.25822883e-04, -1.57025534e-05, 1.27790918e-04,
       8.59183667e-04, 1.19240966e-03, 3.83100647e-04, -1.86233301e-05,
       6.52966628e-05, -1.03482322e-04, -3.59109807e-04, -1.02211663e-04,
       -1.62896598e-04, 2.64840928e-04, 1.21260318e-03, -1.29354885e-03,
       -4.21289762e-04, -1.03621933e-04, -3.27727117e-04,
       -1.04739354e-03, -8.59085761e-04, 1.02877726e-04, 1.79533951e-03,
       8.81745829e-04, 2.43088952e-03, -4.60170704e-04, -1.93708533e-04,
       1.60526251e-04, -1.14690082e-03, -1.22256088e-03, -1.21254113e-03,
       -5.99023988e-05, 1.16072036e-03, 3.89865047e-04, -1.46130705e-03,
       -2.31534461e-04, -5.92502591e-04, -6.16379257e-05,
       -2.05564320e-05, 4.37192193e-06, -7.73146385e-05, 3.39052547e-03,
       -1.48805650e-03, -6.00767962e-05, -1.11910886e-05,
       -1.54928683e-04, 2.18764661e-04, -1.72576038e-04, -1.10326233e-04,
       -3.34213575e-04, -4.89678059e-04, -7.68758473e-04,
       -1.87884027e-04, -3.65851971e-04, 3.37618752e-04, -8.63927708e-04,
       -7.11464148e-04, -4.30170709e-04, -9.52834904e-04, 3.17529426e-03,
       -1.42600446e-03, -1.72440242e-03, -8.01449642e-04,
       -8.44278198e-04, -4.30674263e-04, -1.95022323e-04,
       -1.15788935e-04, -8.13346298e-04, -9.56061995e-04,
       -1.37668068e-03, -1.36023841e-03, -1.17174897e-03,
       -6.01974665e-04, -3.25139903e-04, -4.16648720e-04,
       -3.80035257e-04, -3.23024637e-04, -4.34405229e-04,
       -1.01995456e-03, -9.36558645e-04, -1.14492897e-03,
       -6.07460352e-05, -3.02223547e-04, -3.94696835e-04,
       -4.31318302e-04, 1.47387595e-03, 3.67644243e-03, -6.01381878e-04,
       -8.97319405e-04, -1.12622301e-03, -1.42977180e-04,
       -1.04817678e-03, -5.11574617e-04, -8.12434242e-04,
       -8.10947968e-04, -3.48218251e-04, -1.21532776e-03,
       -2.25584279e-03, -1.40046957e-03, -1.18053122e-03,
       -1.14749232e-03, -6.21597748e-04, -1.72331114e-03, 6.58602221e-04,
       3.58813722e-03, -3.02528613e-04, -2.17327522e-03, -1.72572304e-03,
       -1.32788881e-03, 1.03683688e-03, 5.35366242e-04, 3.47518479e-04,
       2.45735835e-04, 4.65328165e-04, 4.21646691e-04, 5.18026645e-04,
       5.44373121e-04, 1.25355017e-03, 8.77467217e-04, 4.14084352e-04,
       5.78475243e-04, 1.57051173e-03, 2.94619380e-03, 2.94619380e-03,
       8.27769749e-04, 9.09196911e-04, 1.55337830e-03, 6.42158964e-04,
       2.10058250e-04, 2.30809135e-04, 1.96435663e-04, 4.40954551e-04,
       2.51143967e-04, 5.99463994e-04, 1.51547720e-03, 1.62418862e-03,
       5.81626606e-04, 2.63345020e-04, 5.68832969e-04, 9.69557732e-04,
       2.94619380e-03, 2.94619380e-03, 1.17210881e-03, 1.57362863e-03,
       1.17783598e-03, 3.80024838e-04, 1.28407308e-04, 2.65783368e-04,
       1.28915277e-03, 2.70925928e-03, 2.70925928e-03, 5.01983683e-04,
       4.51787753e-04, 8.27067066e-04, 1.00654678e-03, 2.50554149e-04,
       5.80629625e-04, 3.66655935e-04, 1.50676642e-03, 8.24612274e-04,
       4.33066714e-04, 5.77006314e-04, 1.28588569e-03, 3.32748430e-04,
       2.10069731e-04, 5.57698135e-04, 7.97670335e-04, 2.70925928e-03,
       2.70925928e-03, 6.69948058e-04, 5.94613608e-04, 7.56249472e-04,
       1.10378256e-03, 4.29766427e-04, 9.80513869e-04, 7.54655979e-04,
       2.63831788e-03, 2.05923989e-03, 6.39389094e-04, 9.95368115e-04,
       1.55265979e-03, 2.43272097e-03, 3.35765537e-04, 4.34541056e-04,
       3.94193194e-05, 1.79269278e-04, 1.04938103e-04, 6.48548652e-04,
       7.91904400e-04, 2.00780365e-03, 2.31483509e-03, 4.33110836e-04,
       1.62244774e-04, 7.09153464e-05, 1.20298551e-04, 1.52643071e-04,
       3.39780614e-04, 1.03909406e-03, 1.95018819e-03, 2.53684376e-03,
       5.10462036e-04, 7.71148072e-04, 9.40874103e-04, 1.05009042e-03,
       1.07556046e-03, 9.84685495e-04, 1.50685164e-03, 2.44160765e-03,
       2.43071141e-03, 5.74394770e-04, 7.68551661e-04, 1.23986613e-03,
       1.35954691e-03, 6.52552175e-04, 7.86393066e-04, 1.58481835e-03,
       2.03378126e-03, 2.39370507e-03, 8.60405620e-04, 4.29945707e-04,
       1.10643014e-04, 2.02852680e-04, 1.94548149e-04, 1.70959262e-04,
       1.06862769e-03, 1.65336847e-03, 1.72748312e-03, 9.32056340e-04,
       6.40639220e-04, 6.44585671e-05, 3.98636272e-04, 1.38958960e-04,
       1.59489355e-04, 9.12926625e-04, 2.39185570e-03, 2.47803656e-03,
       1.14840455e-03, 1.10981881e-03, 1.64366723e-03, 1.90162822e-03,
       8.75613827e-04, 6.01508946e-04, 1.54078996e-03, 1.36957667e-03,
       1.83265319e-03, 1.29765284e-03, 9.33758216e-04, 8.85486312e-04,
       9.69179033e-04, 9.56862175e-04, 5.87340852e-04, 1.60854461e-03,
       2.43445882e-03, 8.44034716e-04, 6.31959410e-04, 4.75987268e-04,
       3.00647458e-04, 6.07133203e-04, 4.79949958e-04, 2.55351653e-04,
       6.97006064e-04, 1.01684232e-03, 6.62456616e-04, 6.33742718e-04,
       1.17384025e-03, 2.17114575e-03, 3.34171951e-03, 2.70115468e-03,
       3.76085576e-04, 4.99198621e-04, 2.83293979e-04, 9.92074842e-04,
       9.44553060e-04, 6.44917949e-04, 4.44299396e-04, 6.28477836e-04,
       5.60670509e-04, 5.50227123e-04, 1.29688194e-03, 1.06732163e-03,
       8.27539538e-04, 7.59687624e-04, 1.40524900e-03, 2.38269405e-03,
       3.34171951e-03, 1.60990143e-03, 5.15785418e-04, 7.62546959e-04,
       3.41440085e-04, 2.53982289e-04, 7.26818165e-04, 5.82556124e-04,
       1.45245227e-03, 2.43155169e-03, 1.47304905e-03, 7.53556960e-04,
       5.69456839e-04, 2.27884229e-04, 1.74535520e-03, 1.72255712e-03,
       1.09110645e-03, 1.63267611e-03, 1.94614811e-03, 1.61610579e-03,
       2.29537883e-03, 1.87407830e-03, 1.42896466e-03, 1.17221236e-04,
       3.71218688e-04, 5.72188175e-04, 1.50504580e-03, 2.43155169e-03,
       8.89234303e-04, 1.39534328e-04, 1.30959059e-04, 7.29396706e-05,
       4.22419398e-04, 6.92755508e-04, 9.42166604e-04, 1.15018000e-03,
       2.43155169e-03, 1.04251038e-03, 5.80396212e-04, 4.40936506e-04,
       6.78563840e-04, 1.81440008e-03, 1.11760595e-03, 1.04275299e-03,
       8.54647893e-04, 1.10693043e-03, 1.33417768e-03, 1.87976495e-03,
       1.90217991e-03, 1.72164675e-03, 1.22948410e-03, 1.51236530e-03,
       1.60857581e-03, 8.63835739e-04, -1.89835252e-03, 1.21638400e-03,
       1.40694890e-03, 1.50602602e-03, 6.79745455e-04, 9.63920320e-04,
       5.57621766e-04, 7.16887705e-04, 4.92005609e-04, 6.70124136e-04,
       8.33513332e-04, 8.91675940e-04, 5.29912650e-04, 9.94724571e-04,
       1.28277566e-03, 1.12387910e-03, 1.13010616e-03, 7.16892828e-04,
       -2.82093068e-04, 8.64573696e-04, 1.14480499e-03, 3.40345083e-04,
       5.85119764e-04, 2.21989513e-03, 2.25082017e-03, 1.35685888e-03,
       3.52792471e-04, -2.23665484e-04, 1.97796486e-04, 2.71769444e-04,
       1.37785042e-03, 1.26008480e-03, 2.07331311e-03, 1.97117333e-03,
       1.67791126e-03, -8.04849551e-05, -9.97359981e-04, -8.77535262e-04,
       -8.38056905e-04, -4.36378294e-04, 2.34122213e-04, 1.18861417e-03,
       1.32654968e-03, 1.23815355e-03, 8.77260114e-04, 4.72930027e-04,
       5.00942639e-04, 5.67808049e-04, 8.36802006e-04, 5.81743661e-04,
       1.51904952e-03, 2.19911779e-03, 1.95311499e-03, 1.50356744e-03,
       -5.90383424e-04, -3.94609000e-04, -5.95048186e-04,
       -9.70107212e-05, 5.08715966e-05, 1.27211015e-03, 2.05222494e-03,
       1.63870223e-03, -1.71413137e-06, -6.06564281e-04, -5.68924122e-04,
       -7.23866397e-04, -3.30875424e-04, 5.55512786e-04, 1.16541155e-03,
       1.23994227e-03, 1.18324254e-03, 4.91009792e-04, -1.07894681e-04,
       -2.21603914e-04, -5.56316190e-05, 4.62963108e-05, 5.96397847e-04,
       1.26351661e-03, 2.36983132e-03, 2.20210943e-03, 6.73976378e-04,
       -4.69456456e-04, -5.77542698e-04, -7.18319090e-04,
       -5.64419664e-04, 1.63089760e-04, 1.17987173e-03, 2.12035002e-03,
       1.95779162e-03, 5.12004073e-04, -3.61508792e-05, -3.80990008e-04,
       -6.88688830e-04, -6.09089213e-04, 8.90145820e-05, 9.36761091e-04,
       1.97726511e-03, 1.61336106e-03, 8.18434288e-04, -1.68092098e-04,
       -1.81326424e-04, -1.66979080e-04, -1.97361660e-04, 7.25855280e-05,
       9.59129655e-04, 1.89371395e-03, 1.71395228e-03, 3.50664021e-04,
       -2.53800245e-04, -4.33021225e-04, -5.10557264e-04,
       -6.66335225e-04, -4.98455134e-04, 5.08156721e-04, 1.80369441e-03,
       1.71395228e-03, 1.17432457e-04, -2.87848015e-05, -1.21915626e-04,
       -4.18216398e-04, -1.35562412e-04, 2.83607114e-05, -1.45287820e-04,
       1.71395228e-03, 1.60730304e-03, -1.59866308e-04, 1.22369138e-05,
       -2.70012060e-05, -1.02873622e-04, 5.99626692e-05, -9.90889748e-05,
       1.71443692e-03, 2.04158737e-03, 2.27596262e-03, 4.32992878e-04,
       2.93022208e-06, -1.21552977e-04, -3.12372169e-04, -3.52556875e-04,
       -1.78862159e-04, 1.38541299e-03, 2.05106940e-03, 2.30327318e-03,
       3.99918150e-04, 8.38012347e-05, 9.39456804e-05, 2.58376731e-05,
       3.00851272e-04, 7.40157440e-04, -4.01835459e-05, 1.75309426e-03,
       1.27455196e-03, 1.61624077e-04, 2.91552540e-04, 1.83546086e-04,
       1.31576424e-04, 2.76818144e-04, -2.41791276e-04, 6.03477820e-04,
       4.06660729e-05, 4.03455546e-04, 2.27143319e-04, 4.62007127e-04,
       3.23092536e-04, 1.58263909e-04, 1.33092515e-04, 9.89445653e-06,
       1.29497598e-03, 1.47076952e-03, 1.40526122e-03, 4.39475756e-04,
       2.14248415e-04, 4.02517995e-04, 3.11673299e-04, 1.13355571e-04,
       1.29497598e-03, 1.29497598e-03, 8.98794271e-04, 1.51680969e-03,
       1.22464902e-03, 9.15030134e-04, 1.38141820e-03, 9.99618438e-04,
       -8.12370054e-05, 9.47727705e-04, 1.29497598e-03, -7.54372886e-05,
       6.73377363e-04, 3.56700300e-04, 9.64256411e-04, 5.07421442e-04,
       1.93679807e-04, -4.10815192e-05, 7.88150064e-04, 8.55524791e-04,
       -3.90082350e-05, 7.46977457e-04, 7.53838103e-04, 9.50397749e-04,
       6.03449123e-04, 5.15332620e-04, 9.33566189e-04, 3.80411861e-04,
       1.46661804e-03, 6.01723441e-04, 1.38000364e-03, 1.36584661e-03,
       1.04584044e-03, 1.07778178e-03, 9.59021039e-04, 1.09097781e-03,
       1.00532221e-03, 2.09833146e-03, 7.35170266e-04, 2.95147271e-04,
       9.55189098e-05, 1.96701163e-04, -1.81321036e-06, -2.67996860e-04,
       5.19955298e-04, 1.81621697e-03, 7.85020165e-05, 3.81293910e-04,
       1.01792207e-03, 1.37885974e-03, 5.93358418e-04, 3.69188434e-04,
       5.44050825e-04, 1.32099574e-03, -8.13928345e-05, -4.12408262e-04,
       4.87580750e-04, 7.81430688e-04, 7.29011837e-04, -8.49379110e-04,
       9.41022699e-06, -3.18712351e-04, -1.80891584e-04, -7.72073166e-04,
       1.17842574e-03, 1.15717994e-04, -9.45684660e-05, -8.38690903e-05,
       6.86290557e-04, 5.77095743e-05, -4.38857387e-04, -3.12959542e-04,
       7.07257190e-04, -2.38120731e-04, -3.18225590e-04, 9.61155602e-05,
       6.43154257e-04, 1.10167824e-03, 1.86995987e-03, -5.67997864e-04,
       -2.90708093e-04, -3.45950975e-04, -4.10467095e-04, 9.02648972e-05,
       9.20987441e-06, 2.19769237e-04, 9.02831962e-04, 1.20654040e-04,
       -4.19007760e-04, -7.36010203e-04, -6.59423298e-04,
       -8.34744016e-04, -3.10365547e-04, -3.57595825e-04, 5.05938544e-04,
       1.03086699e-03, 2.01647100e-03, -4.04855266e-04, -7.87845056e-04,
       -8.08314362e-04, -8.49700416e-04, -4.42125602e-04,
       -4.86108502e-06, 4.17863979e-04, 1.28734647e-03, 1.45467452e-03,
       -3.53756011e-04, -2.99088482e-04, -8.02850467e-04,
       -6.91267371e-04, -5.09932637e-04, 1.24581464e-04, 1.16610806e-03,
       1.17086689e-03, 1.41969672e-03, -2.71769415e-04, -3.16525984e-04,
       -3.58209538e-04, -9.47584689e-04, -5.01554110e-04,
       -3.34808428e-04, 2.27257609e-04, 1.28109264e-03, 1.40562677e-03,
       -1.58516850e-04, -6.55021926e-04, -8.51909863e-04,
       -6.39081292e-04, -9.14555276e-04, -7.18485040e-04, 5.60142682e-04,
       2.82601628e-04, 8.63405585e-04, 2.46289652e-04, -1.72127606e-04,
       -5.43464907e-04, -6.58809266e-04, -6.36759738e-04, 7.40022952e-05,
       1.82411820e-03, 1.03829068e-03, 1.92863669e-03, -1.87214842e-04,
       -1.86092191e-04, 1.77914815e-04, -9.30241251e-04, -9.99188400e-04,
       -5.43345406e-04, 4.15464689e-04, 1.12253206e-03, -4.79819864e-04,
       -9.09149530e-04, -2.96408922e-04, -5.16815926e-04,
       -4.17544943e-04, -9.08845046e-04, -3.40469240e-04, 1.87883491e-03,
       1.14595483e-03, 8.59422376e-04, 1.16471259e-04, -1.63341450e-04,
       -3.45295237e-04, -7.96010543e-04, -7.29215855e-04,
       -5.05176955e-04, 7.89151993e-04, 1.08390930e-03, -1.36740378e-03,
       -5.28853387e-04, -6.92701957e-04, -8.06465978e-04,
       -4.51586471e-04, -3.03144334e-04, -2.01437928e-04,
       -3.88496119e-04, 3.16991727e-03, -1.41712488e-03, -9.35019401e-04,
       -4.29966341e-04, -6.30325172e-04, 8.92447570e-05, -2.12059618e-04,
       -1.68637795e-04, -5.34745457e-04, -6.43104780e-04,
       -8.91651551e-04, -8.18509609e-04, -7.95520784e-04,
       -1.47963583e-04, -5.07716264e-04, -5.87965005e-05,
       -5.12322818e-04, 2.19048652e-05, 3.11119668e-03, -1.76389515e-03,
       -1.12844561e-03, -6.47466222e-04, -5.34866587e-04, 1.87827041e-04,
       -4.48025385e-04, -7.01992074e-04, -8.34533828e-04,
       -1.05308881e-03, -1.45289872e-03, -7.76455447e-04,
       -6.77601143e-04, -1.67078877e-04, -5.81380737e-04,
       -3.20412306e-04, -6.26324152e-04, -4.56506998e-04,
       -1.12598376e-04, -7.28389597e-04, -1.30385312e-03,
       -6.21559273e-04, -6.90974237e-04, -8.97101127e-04,
       -4.76417335e-04, -1.61285338e-03, 7.67444842e-04, 3.67705314e-03,
       -7.65511591e-04, -1.79551169e-03, -9.60685778e-04,
       -1.19497580e-03, -6.88024098e-04, -1.23054243e-03,
       -1.31670805e-03, -9.62718681e-04, 1.73710650e-04, -6.18903025e-04,
       -8.44665803e-04, -4.48618230e-04, -6.91060151e-04,
       -1.21606165e-03, -1.61285035e-03, -2.03896989e-03,
       -1.06466888e-03, 3.60714085e-03, -1.28879270e-03, -1.13345077e-03,
       -1.04364927e-03, -1.66430068e-03, 7.06055842e-04, 1.73005523e-04,
       2.77473970e-04, 2.87786097e-04, 4.39492957e-04, 4.88662452e-04,
       5.96863509e-04, 1.51575322e-03, 1.96884456e-03, 7.38508126e-04,
       1.56017690e-04, 3.27799091e-04, 7.54298700e-04, 3.53645044e-03,
       2.77052401e-03, 1.60565309e-03, 1.58811430e-03, 1.33297092e-03,
       4.54376219e-04, 3.54184449e-04, 6.57299301e-04, 5.41136484e-04,
       7.33646739e-04, 5.16115688e-04, 4.53251239e-04, 4.31706198e-04,
       6.42824220e-04, 4.37482027e-04, 3.39830731e-04, 4.54603258e-04,
       1.97687629e-03, 3.53645044e-03, 1.65593659e-03, 7.90484424e-04,
       5.64553193e-04, 4.33486013e-04, 1.62641227e-04, 9.29642410e-05,
       2.51201302e-04, 6.54858537e-04, 3.19924997e-03, 1.86513073e-03,
       3.96289979e-04, 2.43469549e-04, 1.70070532e-04, 1.98916256e-04,
       1.48855237e-04, 3.20959720e-04, 9.29370639e-04, 3.19924997e-03,
       1.74659712e-03, 4.22138546e-04, 3.21937376e-04, 3.05536698e-04,
       9.32781477e-05, 9.91597553e-05, 1.02081722e-04, 1.37326133e-03,
       3.19924997e-03, 1.08589116e-03, 1.50342268e-04, 8.20412024e-05,
       2.87237544e-05, 8.32727674e-05, 1.57644667e-04, 1.58682305e-04,
       1.58615597e-03, 3.19924997e-03, 2.00075493e-03, 3.14541598e-04,
       5.76563834e-05, 3.94012059e-05, 7.60667666e-04, 2.19515554e-04,
       4.53741901e-04, 1.36491470e-03, 3.06612579e-03, 1.49324338e-03,
       9.82545549e-04, 5.74874866e-04, 7.05718703e-04, 6.04269619e-04,
       2.11433566e-04, 6.90568530e-04, 1.54202618e-03, 3.06612579e-03,
       1.12021319e-03, 6.45813299e-04, 3.69012909e-04, 5.26497315e-04,
       2.18156114e-04, 1.70760264e-04, 3.70476628e-04, 1.84004684e-03,
       3.06612579e-03, 2.14978983e-03, 6.53583789e-04, 7.23149060e-05,
       1.43531171e-04, 2.30383594e-04, 1.60356984e-04, 3.74961615e-04,
       6.53668365e-04, 3.06612579e-03, 6.29034941e-04, 2.31807964e-04,
       3.98971497e-05, 1.19625591e-04, 5.22365794e-04, 2.72000092e-04,
       6.63664541e-04, 1.79910986e-03, 3.22297076e-03, 1.52103242e-03,
       6.26089866e-04, 2.97691586e-04, 2.69342971e-04, 3.96301417e-04,
       3.40425933e-04, 5.24891424e-04, 1.30522647e-03, 2.44778045e-03,
       1.67060853e-03, 6.19934988e-04, 6.99866097e-04, 6.40477985e-04,
       2.53580540e-04, 9.46635773e-05, 2.20678179e-04, 8.22859176e-04,
       3.22297076e-03, 1.23701477e-03, 3.41546081e-04, 7.07884028e-05,
       7.70789266e-05, 3.25487345e-04, 1.77855705e-04, 3.00746877e-04,
       1.68803253e-03, 3.22297076e-03, 1.77901669e-03, 4.61012940e-04,
       2.67979049e-04, 3.03421402e-04, 2.81726068e-04, 2.13304651e-04,
       2.74785678e-04, 3.73749644e-04, 5.86068141e-04, 6.02245622e-04,
       3.98669450e-04, 4.63228353e-04, 3.74767900e-04, 9.90580535e-04,
       9.63393599e-04, 6.17660000e-04, 1.22947479e-03, 2.54319445e-03,
       1.80414959e-03, 8.12603510e-04, 3.22537409e-04, 5.73194586e-04,
       2.80741981e-04, 2.55446910e-04, 2.82287423e-04, 6.80799421e-04,
       9.15082404e-04, 9.09740222e-04, 5.68836986e-04, 3.99944751e-04,
       2.74966267e-04, 2.18088552e-03, 2.54319445e-03, 1.54053199e-03,
       1.20540662e-03, 2.54319445e-03, 2.54319445e-03, 2.54319445e-03,
       1.41371263e-03, 1.98953506e-03, 4.69130086e-04, 5.30010904e-04,
       2.26002623e-04, 7.68561498e-04, 2.01376574e-03, 1.18709181e-03,
       4.24178201e-04, 1.16938078e-04, 3.27725982e-04, 3.29266448e-04,
       3.71155911e-04, 3.80276120e-04, 7.49266939e-04, 1.73593184e-03,
       1.00476760e-03, 5.92317898e-04, 2.58633809e-04, 4.56842099e-04,
